{"learner":{"attributes":{},"feature_names":[],"feature_types":[],"gradient_booster":{"model":{"gbtree_model_param":{"num_trees":"2000","size_leaf_vector":"0"},
"tree_info":[0,0,0,0,0,0,0,0,0,0,0,0,0,0,0,0,0,0,0,0,0,0,0,0,0,0,0,0,0,0,0,0,0,0,0,0,0,0,0,0,0,0,0,0,0,0,0,0,0,0,0,0,0,0,0,0,0,0,0,0,0,0,0,0,0,0,0,0,0,0,0,0,0,0,0,0,0,0,0,0,0,0,0,0,0,0,0,0,0,0,0,0,0,0,0,0,0,0,0,0,0,0,0,0,0,0,0,0,0,0,0,0,0,0,0,0,0,0,0,0,0,0,0,0,0,0,0,0,0,0,0,0,0,0,0,0,0,0,0,0,0,0,0,0,0,0,0,0,0,0,0,0,0,0,0,0,0,0,0,0,0,0,0,0,0,0,0,0,0,0,0,0,0,0,0,0,0,0,0,0,0,0,0,0,0,0,0,0,0,0,0,0,0,0,0,0,0,0,0,0,0,0,0,0,0,0,0,0,0,0,0,0,0,0,0,0,0,0,0,0,0,0,0,0,0,0,0,0,0,0,0,0,0,0,0,0,0,0,0,0,0,0,0,0,0,0,0,0,0,0,0,0,0,0,0,0,0,0,0,0,0,0,0,0,0,0,0,0,0,0,0,0,0,0,0,0,0,0,0,0,0,0,0,0,0,0,0,0,0,0,0,0,0,0,0,0,0,0,0,0,0,0,0,0,0,0,0,0,0,0,0,0,0,0,0,0,0,0,0,0,0,0,0,0,0,0,0,0,0,0,0,0,0,0,0,0,0,0,0,0,0,0,0,0,0,0,0,0,0,0,0,0,0,0,0,0,0,0,0,0,0,0,0,0,0,0,0,0,0,0,0,0,0,0,0,0,0,0,0,0,0,0,0,0,0,0,0,0,0,0,0,0,0,0,0,0,0,0,0,0,0,0,0,0,0,0,0,0,0,0,0,0,0,0,0,0,0,0,0,0,0,0,0,0,0,0,0,0,0,0,0,0,0,0,0,0,0,0,0,0,0,0,0,0,0,0,0,0,0,0,0,0,0,0,0,0,0,0,0,0,0,0,0,0,0,0,0,0,0,0,0,0,0,0,0,0,0,0,0,0,0,0,0,0,0,0,0,0,0,0,0,0,0,0,0,0,0,0,0,0,0,0,0,0,0,0,0,0,0,0,0,0,0,0,0,0,0,0,0,0,0,0,0,0,0,0,0,0,0,0,0,0,0,0,0,0,0,0,0,0,0,0,0,0,0,0,0,0,0,0,0,0,0,0,0,0,0,0,0,0,0,0,0,0,0,0,0,0,0,0,0,0,0,0,0,0,0,0,0,0,0,0,0,0,0,0,0,0,0,0,0,0,0,0,0,0,0,0,0,0,0,0,0,0,0,0,0,0,0,0,0,0,0,0,0,0,0,0,0,0,0,0,0,0,0,0,0,0,0,0,0,0,0,0,0,0,0,0,0,0,0,0,0,0,0,0,0,0,0,0,0,0,0,0,0,0,0,0,0,0,0,0,0,0,0,0,0,0,0,0,0,0,0,0,0,0,0,0,0,0,0,0,0,0,0,0,0,0,0,0,0,0,0,0,0,0,0,0,0,0,0,0,0,0,0,0,0,0,0,0,0,0,0,0,0,0,0,0,0,0,0,0,0,0,0,0,0,0,0,0,0,0,0,0,0,0,0,0,0,0,0,0,0,0,0,0,0,0,0,0,0,0,0,0,0,0,0,0,0,0,0,0,0,0,0,0,0,0,0,0,0,0,0,0,0,0,0,0,0,0,0,0,0,0,0,0,0,0,0,0,0,0,0,0,0,0,0,0,0,0,0,0,0,0,0,0,0,0,0,0,0,0,0,0,0,0,0,0,0,0,0,0,0,0,0,0,0,0,0,0,0,0,0,0,0,0,0,0,0,0,0,0,0,0,0,0,0,0,0,0,0,0,0,0,0,0,0,0,0,0,0,0,0,0,0,0,0,0,0,0,0,0,0,0,0,0,0,0,0,0,0,0,0,0,0,0,0,0,0,0,0,0,0,0,0,0,0,0,0,0,0,0,0,0,0,0,0,0,0,0,0,0,0,0,0,0,0,0,0,0,0,0,0,0,0,0,0,0,0,0,0,0,0,0,0,0,0,0,0,0,0,0,0,0,0,0,0,0,0,0,0,0,0,0,0,0,0,0,0,0,0,0,0,0,0,0,0,0,0,0,0,0,0,0,0,0,0,0,0,0,0,0,0,0,0,0,0,0,0,0,0,0,0,0,0,0,0,0,0,0,0,0,0,0,0,0,0,0,0,0,0,0,0,0,0,0,0,0,0,0,0,0,0,0,0,0,0,0,0,0,0,0,0,0,0,0,0,0,0,0,0,0,0,0,0,0,0,0,0,0,0,0,0,0,0,0,0,0,0,0,0,0,0,0,0,0,0,0,0,0,0,0,0,0,0,0,0,0,0,0,0,0,0,0,0,0,0,0,0,0,0,0,0,0,0,0,0,0,0,0,0,0,0,0,0,0,0,0,0,0,0,0,0,0,0,0,0,0,0,0,0,0,0,0,0,0,0,0,0,0,0,0,0,0,0,0,0,0,0,0,0,0,0,0,0,0,0,0,0,0,0,0,0,0,0,0,0,0,0,0,0,0,0,0,0,0,0,0,0,0,0,0,0,0,0,0,0,0,0,0,0,0,0,0,0,0,0,0,0,0,0,0,0,0,0,0,0,0,0,0,0,0,0,0,0,0,0,0,0,0,0,0,0,0,0,0,0,0,0,0,0,0,0,0,0,0,0,0,0,0,0,0,0,0,0,0,0,0,0,0,0,0,0,0,0,0,0,0,0,0,0,0,0,0,0,0,0,0,0,0,0,0,0,0,0,0,0,0,0,0,0,0,0,0,0,0,0,0,0,0,0,0,0,0,0,0,0,0,0,0,0,0,0,0,0,0,0,0,0,0,0,0,0,0,0,0,0,0,0,0,0,0,0,0,0,0,0,0,0,0,0,0,0,0,0,0,0,0,0,0,0,0,0,0,0,0,0,0,0,0,0,0,0,0,0,0,0,0,0,0,0,0,0,0,0,0,0,0,0,0,0,0,0,0,0,0,0,0,0,0,0,0,0,0,0,0,0,0,0,0,0,0,0,0,0,0,0,0,0,0,0,0,0,0,0,0,0,0,0,0,0,0,0,0,0,0,0,0,0,0,0,0,0,0,0,0,0,0,0,0,0,0,0,0,0,0,0,0,0,0,0,0,0,0,0,0,0,0,0,0,0,0,0,0,0,0,0,0,0,0,0,0,0,0,0,0,0,0,0,0,0,0,0,0,0,0,0,0,0,0,0,0,0,0,0,0,0,0,0,0,0,0,0,0,0,0,0,0,0,0,0,0,0,0,0,0,0,0,0,0,0,0,0,0,0,0,0,0,0,0,0,0,0,0,0,0,0,0,0,0,0,0,0,0,0,0,0,0,0,0,0,0,0,0,0,0,0,0,0,0,0,0,0,0,0,0,0,0,0,0,0,0,0,0,0,0,0,0,0,0,0,0,0,0,0,0,0,0,0,0,0,0,0,0,0,0,0,0,0,0,0,0,0,0,0,0,0,0,0,0,0,0,0,0,0,0,0,0,0,0,0,0,0,0,0,0,0,0,0,0,0,0,0,0,0,0,0,0,0,0,0,0,0,0,0,0,0,0,0,0,0,0,0,0,0,0,0,0,0,0,0,0,0,0,0,0,0,0,0,0,0,0,0,0,0,0,0,0,0,0,0,0,0,0,0,0,0,0,0,0,0,0,0,0,0,0,0,0,0,0,0,0,0,0,0,0,0,0,0,0,0,0,0,0,0,0,0,0,0,0,0,0,0,0,0,0,0,0,0,0,0,0,0,0,0,0,0,0,0,0,0,0,0,0,0,0,0,0,0,0,0,0,0,0,0,0,0,0,0,0,0,0,0,0,0,0,0,0,0,0,0,0,0,0,0,0,0,0,0,0,0,0,0,0,0,0,0,0,0,0,0,0,0,0,0,0,0,0,0,0,0,0,0,0,0,0,0,0,0,0,0,0,0,0,0,0,0,0,0,0,0,0,0,0,0,0,0,0,0,0,0,0,0,0,0,0,0,0,0,0,0,0,0,0,0,0,0,0,0,0,0,0,0,0,0,0,0,0,0,0,0,0,0,0,0,0,0,0,0,0,0,0,0,0,0,0,0,0,0,0,0,0,0,0,0,0,0,0,0,0,0,0,0,0,0,0,0,0,0,0,0,0,0,0,0,0,0,0,0,0,0,0,0,0,0,0,0,0,0,0,0,0,0,0,0,0,0,0,0,0,0,0,0,0,0,0,0,0,0,0,0,0,0,0,0,0,0,0,0,0,0,0,0,0,0,0,0,0,0,0,0,0,0,0,0,0,0,0,0,0,0,0,0,0,0,0,0,0,0,0,0,0,0,0,0,0,0,0,0,0,0,0,0,0,0,0,0,0,0,0,0,0,0,0,0,0,0,0,0,0,0,0,0,0,0,0,0,0,0,0],
"trees":
[
{
"base_weights":[0.0,0.0,0.0,0.0,0.0,0.0,0.0,0.0,0.0,0.0,0.0,0.0,0.0,0.0,0.0,0.0,0.0,0.0,0.0,0.0,0.0,0.0,0.0,0.0,0.0,0.0,0.0],
"categories":[],"categories_nodes":[],"categories_segments":[],"categories_sizes":[],
"default_left":[true,true,true,true,true,true,false,true,true,false,false,false,true,true,false,false,true,false,true,false,false,true,false,false,false,false,false],
"id":0,
"left_children":[1,3,5,7,9,11,-1,13,15,-1,-1,-1,17,19,-1,-1,21,-1,23,-1,-1,25,-1,-1,-1,-1,-1],
"loss_changes":[0.0,0.0,0.0,0.0,0.0,0.0,0.0,0.0,0.0,0.0,0.0,0.0,0.0,0.0,0.0,0.0,0.0,0.0,0.0,0.0,0.0,0.0,0.0,0.0,0.0,0.0,0.0],
"parents":[2147483647,0,0,1,1,2,2,3,3,4,4,5,5,7,7,8,8,12,12,13,13,16,16,18,18,21,21],
"right_children":[2,4,6,8,10,12,-1,14,16,-1,-1,-1,18,20,-1,-1,22,-1,24,-1,-1,26,-1,-1,-1,-1,-1],
"split_conditions":[2.2910039424896240e+00,4.9762377738952637e+00,8.8452756404876709e-01,9.5035809278488159e-01,8.3619862794876099e-01,3.6587376594543457e+00,-3.6665912717580795e-02,8.6359716951847076e-03,8.8754773139953613e-01,-7.9557001590728760e-02,-3.7047270685434341e-02,-6.4220950007438660e-02,1.0038117878139019e-02,4.5272182673215866e-02,-3.4411163069307804e-03,4.7414634376764297e-02,2.7703638076782227e+00,-8.8445447385311127e-02,7.7496385574340820e+00,5.1685329526662827e-02,2.2903580218553543e-02,8.0608371645212173e-03,7.0678263902664185e-02,-9.6221879124641418e-02,-9.9456533789634705e-02,8.8890664279460907e-02,8.1560604274272919e-02],
"split_indices":[8,12,6,1,1,8,0,3,6,0,0,0,2,4,0,0,12,0,8,0,0,4,0,0,0,0,0],
"split_type":[0,0,0,0,0,0,0,0,0,0,0,0,0,0,0,0,0,0,0,0,0,0,0,0,0,0,0],
"sum_hessian":[0.0,0.0,0.0,0.0,0.0,0.0,0.0,0.0,0.0,0.0,0.0,0.0,0.0,0.0,0.0,0.0,0.0,0.0,0.0,0.0,0.0,0.0,0.0,0.0,0.0,0.0,0.0],
"tree_param":{"num_deleted":"0","num_feature":"15","num_nodes":"27","size_leaf_vector":"0"}
},
{
"base_weights":[0.0,0.0,0.0,0.0,0.0,0.0,0.0,0.0,0.0,0.0,0.0,0.0,0.0,0.0,0.0,0.0,0.0,0.0,0.0,0.0,0.0,0.0,0.0,0.0,0.0,0.0,0.0],
"categories":[],"categories_nodes":[],"categories_segments":[],"categories_sizes":[],
"default_left":[true,true,true,true,true,true,false,true,true,false,false,false,true,true,false,false,true,false,true,false,false,true,false,false,false,false,false],
"id":1,
"left_children":[1,3,5,7,9,11,-1,13,15,-1,-1,-1,17,19,-1,-1,21,-1,23,-1,-1,25,-1,-1,-1,-1,-1],
"loss_changes":[0.0,0.0,0.0,0.0,0.0,0.0,0.0,0.0,0.0,0.0,0.0,0.0,0.0,0.0,0.0,0.0,0.0,0.0,0.0,0.0,0.0,0.0,0.0,0.0,0.0,0.0,0.0],
"parents":[2147483647,0,0,1,1,2,2,3,3,4,4,5,5,7,7,8,8,12,12,13,13,16,16,18,18,21,21],
"right_children":[2,4,6,8,10,12,-1,14,16,-1,-1,-1,18,20,-1,-1,22,-1,24,-1,-1,26,-1,-1,-1,-1,-1],
"split_conditions":[2.5201041698455811e+00,4.6652231216430664e+00,8.7778282165527344e-01,9.3919694423675537e-01,7.1347188949584961e+00,3.8871545791625977e+00,-4.1584406048059464e-02,8.5319597274065018e-03,8.8517278432846069e-01,-2.2792981937527657e-02,-7.3468513786792755e-02,-6.4878210425376892e-02,9.3429805710911751e-03,4.2817663401365280e-02,-2.4007889442145824e-03,4.0329903364181519e-02,2.6904861927032471e+00,-8.1353873014450073e-02,6.4665880203247070e+00,4.8208784312009811e-02,2.1610610187053680e-02,8.7025880813598633e-01,6.4639188349246979e-02,-8.7566502392292023e-02,-9.0453013777732849e-02,8.0036111176013947e-02,7.1185179054737091e-02],
"split_indices":[8,12,6,1,12,8,0,3,6,0,0,0,2,4,0,0,12,0,12,0,0,8,0,0,0,0,0],
"split_type":[0,0,0,0,0,0,0,0,0,0,0,0,0,0,0,0,0,0,0,0,0,0,0,0,0,0,0],
"sum_hessian":[0.0,0.0,0.0,0.0,0.0,0.0,0.0,0.0,0.0,0.0,0.0,0.0,0.0,0.0,0.0,0.0,0.0,0.0,0.0,0.0,0.0,0.0,0.0,0.0,0.0,0.0,0.0],
"tree_param":{"num_deleted":"0","num_feature":"15","num_nodes":"27","size_leaf_vector":"0"}
},
{
"base_weights":[0.0,0.0,0.0,0.0,0.0,0.0,0.0,0.0,0.0,0.0,0.0,0.0,0.0,0.0,0.0,0.0,0.0,0.0,0.0,0.0,0.0,0.0,0.0,0.0,0.0,0.0,0.0],
"categories":[],"categories_nodes":[],"categories_segments":[],"categories_sizes":[],
"default_left":[true,true,true,true,true,false,true,true,true,false,false,true,false,false,false,false,true,false,true,true,true,false,false,false,false,false,false],
"id":2,
"left_children":[1,3,5,7,9,-1,11,13,15,-1,-1,17,-1,-1,-1,-1,19,-1,21,23,25,-1,-1,-1,-1,-1,-1],
"loss_changes":[0.0,0.0,0.0,0.0,0.0,0.0,0.0,0.0,0.0,0.0,0.0,0.0,0.0,0.0,0.0,0.0,0.0,0.0,0.0,0.0,0.0,0.0,0.0,0.0,0.0,0.0,0.0],
"parents":[2147483647,0,0,1,1,2,2,3,3,4,4,6,6,7,7,8,8,11,11,16,16,18,18,19,19,20,20],
"right_children":[2,4,6,8,10,-1,12,14,16,-1,-1,18,-1,-1,-1,-1,20,-1,22,24,26,-1,-1,-1,-1,-1,-1],
"split_conditions":[2.0619034767150879e+00,4.3542079925537109e+00,3.4303269386291504e+00,8.7641537189483643e-01,6.8249306678771973e+00,-2.5517527014017105e-02,8.8549107313156128e-01,7.1798036806285381e-03,8.7382298707962036e-01,-1.2814037501811981e-02,-6.4628019928932190e-02,4.9969091415405273e+00,-5.2335787564516068e-02,3.4664873033761978e-02,6.1548911035060883e-03,3.2076276838779449e-02,8.0608371645212173e-03,-7.2401285171508789e-02,3.0612644195556641e+01,6.9194082170724869e-03,1.9322979450225830e+00,-8.3575502038002014e-02,-8.0223292112350464e-02,7.5064666569232941e-02,6.8477712571620941e-02,6.7348636686801910e-02,5.4954029619693756e-02],
"split_indices":[8,12,8,1,12,0,6,3,6,0,0,12,0,0,0,0,4,0,14,3,12,0,0,0,0,0,0],
"split_type":[0,0,0,0,0,0,0,0,0,0,0,0,0,0,0,0,0,0,0,0,0,0,0,0,0,0,0],
"sum_hessian":[0.0,0.0,0.0,0.0,0.0,0.0,0.0,0.0,0.0,0.0,0.0,0.0,0.0,0.0,0.0,0.0,0.0,0.0,0.0,0.0,0.0,0.0,0.0,0.0,0.0,0.0,0.0],
"tree_param":{"num_deleted":"0","num_feature":"15","num_nodes":"27","size_leaf_vector":"0"}
},
{
"base_weights":[0.0,0.0,0.0,0.0,0.0,0.0,0.0,0.0,0.0,0.0,0.0,0.0,0.0,0.0,0.0,0.0,0.0,0.0,0.0,0.0,0.0,0.0,0.0,0.0,0.0,0.0,0.0],
"categories":[],"categories_nodes":[],"categories_segments":[],"categories_sizes":[],
"default_left":[true,true,true,true,false,true,true,true,true,false,false,true,false,true,false,false,true,false,true,false,false,true,false,false,false,false,false],
"id":3,
"left_children":[1,3,5,7,-1,9,11,13,15,-1,-1,17,-1,19,-1,-1,21,-1,23,-1,-1,25,-1,-1,-1,-1,-1],
"loss_changes":[0.0,0.0,0.0,0.0,0.0,0.0,0.0,0.0,0.0,0.0,0.0,0.0,0.0,0.0,0.0,0.0,0.0,0.0,0.0,0.0,0.0,0.0,0.0,0.0,0.0,0.0,0.0],
"parents":[2147483647,0,0,1,1,2,2,3,3,5,5,6,6,7,7,8,8,11,11,13,13,16,16,18,18,21,21],
"right_children":[2,4,6,8,-1,10,12,14,16,-1,-1,18,-1,20,-1,-1,22,-1,24,-1,-1,26,-1,-1,-1,-1,-1],
"split_conditions":[2.0619034767150879e+00,5.2872529029846191e+00,3.8864669799804688e+00,9.1826975345611572e-01,-4.8271249979734421e-02,4.8844790458679199e+00,8.7007451057434082e-01,2.5815255641937256e+00,8.8129395246505737e-01,6.2448770040646195e-04,-6.4041182398796082e-02,5.9308900833129883e+00,-5.5904783308506012e-02,4.6942327171564102e-02,-8.3795981481671333e-03,2.9632713645696640e-02,2.8721749782562256e+00,-6.9782219827175140e-02,9.0968008041381836e+00,4.1411701589822769e-02,1.8094452098011971e-02,7.8963302075862885e-03,5.2283491939306259e-02,-7.5686067342758179e-02,-7.8459531068801880e-02,6.9414176046848297e-02,6.2022011727094650e-02],
"split_indices":[8,12,8,1,0,12,6,12,6,0,0,8,0,4,0,0,12,0,8,0,0,4,0,0,0,0,0],
"split_type":[0,0,0,0,0,0,0,0,0,0,0,0,0,0,0,0,0,0,0,0,0,0,0,0,0,0,0],
"sum_hessian":[0.0,0.0,0.0,0.0,0.0,0.0,0.0,0.0,0.0,0.0,0.0,0.0,0.0,0.0,0.0,0.0,0.0,0.0,0.0,0.0,0.0,0.0,0.0,0.0,0.0,0.0,0.0],
"tree_param":{"num_deleted":"0","num_feature":"15","num_nodes":"27","size_leaf_vector":"0"}
},
{
"base_weights":[0.0,0.0,0.0,0.0,0.0,0.0,0.0,0.0,0.0,0.0,0.0,0.0,0.0,0.0,0.0,0.0,0.0,0.0,0.0,0.0,0.0,0.0,0.0,0.0,0.0,0.0,0.0],
"categories":[],"categories_nodes":[],"categories_segments":[],"categories_sizes":[],
"default_left":[true,true,true,true,true,true,false,true,true,false,false,false,true,false,false,true,false,true,false,true,true,false,false,false,false,false,false],
"id":4,
"left_children":[1,3,5,7,9,11,-1,13,15,-1,-1,-1,17,-1,-1,19,-1,21,-1,23,25,-1,-1,-1,-1,-1,-1],
"loss_changes":[0.0,0.0,0.0,0.0,0.0,0.0,0.0,0.0,0.0,0.0,0.0,0.0,0.0,0.0,0.0,0.0,0.0,0.0,0.0,0.0,0.0,0.0,0.0,0.0,0.0,0.0,0.0],
"parents":[2147483647,0,0,1,1,2,2,3,3,4,4,5,5,7,7,8,8,12,12,15,15,17,17,19,19,20,20],
"right_children":[2,4,6,8,10,12,-1,14,16,-1,-1,-1,18,-1,-1,20,-1,22,-1,24,26,-1,-1,-1,-1,-1,-1],
"split_conditions":[2.5201041698455811e+00,4.3542079925537109e+00,8.9030879735946655e-01,8.5827845335006714e-01,8.7906044721603394e-01,4.7029733657836914e+00,-2.4265462532639503e-02,7.4918395839631557e-03,9.6591403707861900e-03,-5.5449623614549637e-02,-3.4291462507098913e-03,-5.4402500391006470e-02,3.4726772308349609e+01,2.6619801297783852e-02,-2.5608472060412169e-04,8.5543580353260040e-03,1.6594648361206055e-02,1.9402544021606445e+01,-6.7080780863761902e-02,5.3147524595260620e-01,2.1324911117553711e+00,-7.5034447014331818e-02,-7.2846233844757080e-02,6.6601529717445374e-02,6.0112781822681427e-02,5.5648777633905411e-02,3.9062045514583588e-02],
"split_indices":[8,12,6,1,6,12,0,3,2,0,0,0,14,0,0,4,0,14,0,8,12,0,0,0,0,0,0],
"split_type":[0,0,0,0,0,0,0,0,0,0,0,0,0,0,0,0,0,0,0,0,0,0,0,0,0,0,0],
"sum_hessian":[0.0,0.0,0.0,0.0,0.0,0.0,0.0,0.0,0.0,0.0,0.0,0.0,0.0,0.0,0.0,0.0,0.0,0.0,0.0,0.0,0.0,0.0,0.0,0.0,0.0,0.0,0.0],
"tree_param":{"num_deleted":"0","num_feature":"15","num_nodes":"27","size_leaf_vector":"0"}
},
{
"base_weights":[0.0,0.0,0.0,0.0,0.0,0.0,0.0,0.0,0.0,0.0,0.0,0.0,0.0,0.0,0.0,0.0,0.0,0.0,0.0,0.0,0.0,0.0,0.0,0.0,0.0,0.0,0.0],
"categories":[],"categories_nodes":[],"categories_segments":[],"categories_sizes":[],
"default_left":[true,true,true,true,false,true,true,true,true,true,true,false,false,true,false,false,true,false,false,false,false,false,false,true,false,false,false],
"id":5,
"left_children":[1,3,5,7,-1,9,11,13,15,17,19,-1,-1,21,-1,-1,23,-1,-1,-1,-1,-1,-1,25,-1,-1,-1],
"loss_changes":[0.0,0.0,0.0,0.0,0.0,0.0,0.0,0.0,0.0,0.0,0.0,0.0,0.0,0.0,0.0,0.0,0.0,0.0,0.0,0.0,0.0,0.0,0.0,0.0,0.0,0.0,0.0],
"parents":[2147483647,0,0,1,1,2,2,3,3,5,5,6,6,7,7,8,8,9,9,10,10,13,13,16,16,23,23],
"right_children":[2,4,6,8,-1,10,12,14,16,18,20,-1,-1,22,-1,-1,24,-1,-1,-1,-1,-1,-1,26,-1,-1,-1],
"split_conditions":[1.8328031301498413e+00,5.5982675552368164e+00,8.7200158834457397e-01,9.6012413501739502e-01,-4.4021312147378922e-02,9.3429572880268097e-03,3.8264329433441162e+00,9.0060112997889519e-03,8.9013284444808960e-01,4.5154318809509277e+00,8.2899034023284912e-03,1.2531531974673271e-02,-4.7827616333961487e-02,6.9993638992309570e-01,-1.1894892901182175e-02,3.1579788774251938e-02,8.0042043700814247e-03,-3.1817093491554260e-02,-6.3751064240932465e-02,-6.4051486551761627e-02,-7.2128780186176300e-02,1.2561357580125332e-02,3.7731721997261047e-02,8.4365895017981529e-03,5.0185639411211014e-02,6.1729386448860168e-02,5.5132187902927399e-02],
"split_indices":[8,12,6,1,0,2,8,2,6,8,3,0,0,1,0,0,3,0,0,0,0,0,0,4,0,0,0],
"split_type":[0,0,0,0,0,0,0,0,0,0,0,0,0,0,0,0,0,0,0,0,0,0,0,0,0,0,0],
"sum_hessian":[0.0,0.0,0.0,0.0,0.0,0.0,0.0,0.0,0.0,0.0,0.0,0.0,0.0,0.0,0.0,0.0,0.0,0.0,0.0,0.0,0.0,0.0,0.0,0.0,0.0,0.0,0.0],
"tree_param":{"num_deleted":"0","num_feature":"15","num_nodes":"27","size_leaf_vector":"0"}
},
{
"base_weights":[0.0,0.0,0.0,0.0,0.0,0.0,0.0,0.0,0.0,0.0,0.0,0.0,0.0,0.0,0.0,0.0,0.0,0.0,0.0,0.0,0.0,0.0,0.0,0.0,0.0],
"categories":[],"categories_nodes":[],"categories_segments":[],"categories_sizes":[],
"default_left":[true,true,true,true,false,true,false,true,false,true,true,true,true,false,false,false,false,false,false,true,true,false,false,false,false],
"id":6,
"left_children":[1,3,5,7,-1,9,-1,11,-1,13,15,17,19,-1,-1,-1,-1,-1,-1,21,23,-1,-1,-1,-1],
"loss_changes":[0.0,0.0,0.0,0.0,0.0,0.0,0.0,0.0,0.0,0.0,0.0,0.0,0.0,0.0,0.0,0.0,0.0,0.0,0.0,0.0,0.0,0.0,0.0,0.0,0.0],
"parents":[2147483647,0,0,1,1,2,2,3,3,5,5,7,7,9,9,10,10,11,11,12,12,19,19,20,20],
"right_children":[2,4,6,8,-1,10,-1,12,-1,14,16,18,20,-1,-1,-1,-1,-1,-1,22,24,-1,-1,-1,-1],
"split_conditions":[4.0431933403015137e+00,3.1354670524597168e+00,8.8934522867202759e-01,9.8413880914449692e-03,-4.1801530867815018e-02,9.8712788894772530e-03,-1.5123583376407623e-02,8.0805319547653198e-01,-1.4715007506310940e-02,6.8330082893371582e+00,4.3529071807861328e+00,5.2777204662561417e-02,8.7188649922609329e-03,-2.9442833736538887e-02,-5.9010345488786697e-02,-6.8725757300853729e-02,-6.7849501967430115e-02,2.8387211263179779e-02,5.0401892513036728e-03,7.2504649870097637e-03,8.6964648962020874e-01,5.9444647282361984e-02,5.2869994193315506e-02,4.7223865985870361e-02,3.0041424557566643e-02],
"split_indices":[12,8,6,2,0,2,0,1,0,12,8,4,4,0,0,0,0,0,0,4,8,0,0,0,0],
"split_type":[0,0,0,0,0,0,0,0,0,0,0,0,0,0,0,0,0,0,0,0,0,0,0,0,0],
"sum_hessian":[0.0,0.0,0.0,0.0,0.0,0.0,0.0,0.0,0.0,0.0,0.0,0.0,0.0,0.0,0.0,0.0,0.0,0.0,0.0,0.0,0.0,0.0,0.0,0.0,0.0],
"tree_param":{"num_deleted":"0","num_feature":"15","num_nodes":"25","size_leaf_vector":"0"}
},
{
"base_weights":[0.0,0.0,0.0,0.0,0.0,0.0,0.0,0.0,0.0,0.0,0.0,0.0,0.0,0.0,0.0,0.0,0.0,0.0,0.0,0.0,0.0,0.0,0.0,0.0,0.0,0.0,0.0],
"categories":[],"categories_nodes":[],"categories_segments":[],"categories_sizes":[],
"default_left":[true,true,true,true,false,true,true,true,false,false,false,false,true,true,true,false,true,false,false,true,true,false,false,false,false,false,false],
"id":7,
"left_children":[1,3,5,7,-1,9,11,13,-1,-1,-1,-1,15,17,19,-1,21,-1,-1,23,25,-1,-1,-1,-1,-1,-1],
"loss_changes":[0.0,0.0,0.0,0.0,0.0,0.0,0.0,0.0,0.0,0.0,0.0,0.0,0.0,0.0,0.0,0.0,0.0,0.0,0.0,0.0,0.0,0.0,0.0,0.0,0.0,0.0,0.0],
"parents":[2147483647,0,0,1,1,2,2,3,3,5,5,6,6,7,7,12,12,13,13,14,14,16,16,19,19,20,20],
"right_children":[2,4,6,8,-1,10,12,14,-1,-1,-1,-1,16,18,20,-1,22,-1,-1,24,26,-1,-1,-1,-1,-1,-1],
"split_conditions":[3.7321784496307373e+00,3.5274002552032471e+00,6.2053818702697754e+00,9.8298573866486549e-03,-4.3336559087038040e-02,8.7715578079223633e-01,8.0528659820556641e+00,8.2479494810104370e-01,-1.1882561258971691e-02,-3.9822887629270554e-02,1.2095872312784195e-02,-4.2795654386281967e-02,7.2850664146244526e-03,5.7643896341323853e-01,8.7188649922609329e-03,-5.3823903203010559e-02,2.6940896987915039e+01,2.3435855284333229e-02,2.4880538694560528e-03,2.4249134063720703e+01,8.4262341260910034e-01,-6.6904723644256592e-02,-6.1706174165010452e-02,5.2894007414579391e-02,5.7283319532871246e-02,4.4981651008129120e-02,2.8735058382153511e-02],
"split_indices":[12,8,12,2,0,6,12,1,0,0,0,0,3,8,4,0,14,0,0,14,8,0,0,0,0,0,0],
"split_type":[0,0,0,0,0,0,0,0,0,0,0,0,0,0,0,0,0,0,0,0,0,0,0,0,0,0,0],
"sum_hessian":[0.0,0.0,0.0,0.0,0.0,0.0,0.0,0.0,0.0,0.0,0.0,0.0,0.0,0.0,0.0,0.0,0.0,0.0,0.0,0.0,0.0,0.0,0.0,0.0,0.0,0.0,0.0],
"tree_param":{"num_deleted":"0","num_feature":"15","num_nodes":"27","size_leaf_vector":"0"}
},
{
"base_weights":[0.0,0.0,0.0,0.0,0.0,0.0,0.0,0.0,0.0,0.0,0.0,0.0,0.0,0.0,0.0,0.0,0.0,0.0,0.0,0.0,0.0,0.0,0.0,0.0,0.0,0.0,0.0],
"categories":[],"categories_nodes":[],"categories_segments":[],"categories_sizes":[],
"default_left":[true,true,true,true,false,true,false,true,true,true,true,true,false,false,true,false,true,false,false,false,false,true,false,false,false,false,false],
"id":8,
"left_children":[1,3,5,7,-1,9,-1,11,13,15,17,19,-1,-1,21,-1,23,-1,-1,-1,-1,25,-1,-1,-1,-1,-1],
"loss_changes":[0.0,0.0,0.0,0.0,0.0,0.0,0.0,0.0,0.0,0.0,0.0,0.0,0.0,0.0,0.0,0.0,0.0,0.0,0.0,0.0,0.0,0.0,0.0,0.0,0.0,0.0,0.0],
"parents":[2147483647,0,0,1,1,2,2,3,3,5,5,7,7,8,8,9,9,10,10,11,11,14,14,16,16,21,21],
"right_children":[2,4,6,8,-1,10,-1,12,14,16,18,20,-1,-1,22,-1,24,-1,-1,-1,-1,26,-1,-1,-1,-1,-1],
"split_conditions":[1.8328031301498413e+00,5.9092826843261719e+00,8.9127230644226074e-01,9.1826975345611572e-01,-3.6758735775947571e-02,3.4284393310546875e+01,-5.5600828491151333e-03,2.6607978343963623e+00,8.8184738159179688e-01,6.5033072605729103e-03,9.6425013616681099e-03,6.4524472691118717e-03,-1.1231888085603714e-02,1.7154466360807419e-02,7.6918457634747028e-03,-4.5966010540723801e-02,2.2033821105957031e+01,-1.6762640327215195e-02,-5.3561486303806305e-02,2.9508613049983978e-02,1.0232199914753437e-02,2.1890699386596680e+01,4.0087766945362091e-02,-6.4447402954101562e-02,-5.6230742484331131e-02,4.9413524568080902e-02,5.3560659289360046e-02],
"split_indices":[8,12,6,1,0,14,0,12,6,3,2,3,0,0,3,0,14,0,0,0,0,14,0,0,0,0,0],
"split_type":[0,0,0,0,0,0,0,0,0,0,0,0,0,0,0,0,0,0,0,0,0,0,0,0,0,0,0],
"sum_hessian":[0.0,0.0,0.0,0.0,0.0,0.0,0.0,0.0,0.0,0.0,0.0,0.0,0.0,0.0,0.0,0.0,0.0,0.0,0.0,0.0,0.0,0.0,0.0,0.0,0.0,0.0,0.0],
"tree_param":{"num_deleted":"0","num_feature":"15","num_nodes":"27","size_leaf_vector":"0"}
},
{
"base_weights":[0.0,0.0,0.0,0.0,0.0,0.0,0.0,0.0,0.0,0.0,0.0,0.0,0.0,0.0,0.0,0.0,0.0,0.0,0.0,0.0,0.0,0.0,0.0,0.0,0.0],
"categories":[],"categories_nodes":[],"categories_segments":[],"categories_sizes":[],
"default_left":[true,true,true,true,false,true,false,true,false,false,true,false,true,true,true,true,true,false,false,false,false,false,false,false,false],
"id":9,
"left_children":[1,3,5,7,-1,9,-1,11,-1,-1,13,-1,15,17,19,21,23,-1,-1,-1,-1,-1,-1,-1,-1],
"loss_changes":[0.0,0.0,0.0,0.0,0.0,0.0,0.0,0.0,0.0,0.0,0.0,0.0,0.0,0.0,0.0,0.0,0.0,0.0,0.0,0.0,0.0,0.0,0.0,0.0,0.0],
"parents":[2147483647,0,0,1,1,2,2,3,3,5,5,7,7,10,10,12,12,13,13,14,14,15,15,16,16],
"right_children":[2,4,6,8,-1,10,-1,12,-1,-1,14,-1,16,18,20,22,24,-1,-1,-1,-1,-1,-1,-1,-1],
"split_conditions":[3.7321784496307373e+00,3.7233669757843018e+00,8.9416295289993286e-01,9.8298573866486549e-03,-4.0402717888355255e-02,6.0290205292403698e-03,-6.3947085291147232e-03,7.6619881391525269e-01,-1.2240242213010788e-02,-2.5214932858943939e-02,2.6100376129150391e+01,9.8520070314407349e-03,7.9393712803721428e-03,3.7910680770874023e+00,9.9876755848526955e-03,2.5354957580566406e+01,9.9549251794815063e-01,-5.8929119259119034e-02,-6.2423255294561386e-02,-3.0929245054721832e-02,-6.0122154653072357e-02,4.9236293882131577e-02,5.3991474211215973e-02,3.9514016360044479e-02,2.2779880091547966e-02],
"split_indices":[12,8,6,2,0,3,0,1,0,0,14,0,4,8,2,14,8,0,0,0,0,0,0,0,0],
"split_type":[0,0,0,0,0,0,0,0,0,0,0,0,0,0,0,0,0,0,0,0,0,0,0,0,0],
"sum_hessian":[0.0,0.0,0.0,0.0,0.0,0.0,0.0,0.0,0.0,0.0,0.0,0.0,0.0,0.0,0.0,0.0,0.0,0.0,0.0,0.0,0.0,0.0,0.0,0.0,0.0],
"tree_param":{"num_deleted":"0","num_feature":"15","num_nodes":"25","size_leaf_vector":"0"}
},
{
"base_weights":[0.0,0.0,0.0,0.0,0.0,0.0,0.0,0.0,0.0,0.0,0.0,0.0,0.0,0.0,0.0,0.0,0.0,0.0,0.0,0.0,0.0,0.0,0.0,0.0,0.0],
"categories":[],"categories_nodes":[],"categories_segments":[],"categories_sizes":[],
"default_left":[true,true,true,true,false,true,true,true,false,false,false,false,true,true,true,false,false,true,false,false,true,false,false,false,false],
"id":10,
"left_children":[1,3,5,7,-1,9,11,13,-1,-1,-1,-1,15,17,19,-1,-1,21,-1,-1,23,-1,-1,-1,-1],
"loss_changes":[0.0,0.0,0.0,0.0,0.0,0.0,0.0,0.0,0.0,0.0,0.0,0.0,0.0,0.0,0.0,0.0,0.0,0.0,0.0,0.0,0.0,0.0,0.0,0.0,0.0],
"parents":[2147483647,0,0,1,1,2,2,3,3,5,5,6,6,7,7,12,12,13,13,14,14,17,17,20,20],
"right_children":[2,4,6,8,-1,10,12,14,-1,-1,-1,-1,16,18,20,-1,-1,22,-1,-1,24,-1,-1,-1,-1],
"split_conditions":[2.7492046356201172e+00,1.0411906987428665e-02,4.7987446784973145e+00,6.2202973365783691e+00,-4.7477554529905319e-02,2.9229534149169922e+01,6.3856644630432129e+00,8.7222993373870850e-01,-3.0671661719679832e-02,-4.6480502933263779e-02,-3.2665531616657972e-03,-4.5308385044336319e-02,9.0965843200683594e+00,2.6329791545867920e+00,8.7160933017730713e-01,-5.3722973912954330e-02,-6.0587126761674881e-02,4.5728605240583420e-02,-7.7286483719944954e-03,2.1863907575607300e-02,2.6118686676025391e+01,2.9631003737449646e-02,7.7847884967923164e-03,4.0051527321338654e-02,4.8435740172863007e-02],
"split_indices":[8,2,8,12,0,14,8,1,0,0,0,0,8,12,6,0,0,4,0,0,14,0,0,0,0],
"split_type":[0,0,0,0,0,0,0,0,0,0,0,0,0,0,0,0,0,0,0,0,0,0,0,0,0],
"sum_hessian":[0.0,0.0,0.0,0.0,0.0,0.0,0.0,0.0,0.0,0.0,0.0,0.0,0.0,0.0,0.0,0.0,0.0,0.0,0.0,0.0,0.0,0.0,0.0,0.0,0.0],
"tree_param":{"num_deleted":"0","num_feature":"15","num_nodes":"25","size_leaf_vector":"0"}
},
{
"base_weights":[0.0,0.0,0.0,0.0,0.0,0.0,0.0,0.0,0.0,0.0,0.0,0.0,0.0,0.0,0.0,0.0,0.0,0.0,0.0,0.0,0.0,0.0,0.0,0.0,0.0],
"categories":[],"categories_nodes":[],"categories_segments":[],"categories_sizes":[],
"default_left":[true,true,true,true,false,false,true,true,false,true,true,false,true,false,false,false,true,true,true,false,false,false,false,false,false],
"id":11,
"left_children":[1,3,5,7,-1,-1,9,11,-1,13,15,-1,17,-1,-1,-1,19,21,23,-1,-1,-1,-1,-1,-1],
"loss_changes":[0.0,0.0,0.0,0.0,0.0,0.0,0.0,0.0,0.0,0.0,0.0,0.0,0.0,0.0,0.0,0.0,0.0,0.0,0.0,0.0,0.0,0.0,0.0,0.0,0.0],
"parents":[2147483647,0,0,1,1,2,2,3,3,6,6,7,7,9,9,10,10,12,12,16,16,17,17,18,18],
"right_children":[2,4,6,8,-1,-1,10,12,-1,14,16,-1,18,-1,-1,-1,20,22,24,-1,-1,-1,-1,-1,-1],
"split_conditions":[3.4211635589599609e+00,1.0404863394796848e-02,7.6902345754206181e-03,3.1354670524597168e+00,-3.9789915084838867e-02,7.6968115754425526e-03,2.5304092407226562e+01,7.5224733352661133e-01,-1.8388103693723679e-02,1.4112576484680176e+01,2.5201041698455811e+00,8.4549663588404655e-03,8.4685720503330231e-03,-5.7693552225828171e-02,-4.3973632156848907e-02,-4.7131739556789398e-03,7.9054527282714844e+00,7.0596328005194664e-03,2.0926311492919922e+01,-3.5564552992582321e-02,-5.6690804660320282e-02,4.8194397240877151e-02,4.1590481996536255e-02,2.3583745583891869e-02,3.4704636782407761e-02],
"split_indices":[12,2,4,8,0,0,14,1,0,14,8,0,4,0,0,0,12,3,14,0,0,0,0,0,0],
"split_type":[0,0,0,0,0,0,0,0,0,0,0,0,0,0,0,0,0,0,0,0,0,0,0,0,0],
"sum_hessian":[0.0,0.0,0.0,0.0,0.0,0.0,0.0,0.0,0.0,0.0,0.0,0.0,0.0,0.0,0.0,0.0,0.0,0.0,0.0,0.0,0.0,0.0,0.0,0.0,0.0],
"tree_param":{"num_deleted":"0","num_feature":"15","num_nodes":"25","size_leaf_vector":"0"}
},
{
"base_weights":[0.0,0.0,0.0,0.0,0.0,0.0,0.0,0.0,0.0,0.0,0.0,0.0,0.0,0.0,0.0,0.0,0.0,0.0,0.0,0.0,0.0,0.0,0.0,0.0,0.0],
"categories":[],"categories_nodes":[],"categories_segments":[],"categories_sizes":[],
"default_left":[true,true,true,true,false,true,true,true,false,true,true,false,false,true,false,false,false,false,true,true,false,false,false,false,false],
"id":12,
"left_children":[1,3,5,7,-1,9,11,13,-1,15,17,-1,-1,19,-1,-1,-1,-1,21,23,-1,-1,-1,-1,-1],
"loss_changes":[0.0,0.0,0.0,0.0,0.0,0.0,0.0,0.0,0.0,0.0,0.0,0.0,0.0,0.0,0.0,0.0,0.0,0.0,0.0,0.0,0.0,0.0,0.0,0.0,0.0],
"parents":[2147483647,0,0,1,1,2,2,3,3,5,5,6,6,7,7,9,9,10,10,13,13,18,18,19,19],
"right_children":[2,4,6,8,-1,10,12,14,-1,16,18,-1,-1,20,-1,-1,-1,-1,22,24,-1,-1,-1,-1,-1],
"split_conditions":[1.6037026643753052e+00,6.5313124656677246e+00,8.6429327726364136e-01,8.6331218481063843e-03,-3.1840577721595764e-02,9.1483118012547493e-03,2.5216562271118164e+01,3.9526339620351791e-02,-2.0891826134175062e-03,2.8268033981323242e+01,4.5715975761413574e+00,-3.6123953759670258e-02,1.1802501045167446e-02,7.0367897860705853e-03,1.2292295694351196e-02,-4.5352436602115631e-02,-1.6238823533058167e-02,-5.1581617444753647e-02,7.6423316001892090e+00,1.0607967376708984e+00,2.4756284430623055e-02,-5.6929070502519608e-02,-5.8592066168785095e-02,4.3113633990287781e-02,3.2375302165746689e-02],
"split_indices":[8,12,6,3,0,2,14,4,0,14,8,0,0,3,0,0,0,0,12,11,0,0,0,0,0],
"split_type":[0,0,0,0,0,0,0,0,0,0,0,0,0,0,0,0,0,0,0,0,0,0,0,0,0],
"sum_hessian":[0.0,0.0,0.0,0.0,0.0,0.0,0.0,0.0,0.0,0.0,0.0,0.0,0.0,0.0,0.0,0.0,0.0,0.0,0.0,0.0,0.0,0.0,0.0,0.0,0.0],
"tree_param":{"num_deleted":"0","num_feature":"15","num_nodes":"25","size_leaf_vector":"0"}
},
{
"base_weights":[0.0,0.0,0.0,0.0,0.0,0.0,0.0,0.0,0.0,0.0,0.0,0.0,0.0,0.0,0.0,0.0,0.0,0.0,0.0,0.0,0.0,0.0,0.0],
"categories":[],"categories_nodes":[],"categories_segments":[],"categories_sizes":[],
"default_left":[true,true,true,true,false,true,false,true,false,false,true,true,true,false,false,true,false,true,false,false,false,false,false],
"id":13,
"left_children":[1,3,5,7,-1,9,-1,11,-1,-1,13,15,17,-1,-1,19,-1,21,-1,-1,-1,-1,-1],
"loss_changes":[0.0,0.0,0.0,0.0,0.0,0.0,0.0,0.0,0.0,0.0,0.0,0.0,0.0,0.0,0.0,0.0,0.0,0.0,0.0,0.0,0.0,0.0,0.0],
"parents":[2147483647,0,0,1,1,2,2,3,3,5,5,7,7,10,10,11,11,12,12,15,15,17,17],
"right_children":[2,4,6,8,-1,10,-1,12,-1,-1,14,16,18,-1,-1,20,-1,22,-1,-1,-1,-1,-1],
"split_conditions":[4.9762377738952637e+00,1.0569150559604168e-02,9.7619056701660156e-01,4.3112668991088867e+00,-4.2122539132833481e-02,5.0077714920043945e+00,-1.8785141408443451e-02,9.2106002569198608e-01,-3.0237633734941483e-02,-3.9226029068231583e-02,3.8947064876556396e+00,1.0018684864044189e+00,3.3722320556640625e+01,-4.9872182309627533e-02,-5.6954488158226013e-02,4.0270362049341202e-02,-7.3786610737442970e-03,2.5291383266448975e+00,4.4026523828506470e-02,2.7271049097180367e-02,7.9471766948699951e-03,3.7517473101615906e-02,1.3621150515973568e-02],
"split_indices":[12,2,1,8,0,11,0,1,0,0,8,8,14,0,0,4,0,12,0,0,0,0,0],
"split_type":[0,0,0,0,0,0,0,0,0,0,0,0,0,0,0,0,0,0,0,0,0,0,0],
"sum_hessian":[0.0,0.0,0.0,0.0,0.0,0.0,0.0,0.0,0.0,0.0,0.0,0.0,0.0,0.0,0.0,0.0,0.0,0.0,0.0,0.0,0.0,0.0,0.0],
"tree_param":{"num_deleted":"0","num_feature":"15","num_nodes":"23","size_leaf_vector":"0"}
},
{
"base_weights":[0.0,0.0,0.0,0.0,0.0,0.0,0.0,0.0,0.0,0.0,0.0,0.0,0.0,0.0,0.0,0.0,0.0,0.0,0.0,0.0,0.0,0.0,0.0,0.0,0.0,0.0,0.0],
"categories":[],"categories_nodes":[],"categories_segments":[],"categories_sizes":[],
"default_left":[true,true,true,true,false,true,true,true,false,false,false,true,false,true,true,false,false,true,false,true,true,false,false,false,false,false,false],
"id":14,
"left_children":[1,3,5,7,-1,9,11,13,-1,-1,-1,15,-1,17,19,-1,-1,21,-1,23,25,-1,-1,-1,-1,-1,-1],
"loss_changes":[0.0,0.0,0.0,0.0,0.0,0.0,0.0,0.0,0.0,0.0,0.0,0.0,0.0,0.0,0.0,0.0,0.0,0.0,0.0,0.0,0.0,0.0,0.0,0.0,0.0,0.0,0.0],
"parents":[2147483647,0,0,1,1,2,2,3,3,5,5,6,6,7,7,11,11,13,13,14,14,17,17,19,19,20,20],
"right_children":[2,4,6,8,-1,10,12,14,-1,-1,-1,16,-1,18,20,-1,-1,22,-1,24,26,-1,-1,-1,-1,-1,-1],
"split_conditions":[2.9783051013946533e+00,1.0544663295149803e-02,4.4090375900268555e+00,7.4643568992614746e+00,-3.9126649498939514e-02,5.8954825401306152e+00,3.6540527343750000e+01,9.4111251831054688e-01,-3.2053031027317047e-02,-5.8397990651428699e-03,-4.4602204114198685e-02,8.0627548694610596e-01,-4.0008757263422012e-02,3.0103616714477539e+00,2.8094772338867188e+01,-5.5896926671266556e-02,-5.0739966332912445e-02,2.9492166519165039e+01,-1.0464378632605076e-02,7.3079770803451538e-01,3.9748729705810547e+01,1.7373835667967796e-02,-9.2313821369316429e-05,3.6768317222595215e-02,1.0162070393562317e-02,3.7479564547538757e-02,4.4712539762258530e-02],
"split_indices":[8,2,12,12,0,8,14,1,0,0,0,6,0,12,14,0,0,0,0,8,14,0,0,0,0,0,0],
"split_type":[0,0,0,0,0,0,0,0,0,0,0,0,0,0,0,0,0,0,0,0,0,0,0,0,0,0,0],
"sum_hessian":[0.0,0.0,0.0,0.0,0.0,0.0,0.0,0.0,0.0,0.0,0.0,0.0,0.0,0.0,0.0,0.0,0.0,0.0,0.0,0.0,0.0,0.0,0.0,0.0,0.0,0.0,0.0],
"tree_param":{"num_deleted":"0","num_feature":"15","num_nodes":"27","size_leaf_vector":"0"}
},
{
"base_weights":[0.0,0.0,0.0,0.0,0.0,0.0,0.0,0.0,0.0,0.0,0.0,0.0,0.0,0.0,0.0,0.0,0.0,0.0,0.0,0.0,0.0,0.0,0.0],
"categories":[],"categories_nodes":[],"categories_segments":[],"categories_sizes":[],
"default_left":[true,true,true,true,false,true,false,true,true,false,true,true,false,true,false,false,false,false,false,false,true,false,false],
"id":15,
"left_children":[1,3,5,7,-1,9,-1,11,13,-1,15,17,-1,19,-1,-1,-1,-1,-1,-1,21,-1,-1],
"loss_changes":[0.0,0.0,0.0,0.0,0.0,0.0,0.0,0.0,0.0,0.0,0.0,0.0,0.0,0.0,0.0,0.0,0.0,0.0,0.0,0.0,0.0,0.0,0.0],
"parents":[2147483647,0,0,1,1,2,2,3,3,5,5,7,7,8,8,10,10,11,11,13,13,20,20],
"right_children":[2,4,6,8,-1,10,-1,12,14,-1,16,18,-1,20,-1,-1,-1,-1,-1,-1,22,-1,-1],
"split_conditions":[2.9783051013946533e+00,1.0373976081609726e-02,3.7602237701416016e+01,8.4062433242797852e-01,-3.4192509949207306e-02,3.8211658000946045e+00,-1.7818929627537727e-02,3.4750230312347412e+00,2.4059934616088867e+00,-3.0285879969596863e-02,8.2372331619262695e-01,5.1736116409301758e-02,-2.3847924545407295e-02,8.6330819129943848e-01,1.3518548803403974e-03,-5.4315429180860519e-02,-4.6077873557806015e-02,1.7643634229898453e-02,3.6526378244161606e-04,1.4363291673362255e-02,3.0543399810791016e+01,3.2404515892267227e-02,4.0042415261268616e-02],
"split_indices":[8,2,14,1,0,12,0,12,11,0,6,4,0,6,0,0,0,0,0,0,14,0,0],
"split_type":[0,0,0,0,0,0,0,0,0,0,0,0,0,0,0,0,0,0,0,0,0,0,0],
"sum_hessian":[0.0,0.0,0.0,0.0,0.0,0.0,0.0,0.0,0.0,0.0,0.0,0.0,0.0,0.0,0.0,0.0,0.0,0.0,0.0,0.0,0.0,0.0,0.0],
"tree_param":{"num_deleted":"0","num_feature":"15","num_nodes":"23","size_leaf_vector":"0"}
},
{
"base_weights":[0.0,0.0,0.0,0.0,0.0,0.0,0.0,0.0,0.0,0.0,0.0,0.0,0.0,0.0,0.0,0.0,0.0,0.0,0.0,0.0,0.0,0.0,0.0,0.0,0.0],
"categories":[],"categories_nodes":[],"categories_segments":[],"categories_sizes":[],
"default_left":[true,true,true,true,false,false,true,true,false,false,true,true,true,false,false,true,false,true,true,false,false,false,false,false,false],
"id":16,
"left_children":[1,3,5,7,-1,-1,9,11,-1,-1,13,15,17,-1,-1,19,-1,21,23,-1,-1,-1,-1,-1,-1],
"loss_changes":[0.0,0.0,0.0,0.0,0.0,0.0,0.0,0.0,0.0,0.0,0.0,0.0,0.0,0.0,0.0,0.0,0.0,0.0,0.0,0.0,0.0,0.0,0.0,0.0,0.0],
"parents":[2147483647,0,0,1,1,2,2,3,3,6,6,7,7,10,10,11,11,12,12,15,15,17,17,18,18],
"right_children":[2,4,6,8,-1,-1,10,12,-1,-1,14,16,18,-1,-1,20,-1,22,24,-1,-1,-1,-1,-1,-1],
"split_conditions":[5.2872529029846191e+00,1.0706056840717793e-02,7.7542352676391602e+00,4.5072336196899414e+00,-3.5791978240013123e-02,-1.7579024657607079e-02,9.9042263031005859e+00,9.6709984540939331e-01,-2.6429632678627968e-02,-3.5980187356472015e-02,8.1129872798919678e-01,8.2665330171585083e-01,2.2553142547607422e+01,-5.2279107272624969e-02,-4.5146264135837555e-02,6.8544548749923706e-01,-4.9422089941799641e-03,4.1445702314376831e-01,1.3154499530792236e+00,4.8211021348834038e-03,1.9825797528028488e-02,3.5253852605819702e-02,6.9269989617168903e-03,3.4763813018798828e-02,3.8776144385337830e-02],
"split_indices":[12,2,12,8,0,0,12,1,0,0,6,8,14,0,0,1,0,8,8,0,0,0,0,0,0],
"split_type":[0,0,0,0,0,0,0,0,0,0,0,0,0,0,0,0,0,0,0,0,0,0,0,0,0],
"sum_hessian":[0.0,0.0,0.0,0.0,0.0,0.0,0.0,0.0,0.0,0.0,0.0,0.0,0.0,0.0,0.0,0.0,0.0,0.0,0.0,0.0,0.0,0.0,0.0,0.0,0.0],
"tree_param":{"num_deleted":"0","num_feature":"15","num_nodes":"25","size_leaf_vector":"0"}
},
{
"base_weights":[0.0,0.0,0.0,0.0,0.0,0.0,0.0,0.0,0.0,0.0,0.0,0.0,0.0,0.0,0.0,0.0,0.0,0.0,0.0,0.0,0.0,0.0,0.0,0.0,0.0,0.0,0.0],
"categories":[],"categories_nodes":[],"categories_segments":[],"categories_sizes":[],
"default_left":[true,true,true,true,false,true,true,false,true,false,false,true,true,true,true,false,false,false,false,true,true,false,false,false,false,false,false],
"id":17,
"left_children":[1,3,5,7,-1,9,11,-1,13,-1,-1,15,17,19,21,-1,-1,-1,-1,23,25,-1,-1,-1,-1,-1,-1],
"loss_changes":[0.0,0.0,0.0,0.0,0.0,0.0,0.0,0.0,0.0,0.0,0.0,0.0,0.0,0.0,0.0,0.0,0.0,0.0,0.0,0.0,0.0,0.0,0.0,0.0,0.0,0.0,0.0],
"parents":[2147483647,0,0,1,1,2,2,3,3,5,5,6,6,8,8,11,11,12,12,13,13,14,14,19,19,20,20],
"right_children":[2,4,6,8,-1,10,12,-1,14,-1,-1,16,18,20,22,-1,-1,-1,-1,24,26,-1,-1,-1,-1,-1,-1],
"split_conditions":[1.3746023178100586e+00,2.8356349468231201e+00,2.2605579376220703e+01,6.1558735370635986e-01,-1.6621235758066177e-02,1.1308433532714844e+01,4.3439793586730957e+00,-4.2005437426269054e-03,7.7197914943099022e-03,-5.2825830876827240e-02,-3.3970493823289871e-02,7.8265154734253883e-03,6.8402085304260254e+00,8.6969062685966492e-03,9.0217059478163719e-03,2.3887075483798981e-02,-1.4004855416715145e-02,-2.4286750704050064e-02,-4.7888681292533875e-02,1.4991954803466797e+01,5.9149423614144325e-03,1.8950916826725006e-02,-5.0489054992794991e-03,3.7187717854976654e-02,4.1226875036954880e-02,2.5624910369515419e-02,1.6336990520358086e-02],
"split_indices":[8,11,14,1,0,14,8,0,3,0,0,3,8,4,2,0,0,0,0,14,3,0,0,0,0,0,0],
"split_type":[0,0,0,0,0,0,0,0,0,0,0,0,0,0,0,0,0,0,0,0,0,0,0,0,0,0,0],
"sum_hessian":[0.0,0.0,0.0,0.0,0.0,0.0,0.0,0.0,0.0,0.0,0.0,0.0,0.0,0.0,0.0,0.0,0.0,0.0,0.0,0.0,0.0,0.0,0.0,0.0,0.0,0.0,0.0],
"tree_param":{"num_deleted":"0","num_feature":"15","num_nodes":"27","size_leaf_vector":"0"}
},
{
"base_weights":[0.0,0.0,0.0,0.0,0.0,0.0,0.0,0.0,0.0,0.0,0.0,0.0,0.0,0.0,0.0,0.0,0.0,0.0,0.0,0.0,0.0,0.0,0.0,0.0,0.0,0.0,0.0],
"categories":[],"categories_nodes":[],"categories_segments":[],"categories_sizes":[],
"default_left":[true,true,true,true,false,false,true,true,true,true,true,true,false,false,true,false,false,false,true,false,false,true,false,false,false,false,false],
"id":18,
"left_children":[1,3,5,7,-1,-1,9,11,13,15,17,19,-1,-1,21,-1,-1,-1,23,-1,-1,25,-1,-1,-1,-1,-1],
"loss_changes":[0.0,0.0,0.0,0.0,0.0,0.0,0.0,0.0,0.0,0.0,0.0,0.0,0.0,0.0,0.0,0.0,0.0,0.0,0.0,0.0,0.0,0.0,0.0,0.0,0.0,0.0,0.0],
"parents":[2147483647,0,0,1,1,2,2,3,3,6,6,7,7,8,8,9,9,10,10,11,11,14,14,18,18,21,21],
"right_children":[2,4,6,8,-1,-1,10,12,14,16,18,20,-1,-1,22,-1,-1,-1,24,-1,-1,26,-1,-1,-1,-1,-1],
"split_conditions":[3.4211635589599609e+00,1.0295337997376919e-02,7.6902345754206181e-03,9.7142398357391357e-01,-2.3031720891594887e-02,1.1066601611673832e-02,2.0880300521850586e+01,1.2663208246231079e+00,8.9343899488449097e-01,3.7910680770874023e+00,6.4475059509277344e+00,3.5510536283254623e-02,-1.1186243966221809e-02,1.4348176307976246e-02,3.3507026672363281e+01,-4.0896572172641754e-02,-5.2213810384273529e-02,-3.0453589279204607e-03,9.9167528152465820e+00,2.3177605122327805e-02,7.1212267503142357e-03,8.9627495035529137e-03,4.1191563010215759e-02,-2.5510804727673531e-02,-4.5759141445159912e-02,2.8031757101416588e-02,3.5576645284891129e-02],
"split_indices":[12,2,4,1,0,0,14,8,6,8,12,4,0,0,14,0,0,0,12,0,0,2,0,0,0,0,0],
"split_type":[0,0,0,0,0,0,0,0,0,0,0,0,0,0,0,0,0,0,0,0,0,0,0,0,0,0,0],
"sum_hessian":[0.0,0.0,0.0,0.0,0.0,0.0,0.0,0.0,0.0,0.0,0.0,0.0,0.0,0.0,0.0,0.0,0.0,0.0,0.0,0.0,0.0,0.0,0.0,0.0,0.0,0.0,0.0],
"tree_param":{"num_deleted":"0","num_feature":"15","num_nodes":"27","size_leaf_vector":"0"}
},
{
"base_weights":[0.0,0.0,0.0,0.0,0.0,0.0,0.0,0.0,0.0,0.0,0.0,0.0,0.0,0.0,0.0,0.0,0.0,0.0,0.0,0.0,0.0,0.0,0.0],
"categories":[],"categories_nodes":[],"categories_segments":[],"categories_sizes":[],
"default_left":[true,true,true,true,true,false,true,true,false,false,false,false,false,true,true,false,true,true,false,false,false,false,false],
"id":19,
"left_children":[1,3,5,7,9,-1,11,13,-1,-1,-1,-1,-1,15,17,-1,19,21,-1,-1,-1,-1,-1],
"loss_changes":[0.0,0.0,0.0,0.0,0.0,0.0,0.0,0.0,0.0,0.0,0.0,0.0,0.0,0.0,0.0,0.0,0.0,0.0,0.0,0.0,0.0,0.0,0.0],
"parents":[2147483647,0,0,1,1,2,2,3,3,4,4,6,6,7,7,13,13,14,14,16,16,17,17],
"right_children":[2,4,6,8,10,-1,12,14,-1,-1,-1,-1,-1,16,18,-1,20,22,-1,-1,-1,-1,-1],
"split_conditions":[1.0204955935478210e-02,6.5313124656677246e+00,7.5362757779657841e-03,4.7032003402709961e+00,2.0727021694183350e+00,-8.3389123901724815e-03,2.8990521430969238e+00,9.0292310714721680e-01,-2.4820467457175255e-02,-1.2811889871954918e-02,-3.8974121212959290e-02,-4.3555073440074921e-02,-5.1528751850128174e-02,5.7233334518969059e-03,3.7674488067626953e+01,1.3213185593485832e-02,7.3094999790191650e-01,8.0451434478163719e-03,3.7011910229921341e-02,4.4527282007038593e-03,-1.1543401516973972e-02,3.2610811293125153e-02,1.1325035244226456e-02],
"split_indices":[2,12,3,8,8,0,8,1,0,0,0,0,0,3,14,0,8,4,0,0,0,0,0],
"split_type":[0,0,0,0,0,0,0,0,0,0,0,0,0,0,0,0,0,0,0,0,0,0,0],
"sum_hessian":[0.0,0.0,0.0,0.0,0.0,0.0,0.0,0.0,0.0,0.0,0.0,0.0,0.0,0.0,0.0,0.0,0.0,0.0,0.0,0.0,0.0,0.0,0.0],
"tree_param":{"num_deleted":"0","num_feature":"15","num_nodes":"23","size_leaf_vector":"0"}
},
{
"base_weights":[0.0,0.0,0.0,0.0,0.0,0.0,0.0,0.0,0.0,0.0,0.0,0.0,0.0,0.0,0.0,0.0,0.0,0.0,0.0,0.0,0.0,0.0,0.0,0.0,0.0,0.0,0.0],
"categories":[],"categories_nodes":[],"categories_segments":[],"categories_sizes":[],
"default_left":[true,true,true,true,true,true,true,true,false,true,false,false,true,true,false,true,false,false,false,false,false,false,false,true,false,false,false],
"id":20,
"left_children":[1,3,5,7,9,11,13,15,-1,17,-1,-1,19,21,-1,23,-1,-1,-1,-1,-1,-1,-1,25,-1,-1,-1],
"loss_changes":[0.0,0.0,0.0,0.0,0.0,0.0,0.0,0.0,0.0,0.0,0.0,0.0,0.0,0.0,0.0,0.0,0.0,0.0,0.0,0.0,0.0,0.0,0.0,0.0,0.0,0.0,0.0],
"parents":[2147483647,0,0,1,1,2,2,3,3,4,4,5,5,6,6,7,7,9,9,12,12,13,13,15,15,23,23],
"right_children":[2,4,6,8,10,12,14,16,-1,18,-1,-1,20,22,-1,24,-1,-1,-1,-1,-1,-1,-1,26,-1,-1,-1],
"split_conditions":[1.3746023178100586e+00,8.1176999956369400e-03,3.0745357513427734e+01,5.0286881625652313e-02,9.1284494847059250e-03,1.3736259460449219e+01,5.0292196273803711e+00,1.5721378326416016e+00,2.1786210127174854e-03,1.9392255544662476e+00,-2.3034481331706047e-02,-4.7137625515460968e-02,3.0831122398376465e+00,9.6584683656692505e-01,-3.5992801189422607e-02,6.1744791455566883e-03,1.1552811600267887e-02,1.5396636910736561e-02,-3.4636473283171654e-03,-6.6427132114768028e-03,-3.5574544221162796e-02,-4.5092510990798473e-03,2.9659345746040344e-02,8.8644361495971680e-01,2.1658970043063164e-02,2.8175033628940582e-02,3.3362910151481628e-02],
"split_indices":[8,3,14,4,2,14,8,11,0,12,0,0,12,1,0,3,0,0,0,0,0,0,0,6,0,0,0],
"split_type":[0,0,0,0,0,0,0,0,0,0,0,0,0,0,0,0,0,0,0,0,0,0,0,0,0,0,0],
"sum_hessian":[0.0,0.0,0.0,0.0,0.0,0.0,0.0,0.0,0.0,0.0,0.0,0.0,0.0,0.0,0.0,0.0,0.0,0.0,0.0,0.0,0.0,0.0,0.0,0.0,0.0,0.0,0.0],
"tree_param":{"num_deleted":"0","num_feature":"15","num_nodes":"27","size_leaf_vector":"0"}
},
{
"base_weights":[0.0,0.0,0.0,0.0,0.0,0.0,0.0,0.0,0.0,0.0,0.0,0.0,0.0,0.0,0.0,0.0,0.0,0.0,0.0,0.0,0.0,0.0,0.0,0.0,0.0],
"categories":[],"categories_nodes":[],"categories_segments":[],"categories_sizes":[],
"default_left":[true,true,true,true,true,false,true,true,false,false,true,true,false,true,false,false,false,true,false,false,false,true,false,false,false],
"id":21,
"left_children":[1,3,5,7,9,-1,11,13,-1,-1,15,17,-1,19,-1,-1,-1,21,-1,-1,-1,23,-1,-1,-1],
"loss_changes":[0.0,0.0,0.0,0.0,0.0,0.0,0.0,0.0,0.0,0.0,0.0,0.0,0.0,0.0,0.0,0.0,0.0,0.0,0.0,0.0,0.0,0.0,0.0,0.0,0.0],
"parents":[2147483647,0,0,1,1,2,2,3,3,4,4,6,6,7,7,10,10,11,11,13,13,17,17,21,21],
"right_children":[2,4,6,8,10,-1,12,14,-1,-1,16,18,-1,20,-1,-1,-1,22,-1,-1,-1,24,-1,-1,-1],
"split_conditions":[8.6911094188690186e-01,9.2595377936959267e-03,9.3803811073303223e-01,2.4363853931427002e+00,2.2910039424896240e+00,-1.2676529586315155e-02,4.3105144500732422e+00,2.0727021694183350e+00,-2.4767039343714714e-02,-3.6949746310710907e-02,7.6182854175567627e-01,3.7158988952636719e+01,-9.2847069026902318e-04,6.4617437124252319e-01,-1.4916184358298779e-02,-5.2104007452726364e-02,-3.8008239120244980e-02,2.7991337776184082e+00,3.7426486611366272e-02,1.4164422173053026e-03,1.6913598403334618e-02,1.2720536231994629e+01,7.7817360870540142e-03,2.3796167224645615e-02,3.0823279172182083e-02],
"split_indices":[6,2,1,11,8,0,10,8,0,0,6,14,0,1,0,0,0,12,0,0,0,14,0,0,0],
"split_type":[0,0,0,0,0,0,0,0,0,0,0,0,0,0,0,0,0,0,0,0,0,0,0,0,0],
"sum_hessian":[0.0,0.0,0.0,0.0,0.0,0.0,0.0,0.0,0.0,0.0,0.0,0.0,0.0,0.0,0.0,0.0,0.0,0.0,0.0,0.0,0.0,0.0,0.0,0.0,0.0],
"tree_param":{"num_deleted":"0","num_feature":"15","num_nodes":"25","size_leaf_vector":"0"}
},
{
"base_weights":[0.0,0.0,0.0,0.0,0.0,0.0,0.0,0.0,0.0,0.0,0.0,0.0,0.0,0.0,0.0,0.0,0.0,0.0,0.0,0.0,0.0],
"categories":[],"categories_nodes":[],"categories_segments":[],"categories_sizes":[],
"default_left":[true,true,true,false,true,false,true,true,false,true,false,true,false,false,false,true,true,false,false,false,false],
"id":22,
"left_children":[1,3,5,-1,7,-1,9,11,-1,13,-1,15,-1,-1,-1,17,19,-1,-1,-1,-1],
"loss_changes":[0.0,0.0,0.0,0.0,0.0,0.0,0.0,0.0,0.0,0.0,0.0,0.0,0.0,0.0,0.0,0.0,0.0,0.0,0.0,0.0,0.0],
"parents":[2147483647,0,0,1,1,2,2,4,4,6,6,7,7,9,9,11,11,15,15,16,16],
"right_children":[2,4,6,-1,8,-1,10,12,-1,14,-1,16,-1,-1,-1,18,20,-1,-1,-1,-1],
"split_conditions":[5.2872529029846191e+00,-3.0918683478375897e-05,6.5314387902617455e-03,-2.7758983895182610e-02,2.9430229915305972e-05,-8.1919217482209206e-03,9.5711433887481689e-01,4.1153001785278320e+00,-2.6113556697964668e-02,7.9900038242340088e-01,-2.2152530029416084e-02,1.9741802215576172e+01,-1.2339148670434952e-02,-4.3250981718301773e-02,-3.8459852337837219e-02,6.1698633432388306e-01,1.9085381031036377e+00,1.8317762762308121e-02,-1.3857823796570301e-02,1.9928328692913055e-02,2.5777066126465797e-02],
"split_indices":[12,5,3,0,5,0,1,8,0,6,0,14,0,0,0,8,8,0,0,0,0],
"split_type":[0,0,0,0,0,0,0,0,0,0,0,0,0,0,0,0,0,0,0,0,0],
"sum_hessian":[0.0,0.0,0.0,0.0,0.0,0.0,0.0,0.0,0.0,0.0,0.0,0.0,0.0,0.0,0.0,0.0,0.0,0.0,0.0,0.0,0.0],
"tree_param":{"num_deleted":"0","num_feature":"15","num_nodes":"21","size_leaf_vector":"0"}
},
{
"base_weights":[0.0,0.0,0.0,0.0,0.0,0.0,0.0,0.0,0.0,0.0,0.0,0.0,0.0,0.0,0.0,0.0,0.0,0.0,0.0,0.0,0.0,0.0,0.0,0.0,0.0,0.0,0.0,0.0,0.0],
"categories":[],"categories_nodes":[],"categories_segments":[],"categories_sizes":[],
"default_left":[true,true,true,true,true,false,true,true,true,false,true,true,true,false,false,false,false,false,true,true,false,false,false,false,false,true,false,false,false],
"id":23,
"left_children":[1,3,5,7,9,-1,11,13,15,-1,17,19,21,-1,-1,-1,-1,-1,23,25,-1,-1,-1,-1,-1,27,-1,-1,-1],
"loss_changes":[0.0,0.0,0.0,0.0,0.0,0.0,0.0,0.0,0.0,0.0,0.0,0.0,0.0,0.0,0.0,0.0,0.0,0.0,0.0,0.0,0.0,0.0,0.0,0.0,0.0,0.0,0.0,0.0,0.0],
"parents":[2147483647,0,0,1,1,2,2,3,3,4,4,6,6,7,7,8,8,10,10,11,11,12,12,18,18,19,19,25,25],
"right_children":[2,4,6,8,10,-1,12,14,16,-1,18,20,22,-1,-1,-1,-1,-1,24,26,-1,-1,-1,-1,-1,28,-1,-1,-1],
"split_conditions":[8.7681925296783447e-01,9.3429572880268097e-03,9.4548189640045166e-01,1.4508914947509766e+00,7.5362757779657841e-03,-1.2205465696752071e-02,2.8953939437866211e+01,2.1155188083648682e+00,3.3222682952880859e+01,-1.9398486241698265e-02,2.6760480403900146e+00,1.2272555828094482e+00,4.1232559204101562e+01,1.2998629361391068e-02,-1.6988085117191076e-03,-2.6950821280479431e-02,3.6417131195776165e-04,-4.2129881680011749e-02,2.9675681591033936e+00,1.8660892248153687e+00,-6.2808739021420479e-03,2.5370853021740913e-02,3.6442693322896957e-02,-4.6603638678789139e-02,-5.1690995693206787e-02,9.0657696127891541e-03,1.3824466615915298e-02,2.8456639498472214e-02,3.2645616680383682e-02],
"split_indices":[6,2,1,8,3,0,14,12,14,0,8,8,14,0,0,0,0,0,11,12,0,0,0,0,0,2,0,0,0],
"split_type":[0,0,0,0,0,0,0,0,0,0,0,0,0,0,0,0,0,0,0,0,0,0,0,0,0,0,0,0,0],
"sum_hessian":[0.0,0.0,0.0,0.0,0.0,0.0,0.0,0.0,0.0,0.0,0.0,0.0,0.0,0.0,0.0,0.0,0.0,0.0,0.0,0.0,0.0,0.0,0.0,0.0,0.0,0.0,0.0,0.0,0.0],
"tree_param":{"num_deleted":"0","num_feature":"15","num_nodes":"29","size_leaf_vector":"0"}
},
{
"base_weights":[0.0,0.0,0.0,0.0,0.0,0.0,0.0,0.0,0.0,0.0,0.0,0.0,0.0,0.0,0.0,0.0,0.0,0.0,0.0,0.0,0.0,0.0,0.0,0.0,0.0,0.0,0.0,0.0,0.0],
"categories":[],"categories_nodes":[],"categories_segments":[],"categories_sizes":[],
"default_left":[true,true,true,true,false,true,true,true,true,false,false,true,true,true,false,false,false,false,false,true,false,true,true,false,false,false,false,false,false],
"id":24,
"left_children":[1,3,5,7,-1,9,11,13,15,-1,-1,17,19,21,-1,-1,-1,-1,-1,23,-1,25,27,-1,-1,-1,-1,-1,-1],
"loss_changes":[0.0,0.0,0.0,0.0,0.0,0.0,0.0,0.0,0.0,0.0,0.0,0.0,0.0,0.0,0.0,0.0,0.0,0.0,0.0,0.0,0.0,0.0,0.0,0.0,0.0,0.0,0.0,0.0,0.0],
"parents":[2147483647,0,0,1,1,2,2,3,3,5,5,6,6,7,7,8,8,11,11,12,12,13,13,19,19,21,21,22,22],
"right_children":[2,4,6,8,-1,10,12,14,16,-1,-1,18,20,22,-1,-1,-1,-1,-1,24,-1,26,28,-1,-1,-1,-1,-1,-1],
"split_conditions":[3.1101486682891846e+00,4.5072336196899414e+00,1.8137548446655273e+01,8.2170665264129639e-03,-2.3079270496964455e-02,8.0490188598632812e+00,7.0338575169444084e-03,4.6291097998619080e-02,8.9348399639129639e-01,-4.7403935343027115e-02,-2.9359793290495872e-02,2.5201041698455811e+00,9.9186357110738754e-03,1.8068117141723633e+01,5.2252835594117641e-03,-5.7256910949945450e-03,1.4004549942910671e-02,2.0959904417395592e-02,-9.4188554212450981e-03,8.2358092069625854e-01,-4.2491022497415543e-02,2.6579308509826660e-01,1.1262183189392090e+00,-1.7971172928810120e-02,2.0485508721321821e-03,2.6293482631444931e-02,3.3449186012148857e-03,2.4292862042784691e-02,2.6960361748933792e-02],
"split_indices":[12,8,14,3,0,14,3,4,6,0,0,8,2,14,0,0,0,0,0,1,0,8,8,0,0,0,0,0,0],
"split_type":[0,0,0,0,0,0,0,0,0,0,0,0,0,0,0,0,0,0,0,0,0,0,0,0,0,0,0,0,0],
"sum_hessian":[0.0,0.0,0.0,0.0,0.0,0.0,0.0,0.0,0.0,0.0,0.0,0.0,0.0,0.0,0.0,0.0,0.0,0.0,0.0,0.0,0.0,0.0,0.0,0.0,0.0,0.0,0.0,0.0,0.0],
"tree_param":{"num_deleted":"0","num_feature":"15","num_nodes":"29","size_leaf_vector":"0"}
},
{
"base_weights":[0.0,0.0,0.0,0.0,0.0,0.0,0.0,0.0,0.0,0.0,0.0,0.0,0.0,0.0,0.0,0.0,0.0,0.0,0.0,0.0,0.0,0.0,0.0,0.0,0.0,0.0,0.0,0.0,0.0,0.0,0.0,0.0,0.0],
"categories":[],"categories_nodes":[],"categories_segments":[],"categories_sizes":[],
"default_left":[true,true,true,true,true,false,true,true,true,true,false,true,false,false,true,true,false,true,false,false,true,false,false,true,false,false,true,false,false,false,false,false,false],
"id":25,
"left_children":[1,3,5,7,9,-1,11,13,15,17,-1,19,-1,-1,21,23,-1,25,-1,-1,27,-1,-1,29,-1,-1,31,-1,-1,-1,-1,-1,-1],
"loss_changes":[0.0,0.0,0.0,0.0,0.0,0.0,0.0,0.0,0.0,0.0,0.0,0.0,0.0,0.0,0.0,0.0,0.0,0.0,0.0,0.0,0.0,0.0,0.0,0.0,0.0,0.0,0.0,0.0,0.0,0.0,0.0,0.0,0.0],
"parents":[2147483647,0,0,1,1,2,2,3,3,4,4,6,6,7,7,8,8,9,9,11,11,14,14,15,15,17,17,20,20,23,23,26,26],
"right_children":[2,4,6,8,10,-1,12,14,16,18,-1,20,-1,-1,22,24,-1,26,-1,-1,28,-1,-1,30,-1,-1,32,-1,-1,-1,-1,-1,-1],
"split_conditions":[3.4365057945251465e+00,7.4595077894628048e-03,8.9415097609162331e-03,8.6595062166452408e-03,9.9855167791247368e-03,-7.0640374906361103e-03,3.8619709014892578e+01,1.4844182014465332e+01,1.8140052556991577e+00,1.9763517379760742e+00,-3.3221937716007233e-02,1.4615406036376953e+01,-1.9440727308392525e-02,2.0265944302082062e-02,2.0256409645080566e+00,3.3253971099853516e+01,-8.1775588914752007e-03,7.7164489030838013e-01,-1.6895718872547150e-02,-4.3333981186151505e-02,4.8928723335266113e+00,3.1962715089321136e-02,3.2872058451175690e-02,3.9843142032623291e-01,1.8367921933531761e-02,-2.5526143144816160e-03,9.0785753726959229e-01,-2.8965407982468605e-02,-4.5514345169067383e-02,1.2963128276169300e-02,-1.5585950677632354e-05,5.9825307689607143e-03,2.2571150213479996e-02],
"split_indices":[8,3,4,4,2,0,14,14,11,11,0,0,0,0,12,14,0,1,0,0,10,0,0,8,0,0,6,0,0,0,0,0,0],
"split_type":[0,0,0,0,0,0,0,0,0,0,0,0,0,0,0,0,0,0,0,0,0,0,0,0,0,0,0,0,0,0,0,0,0],
"sum_hessian":[0.0,0.0,0.0,0.0,0.0,0.0,0.0,0.0,0.0,0.0,0.0,0.0,0.0,0.0,0.0,0.0,0.0,0.0,0.0,0.0,0.0,0.0,0.0,0.0,0.0,0.0,0.0,0.0,0.0,0.0,0.0,0.0,0.0],
"tree_param":{"num_deleted":"0","num_feature":"15","num_nodes":"33","size_leaf_vector":"0"}
},
{
"base_weights":[0.0,0.0,0.0,0.0,0.0,0.0,0.0,0.0,0.0,0.0,0.0,0.0,0.0,0.0,0.0,0.0,0.0,0.0,0.0,0.0,0.0],
"categories":[],"categories_nodes":[],"categories_segments":[],"categories_sizes":[],
"default_left":[true,true,true,false,true,false,true,true,false,true,false,true,false,false,false,true,true,false,false,false,false],
"id":26,
"left_children":[1,3,5,-1,7,-1,9,11,-1,13,-1,15,-1,-1,-1,17,19,-1,-1,-1,-1],
"loss_changes":[0.0,0.0,0.0,0.0,0.0,0.0,0.0,0.0,0.0,0.0,0.0,0.0,0.0,0.0,0.0,0.0,0.0,0.0,0.0,0.0,0.0],
"parents":[2147483647,0,0,1,1,2,2,4,4,6,6,7,7,9,9,11,11,15,15,16,16],
"right_children":[2,4,6,-1,8,-1,10,12,-1,14,-1,16,-1,-1,-1,18,20,-1,-1,-1,-1],
"split_conditions":[6.2202973365783691e+00,-3.1610343285137787e-05,8.3756456375122070e+00,-2.5069849565625191e-02,3.1545307138003409e-05,-1.1130475439131260e-02,1.0957707464694977e-01,4.7032003402709961e+00,-2.4835236370563507e-02,7.9649233818054199e-01,-4.7323901206254959e-02,2.5357248306274414e+01,-1.3618429191410542e-02,-3.8086954504251480e-02,-2.4906359612941742e-02,9.4013166427612305e-01,4.4388263702392578e+01,1.3098430819809437e-02,-1.0650515556335449e-02,1.6638536006212234e-02,2.8568869456648827e-02],
"split_indices":[12,5,12,0,5,0,7,8,0,1,0,14,0,0,0,8,14,0,0,0,0],
"split_type":[0,0,0,0,0,0,0,0,0,0,0,0,0,0,0,0,0,0,0,0,0],
"sum_hessian":[0.0,0.0,0.0,0.0,0.0,0.0,0.0,0.0,0.0,0.0,0.0,0.0,0.0,0.0,0.0,0.0,0.0,0.0,0.0,0.0,0.0],
"tree_param":{"num_deleted":"0","num_feature":"15","num_nodes":"21","size_leaf_vector":"0"}
},
{
"base_weights":[0.0,0.0,0.0,0.0,0.0,0.0,0.0,0.0,0.0,0.0,0.0,0.0,0.0,0.0,0.0,0.0,0.0,0.0,0.0,0.0,0.0,0.0,0.0,0.0,0.0,0.0,0.0],
"categories":[],"categories_nodes":[],"categories_segments":[],"categories_sizes":[],
"default_left":[true,true,true,true,true,false,true,true,false,true,false,true,true,true,false,false,false,false,false,true,false,false,false,true,false,false,false],
"id":27,
"left_children":[1,3,5,7,9,-1,11,13,-1,15,-1,17,19,21,-1,-1,-1,-1,-1,23,-1,-1,-1,25,-1,-1,-1],
"loss_changes":[0.0,0.0,0.0,0.0,0.0,0.0,0.0,0.0,0.0,0.0,0.0,0.0,0.0,0.0,0.0,0.0,0.0,0.0,0.0,0.0,0.0,0.0,0.0,0.0,0.0,0.0,0.0],
"parents":[2147483647,0,0,1,1,2,2,3,3,4,4,6,6,7,7,9,9,11,11,12,12,13,13,19,19,23,23],
"right_children":[2,4,6,8,10,-1,12,14,-1,16,-1,18,20,22,-1,-1,-1,-1,-1,24,-1,-1,-1,26,-1,-1,-1],
"split_conditions":[8.6622035503387451e-01,9.0926988050341606e-03,8.9034765958786011e-01,2.6974267959594727e+00,2.9064317703247070e+01,-1.3369102962315083e-02,1.6496013641357422e+01,2.0727021694183350e+00,-1.9642300903797150e-02,3.5680642127990723e+00,-2.3496700450778008e-02,1.5550743341445923e+00,4.4109478592872620e-02,6.5055614709854126e-01,-9.4718709588050842e-03,-3.6482281982898712e-02,-4.8535235226154327e-02,2.0299866795539856e-02,-1.3739471323788166e-02,3.8782722473144531e+01,7.9704923555254936e-03,2.2541054931934923e-04,1.2650574557483196e-02,7.3637086898088455e-03,3.3765032887458801e-02,2.7120500802993774e-02,1.3105319812893867e-02],
"split_indices":[6,2,1,11,14,0,14,8,0,8,0,12,7,1,0,0,0,0,0,14,0,0,0,3,0,0,0],
"split_type":[0,0,0,0,0,0,0,0,0,0,0,0,0,0,0,0,0,0,0,0,0,0,0,0,0,0,0],
"sum_hessian":[0.0,0.0,0.0,0.0,0.0,0.0,0.0,0.0,0.0,0.0,0.0,0.0,0.0,0.0,0.0,0.0,0.0,0.0,0.0,0.0,0.0,0.0,0.0,0.0,0.0,0.0,0.0],
"tree_param":{"num_deleted":"0","num_feature":"15","num_nodes":"27","size_leaf_vector":"0"}
},
{
"base_weights":[0.0,0.0,0.0,0.0,0.0,0.0,0.0,0.0,0.0,0.0,0.0,0.0,0.0,0.0,0.0,0.0,0.0,0.0,0.0],
"categories":[],"categories_nodes":[],"categories_segments":[],"categories_sizes":[],
"default_left":[true,true,true,false,true,false,true,true,false,false,false,true,false,true,true,false,false,false,false],
"id":28,
"left_children":[1,3,5,-1,7,-1,9,11,-1,-1,-1,13,-1,15,17,-1,-1,-1,-1],
"loss_changes":[0.0,0.0,0.0,0.0,0.0,0.0,0.0,0.0,0.0,0.0,0.0,0.0,0.0,0.0,0.0,0.0,0.0,0.0,0.0],
"parents":[2147483647,0,0,1,1,2,2,4,4,6,6,7,7,11,11,13,13,14,14],
"right_children":[2,4,6,-1,8,-1,10,12,-1,-1,-1,14,-1,16,18,-1,-1,-1,-1],
"split_conditions":[7.4643568992614746e+00,-2.9324102797545493e-05,9.6153507232666016e+00,-2.1853487938642502e-02,2.7105268600280397e-05,-1.8946748226881027e-02,8.1997054815292358e-01,5.0951337814331055e+00,-2.0046694204211235e-02,-4.2305737733840942e-02,-3.2287172973155975e-02,3.4175254821777344e+01,-1.6741532832384109e-02,1.0185037851333618e+00,4.4731189727783203e+01,1.2710995972156525e-02,-2.6144997682422400e-03,1.7749181017279625e-02,2.7905708178877831e-02],
"split_indices":[12,5,12,0,5,0,6,8,0,0,0,14,0,8,14,0,0,0,0],
"split_type":[0,0,0,0,0,0,0,0,0,0,0,0,0,0,0,0,0,0,0],
"sum_hessian":[0.0,0.0,0.0,0.0,0.0,0.0,0.0,0.0,0.0,0.0,0.0,0.0,0.0,0.0,0.0,0.0,0.0,0.0,0.0],
"tree_param":{"num_deleted":"0","num_feature":"15","num_nodes":"19","size_leaf_vector":"0"}
},
{
"base_weights":[0.0,0.0,0.0,0.0,0.0,0.0,0.0,0.0,0.0,0.0,0.0,0.0,0.0,0.0,0.0,0.0,0.0,0.0,0.0,0.0,0.0,0.0,0.0,0.0,0.0,0.0,0.0,0.0,0.0],
"categories":[],"categories_nodes":[],"categories_segments":[],"categories_sizes":[],
"default_left":[true,true,true,true,false,true,true,false,false,true,false,true,true,true,true,false,false,true,true,false,false,false,true,false,false,false,false,false,false],
"id":29,
"left_children":[1,3,5,7,-1,9,11,-1,-1,13,-1,15,17,19,21,-1,-1,23,25,-1,-1,-1,27,-1,-1,-1,-1,-1,-1],
"loss_changes":[0.0,0.0,0.0,0.0,0.0,0.0,0.0,0.0,0.0,0.0,0.0,0.0,0.0,0.0,0.0,0.0,0.0,0.0,0.0,0.0,0.0,0.0,0.0,0.0,0.0,0.0,0.0,0.0,0.0],
"parents":[2147483647,0,0,1,1,2,2,3,3,5,5,6,6,9,9,11,11,12,12,13,13,14,14,17,17,18,18,22,22],
"right_children":[2,4,6,8,-1,10,12,-1,-1,14,-1,16,18,20,22,-1,-1,24,26,-1,-1,-1,28,-1,-1,-1,-1,-1,-1],
"split_conditions":[7.6902345754206181e-03,7.7825048938393593e-03,2.7991337776184082e+00,1.6539478302001953e+01,4.5823608525097370e-03,2.4134271144866943e+00,2.0880300521850586e+01,1.6094317659735680e-02,2.7699364349246025e-02,3.9193338155746460e-01,-1.1464219540357590e-02,3.5680642127990723e+00,3.2074053287506104e+00,1.3736873865127563e+00,2.0310764312744141e+01,-2.9289869591593742e-02,-4.3717574328184128e-02,7.2430358268320560e-03,1.9383764266967773e+01,1.4094539918005466e-02,5.7407338172197342e-03,-1.2526039034128189e-02,7.0792483165860176e-03,1.0238619521260262e-02,-6.0721072368323803e-03,-3.2759916037321091e-02,-1.9506692886352539e-02,1.3756617903709412e-02,4.0160520002245903e-03],
"split_indices":[4,3,12,14,0,10,14,0,0,8,0,8,8,12,14,0,0,3,0,0,0,0,3,0,0,0,0,0,0],
"split_type":[0,0,0,0,0,0,0,0,0,0,0,0,0,0,0,0,0,0,0,0,0,0,0,0,0,0,0,0,0],
"sum_hessian":[0.0,0.0,0.0,0.0,0.0,0.0,0.0,0.0,0.0,0.0,0.0,0.0,0.0,0.0,0.0,0.0,0.0,0.0,0.0,0.0,0.0,0.0,0.0,0.0,0.0,0.0,0.0,0.0,0.0],
"tree_param":{"num_deleted":"0","num_feature":"15","num_nodes":"29","size_leaf_vector":"0"}
},
{
"base_weights":[0.0,0.0,0.0,0.0,0.0,0.0,0.0,0.0,0.0,0.0,0.0,0.0,0.0,0.0,0.0,0.0,0.0,0.0,0.0,0.0,0.0,0.0,0.0,0.0,0.0,0.0,0.0,0.0,0.0],
"categories":[],"categories_nodes":[],"categories_segments":[],"categories_sizes":[],
"default_left":[true,true,true,true,false,true,true,true,false,true,true,false,false,false,true,true,true,false,true,true,false,false,false,false,false,false,false,false,false],
"id":30,
"left_children":[1,3,5,7,-1,9,11,13,-1,15,17,-1,-1,-1,19,21,23,-1,25,27,-1,-1,-1,-1,-1,-1,-1,-1,-1],
"loss_changes":[0.0,0.0,0.0,0.0,0.0,0.0,0.0,0.0,0.0,0.0,0.0,0.0,0.0,0.0,0.0,0.0,0.0,0.0,0.0,0.0,0.0,0.0,0.0,0.0,0.0,0.0,0.0,0.0,0.0],
"parents":[2147483647,0,0,1,1,2,2,3,3,5,5,6,6,7,7,9,9,10,10,14,14,15,15,16,16,18,18,19,19],
"right_children":[2,4,6,8,-1,10,12,14,-1,16,18,-1,-1,-1,20,22,24,-1,26,28,-1,-1,-1,-1,-1,-1,-1,-1,-1],
"split_conditions":[6.7826481536030769e-03,5.7275094985961914e+00,9.0479135513305664e-01,5.2570719271898270e-02,-2.6828279718756676e-02,9.5274141058325768e-03,2.6179473876953125e+01,1.1713469505310059e+01,-1.1384272947907448e-03,1.0716161727905273e+00,2.4530441761016846e+00,3.1011579558253288e-03,1.7160808667540550e-02,5.3300457075238228e-03,3.8401309967041016e+01,2.1179367065429688e+01,3.1966487884521484e+01,-2.6170453056693077e-02,8.5241394042968750e+00,1.9677216187119484e-02,2.7625536546111107e-02,-4.8127020709216595e-03,7.2610513307154179e-03,-2.5920914486050606e-02,-2.8073289431631565e-03,-3.5427685827016830e-02,-4.8562537878751755e-02,2.0954497158527374e-02,9.1443713754415512e-03],
"split_indices":[3,8,6,4,0,2,14,14,0,8,8,0,0,0,14,14,14,0,12,7,0,0,0,0,0,0,0,0,0],
"split_type":[0,0,0,0,0,0,0,0,0,0,0,0,0,0,0,0,0,0,0,0,0,0,0,0,0,0,0,0,0],
"sum_hessian":[0.0,0.0,0.0,0.0,0.0,0.0,0.0,0.0,0.0,0.0,0.0,0.0,0.0,0.0,0.0,0.0,0.0,0.0,0.0,0.0,0.0,0.0,0.0,0.0,0.0,0.0,0.0,0.0,0.0],
"tree_param":{"num_deleted":"0","num_feature":"15","num_nodes":"29","size_leaf_vector":"0"}
},
{
"base_weights":[0.0,0.0,0.0,0.0,0.0,0.0,0.0,0.0,0.0,0.0,0.0,0.0,0.0,0.0,0.0,0.0,0.0,0.0,0.0,0.0,0.0,0.0,0.0],
"categories":[],"categories_nodes":[],"categories_segments":[],"categories_sizes":[],
"default_left":[true,true,true,true,false,true,true,false,false,true,false,false,true,false,true,false,true,true,false,false,false,false,false],
"id":31,
"left_children":[1,3,5,7,-1,9,11,-1,-1,13,-1,-1,15,-1,17,-1,19,21,-1,-1,-1,-1,-1],
"loss_changes":[0.0,0.0,0.0,0.0,0.0,0.0,0.0,0.0,0.0,0.0,0.0,0.0,0.0,0.0,0.0,0.0,0.0,0.0,0.0,0.0,0.0,0.0,0.0],
"parents":[2147483647,0,0,1,1,2,2,3,3,5,5,6,6,9,9,12,12,14,14,16,16,17,17],
"right_children":[2,4,6,8,-1,10,12,-1,-1,14,-1,-1,16,-1,18,-1,20,22,-1,-1,-1,-1,-1],
"split_conditions":[7.3558762669563293e-03,3.1673101425170898e+01,2.2256760597229004e+00,6.1362779140472412e-01,2.5939386337995529e-02,5.3890252113342285e+00,1.0617101669311523e+01,2.4491315707564354e-02,4.3605971150100231e-03,-2.1718798961956054e-05,-3.3710997551679611e-02,-4.2716816067695618e-02,6.7092073149979115e-03,-1.2323894537985325e-02,2.1808538804179989e-05,-2.1164868958294392e-03,2.9771741867065430e+01,6.4171516895294189e-01,-1.2250573374330997e-02,-2.8505407273769379e-02,-1.5169288031756878e-02,-3.3307415433228016e-03,1.3037325814366341e-02],
"split_indices":[4,14,11,8,0,8,14,0,0,5,0,0,3,0,5,0,14,1,0,0,0,0,0],
"split_type":[0,0,0,0,0,0,0,0,0,0,0,0,0,0,0,0,0,0,0,0,0,0,0],
"sum_hessian":[0.0,0.0,0.0,0.0,0.0,0.0,0.0,0.0,0.0,0.0,0.0,0.0,0.0,0.0,0.0,0.0,0.0,0.0,0.0,0.0,0.0,0.0,0.0],
"tree_param":{"num_deleted":"0","num_feature":"15","num_nodes":"23","size_leaf_vector":"0"}
},
{
"base_weights":[0.0,0.0,0.0,0.0,0.0,0.0,0.0,0.0,0.0,0.0,0.0,0.0,0.0,0.0,0.0,0.0,0.0,0.0,0.0,0.0,0.0],
"categories":[],"categories_nodes":[],"categories_segments":[],"categories_sizes":[],
"default_left":[true,true,true,false,true,true,false,true,false,false,false,true,true,true,false,true,false,false,false,false,false],
"id":32,
"left_children":[1,3,5,-1,7,9,-1,11,-1,-1,-1,13,15,17,-1,19,-1,-1,-1,-1,-1],
"loss_changes":[0.0,0.0,0.0,0.0,0.0,0.0,0.0,0.0,0.0,0.0,0.0,0.0,0.0,0.0,0.0,0.0,0.0,0.0,0.0,0.0,0.0],
"parents":[2147483647,0,0,1,1,2,2,4,4,5,5,7,7,11,11,12,12,13,13,15,15],
"right_children":[2,4,6,-1,8,10,-1,12,-1,-1,-1,14,16,18,-1,20,-1,-1,-1,-1,-1],
"split_conditions":[7.7753720283508301e+00,-3.7141544453334063e-05,1.0957707464694977e-01,-2.3454025387763977e-02,3.2617816032143310e-05,1.1460933685302734e+01,-4.2609170079231262e-02,1.3005949974060059e+01,-2.0325219258666039e-02,-1.6676098108291626e-02,-3.0695499852299690e-02,3.9193338155746460e-01,4.5533537864685059e+00,8.5090106725692749e-01,-2.0983686670660973e-02,6.4967006444931030e-01,-7.4414033442735672e-03,1.7328657209873199e-02,1.2415054952725768e-03,5.6384876370429993e-04,1.5080126002430916e-02],
"split_indices":[12,5,7,0,5,12,0,14,0,0,0,8,8,12,0,1,0,0,0,0,0],
"split_type":[0,0,0,0,0,0,0,0,0,0,0,0,0,0,0,0,0,0,0,0,0],
"sum_hessian":[0.0,0.0,0.0,0.0,0.0,0.0,0.0,0.0,0.0,0.0,0.0,0.0,0.0,0.0,0.0,0.0,0.0,0.0,0.0,0.0,0.0],
"tree_param":{"num_deleted":"0","num_feature":"15","num_nodes":"21","size_leaf_vector":"0"}
},
{
"base_weights":[0.0,0.0,0.0,0.0,0.0,0.0,0.0,0.0,0.0,0.0,0.0,0.0,0.0,0.0,0.0,0.0,0.0,0.0,0.0,0.0,0.0,0.0,0.0,0.0,0.0,0.0,0.0,0.0,0.0],
"categories":[],"categories_nodes":[],"categories_segments":[],"categories_sizes":[],
"default_left":[true,true,true,true,false,true,true,true,true,false,true,false,false,false,true,true,false,true,false,false,false,true,true,false,false,false,false,false,false],
"id":33,
"left_children":[1,3,5,7,-1,9,11,13,15,-1,17,-1,-1,-1,19,21,-1,23,-1,-1,-1,25,27,-1,-1,-1,-1,-1,-1],
"loss_changes":[0.0,0.0,0.0,0.0,0.0,0.0,0.0,0.0,0.0,0.0,0.0,0.0,0.0,0.0,0.0,0.0,0.0,0.0,0.0,0.0,0.0,0.0,0.0,0.0,0.0,0.0,0.0,0.0,0.0],
"parents":[2147483647,0,0,1,1,2,2,3,3,5,5,6,6,7,7,8,8,10,10,14,14,15,15,17,17,21,21,22,22],
"right_children":[2,4,6,8,-1,10,12,14,16,-1,18,-1,-1,-1,20,22,-1,24,-1,-1,-1,26,28,-1,-1,-1,-1,-1,-1],
"split_conditions":[7.7874846756458282e-03,6.1857104301452637e+00,9.9018672481179237e-03,8.6587667465209961e-03,-2.7763988822698593e-02,-1.4300674592959695e-05,2.6760480403900146e+00,1.1660331726074219e+01,3.8342967987060547e+01,-1.5719577670097351e-02,1.3712079635297414e-05,-2.6091614738106728e-02,-4.1094820946455002e-02,1.0975223965942860e-02,1.0293914079666138e+00,2.1771039962768555e+00,1.4636088162660599e-02,8.3312237262725830e-01,-1.5618492849171162e-02,2.4456826969981194e-02,2.2186044603586197e-02,3.8331753015518188e-01,2.0541330337524414e+01,-2.6199331041425467e-03,1.7166081815958023e-02,9.5592895522713661e-03,9.6245761960744858e-04,-1.7961263656616211e-02,-4.2348587885499001e-04],
"split_indices":[3,8,2,4,0,5,8,14,14,0,5,0,0,0,8,12,0,1,0,0,0,8,14,0,0,0,0,0,0],
"split_type":[0,0,0,0,0,0,0,0,0,0,0,0,0,0,0,0,0,0,0,0,0,0,0,0,0,0,0,0,0],
"sum_hessian":[0.0,0.0,0.0,0.0,0.0,0.0,0.0,0.0,0.0,0.0,0.0,0.0,0.0,0.0,0.0,0.0,0.0,0.0,0.0,0.0,0.0,0.0,0.0,0.0,0.0,0.0,0.0,0.0,0.0],
"tree_param":{"num_deleted":"0","num_feature":"15","num_nodes":"29","size_leaf_vector":"0"}
},
{
"base_weights":[0.0,0.0,0.0,0.0,0.0,0.0,0.0,0.0,0.0,0.0,0.0,0.0,0.0,0.0,0.0,0.0,0.0,0.0,0.0,0.0,0.0,0.0,0.0,0.0,0.0,0.0,0.0],
"categories":[],"categories_nodes":[],"categories_segments":[],"categories_sizes":[],
"default_left":[true,true,false,true,true,true,true,false,true,true,false,true,true,false,true,false,false,false,true,false,false,true,false,false,false,false,false],
"id":34,
"left_children":[1,3,-1,5,7,9,11,-1,13,15,-1,17,19,-1,21,-1,-1,-1,23,-1,-1,25,-1,-1,-1,-1,-1],
"loss_changes":[0.0,0.0,0.0,0.0,0.0,0.0,0.0,0.0,0.0,0.0,0.0,0.0,0.0,0.0,0.0,0.0,0.0,0.0,0.0,0.0,0.0,0.0,0.0,0.0,0.0,0.0,0.0],
"parents":[2147483647,0,0,1,1,3,3,4,4,5,5,6,6,8,8,9,9,11,11,12,12,14,14,18,18,21,21],
"right_children":[2,4,-1,6,8,10,12,-1,14,16,-1,18,20,-1,22,-1,-1,-1,24,-1,-1,26,-1,-1,-1,-1,-1],
"split_conditions":[1.7003339529037476e-01,8.9705353975296021e-01,-3.6147072911262512e-02,6.0290205292403698e-03,9.6149456501007080e-01,2.7492046356201172e+00,9.4583742320537567e-03,-1.1150726117193699e-02,1.1364711761474609e+01,2.9117591679096222e-02,-6.6926470026373863e-03,-8.6110740900039673e-01,2.7612586975097656e+01,8.7824156507849693e-03,3.2315762042999268e+00,1.6683172434568405e-02,4.2203706689178944e-03,6.2113883905112743e-03,7.8072595596313477e-01,-3.5647187381982803e-02,-1.3180959969758987e-02,9.6751898527145386e-01,2.1758012473583221e-02,-1.5440994873642921e-02,5.3207660093903542e-03,2.1283857524394989e-02,2.4238228797912598e-02],
"split_indices":[7,6,0,3,1,8,2,0,14,4,0,13,14,0,12,0,0,0,13,0,0,8,0,0,0,0,0],
"split_type":[0,0,0,0,0,0,0,0,0,0,0,0,0,0,0,0,0,0,0,0,0,0,0,0,0,0,0],
"sum_hessian":[0.0,0.0,0.0,0.0,0.0,0.0,0.0,0.0,0.0,0.0,0.0,0.0,0.0,0.0,0.0,0.0,0.0,0.0,0.0,0.0,0.0,0.0,0.0,0.0,0.0,0.0,0.0],
"tree_param":{"num_deleted":"0","num_feature":"15","num_nodes":"27","size_leaf_vector":"0"}
},
{
"base_weights":[0.0,0.0,0.0,0.0,0.0,0.0,0.0,0.0,0.0,0.0,0.0,0.0,0.0,0.0,0.0,0.0,0.0],
"categories":[],"categories_nodes":[],"categories_segments":[],"categories_sizes":[],
"default_left":[true,true,true,true,false,false,true,true,false,false,false,false,true,true,false,false,false],
"id":35,
"left_children":[1,3,5,7,-1,-1,9,11,-1,-1,-1,-1,13,15,-1,-1,-1],
"loss_changes":[0.0,0.0,0.0,0.0,0.0,0.0,0.0,0.0,0.0,0.0,0.0,0.0,0.0,0.0,0.0,0.0,0.0],
"parents":[2147483647,0,0,1,1,2,2,3,3,6,6,7,7,12,12,13,13],
"right_children":[2,4,6,8,-1,-1,10,12,-1,-1,-1,-1,14,16,-1,-1,-1],
"split_conditions":[5.0289340019226074e+00,1.3060462474822998e-01,1.7606693267822266e+01,2.9215633869171143e+00,-2.1456034854054451e-02,-3.3841304481029510e-02,7.8897180557250977e+00,-2.7518039132701233e-05,-1.5662809833884239e-02,-2.3484844714403152e-03,-3.2255567610263824e-02,-1.0503126308321953e-02,2.7694199161487631e-05,6.1168777942657471e-01,-1.0408450849354267e-02,-3.5941186361014843e-03,1.3264280743896961e-02],
"split_indices":[10,7,14,11,0,0,9,5,0,0,0,0,5,1,0,0,0],
"split_type":[0,0,0,0,0,0,0,0,0,0,0,0,0,0,0,0,0],
"sum_hessian":[0.0,0.0,0.0,0.0,0.0,0.0,0.0,0.0,0.0,0.0,0.0,0.0,0.0,0.0,0.0,0.0,0.0],
"tree_param":{"num_deleted":"0","num_feature":"15","num_nodes":"17","size_leaf_vector":"0"}
},
{
"base_weights":[0.0,0.0,0.0,0.0,0.0,0.0,0.0,0.0,0.0,0.0,0.0,0.0,0.0,0.0,0.0,0.0,0.0,0.0,0.0,0.0,0.0,0.0,0.0,0.0,0.0],
"categories":[],"categories_nodes":[],"categories_segments":[],"categories_sizes":[],
"default_left":[true,true,true,true,false,true,true,false,false,false,true,true,true,false,true,false,true,false,false,false,false,false,true,false,false],
"id":36,
"left_children":[1,3,5,7,-1,9,11,-1,-1,-1,13,15,17,-1,19,-1,21,-1,-1,-1,-1,-1,23,-1,-1],
"loss_changes":[0.0,0.0,0.0,0.0,0.0,0.0,0.0,0.0,0.0,0.0,0.0,0.0,0.0,0.0,0.0,0.0,0.0,0.0,0.0,0.0,0.0,0.0,0.0,0.0,0.0],
"parents":[2147483647,0,0,1,1,2,2,3,3,5,5,6,6,10,10,11,11,12,12,14,14,16,16,22,22],
"right_children":[2,4,6,8,-1,10,12,-1,-1,-1,14,16,18,-1,20,-1,22,-1,-1,-1,-1,-1,24,-1,-1],
"split_conditions":[7.3558762669563293e-03,3.1673101425170898e+01,1.1455019712448120e+00,1.9995033740997314e+00,2.1768478676676750e-02,1.9906579971313477e+01,3.9327514648437500e+01,2.0181493833661079e-02,1.8670437857508659e-03,9.2620123177766800e-03,7.9867452383041382e-01,1.4249087333679199e+01,3.4307982921600342e+00,-9.4758560881018639e-03,1.6210664749145508e+01,-3.7423860281705856e-02,2.2609488964080811e+00,1.1811105534434319e-02,-5.6352289393544197e-03,-1.2093477416783571e-03,1.1211468838155270e-02,-3.1384633621200919e-04,7.0360959507524967e-03,-8.7086632847785950e-03,-2.5636976584792137e-02],
"split_indices":[4,14,8,12,0,0,14,0,0,0,1,14,8,0,14,0,12,0,0,0,0,0,3,0,0],
"split_type":[0,0,0,0,0,0,0,0,0,0,0,0,0,0,0,0,0,0,0,0,0,0,0,0,0],
"sum_hessian":[0.0,0.0,0.0,0.0,0.0,0.0,0.0,0.0,0.0,0.0,0.0,0.0,0.0,0.0,0.0,0.0,0.0,0.0,0.0,0.0,0.0,0.0,0.0,0.0,0.0],
"tree_param":{"num_deleted":"0","num_feature":"15","num_nodes":"25","size_leaf_vector":"0"}
},
{
"base_weights":[0.0,0.0,0.0,0.0,0.0,0.0,0.0,0.0,0.0,0.0,0.0,0.0,0.0,0.0,0.0,0.0,0.0,0.0,0.0,0.0,0.0,0.0,0.0,0.0,0.0],
"categories":[],"categories_nodes":[],"categories_segments":[],"categories_sizes":[],
"default_left":[true,true,false,true,true,true,false,true,true,true,true,true,false,false,false,true,true,false,false,false,false,false,false,false,false],
"id":37,
"left_children":[1,3,-1,5,7,9,-1,11,13,15,17,19,-1,-1,-1,21,23,-1,-1,-1,-1,-1,-1,-1,-1],
"loss_changes":[0.0,0.0,0.0,0.0,0.0,0.0,0.0,0.0,0.0,0.0,0.0,0.0,0.0,0.0,0.0,0.0,0.0,0.0,0.0,0.0,0.0,0.0,0.0,0.0,0.0],
"parents":[2147483647,0,0,1,1,3,3,4,4,5,5,7,7,8,8,9,9,10,10,11,11,15,15,16,16],
"right_children":[2,4,-1,6,8,10,-1,12,14,16,18,20,-1,-1,-1,22,24,-1,-1,-1,-1,-1,-1,-1,-1],
"split_conditions":[1.7003339529037476e-01,8.0386940389871597e-03,-3.1839556992053986e-02,6.4148106575012207e+00,1.0134072043001652e-02,3.6193305969238281e+01,-2.5117715820670128e-02,2.8857418060302734e+01,4.7582432627677917e-02,8.7254308164119720e-03,1.3816657066345215e+00,1.9728301763534546e+00,5.9724706225097179e-03,-3.3899918198585510e-02,-2.2038782015442848e-02,1.1105790138244629e+01,1.8660892248153687e+00,1.3279682025313377e-02,2.0370742306113243e-02,3.5764474887400866e-03,-1.7467135563492775e-02,9.5296567305922508e-03,1.8509285524487495e-02,5.7090134359896183e-03,-5.6559680961072445e-03],
"split_indices":[7,3,0,8,2,14,0,14,4,4,8,12,0,0,0,14,12,0,0,0,0,0,0,0,0],
"split_type":[0,0,0,0,0,0,0,0,0,0,0,0,0,0,0,0,0,0,0,0,0,0,0,0,0],
"sum_hessian":[0.0,0.0,0.0,0.0,0.0,0.0,0.0,0.0,0.0,0.0,0.0,0.0,0.0,0.0,0.0,0.0,0.0,0.0,0.0,0.0,0.0,0.0,0.0,0.0,0.0],
"tree_param":{"num_deleted":"0","num_feature":"15","num_nodes":"25","size_leaf_vector":"0"}
},
{
"base_weights":[0.0,0.0,0.0,0.0,0.0,0.0,0.0,0.0,0.0,0.0,0.0,0.0,0.0,0.0,0.0,0.0,0.0,0.0,0.0,0.0,0.0,0.0,0.0],
"categories":[],"categories_nodes":[],"categories_segments":[],"categories_sizes":[],
"default_left":[true,true,true,true,false,false,true,true,true,false,false,false,true,false,true,false,true,true,false,false,false,false,false],
"id":38,
"left_children":[1,3,5,7,-1,-1,9,11,13,-1,-1,-1,15,-1,17,-1,19,21,-1,-1,-1,-1,-1],
"loss_changes":[0.0,0.0,0.0,0.0,0.0,0.0,0.0,0.0,0.0,0.0,0.0,0.0,0.0,0.0,0.0,0.0,0.0,0.0,0.0,0.0,0.0,0.0,0.0],
"parents":[2147483647,0,0,1,1,2,2,3,3,6,6,7,7,8,8,12,12,14,14,16,16,17,17],
"right_children":[2,4,6,8,-1,-1,10,12,14,-1,-1,-1,16,-1,18,-1,20,22,-1,-1,-1,-1,-1],
"split_conditions":[7.7753720283508301e+00,4.4724540710449219e+01,1.0846674919128418e+01,1.1758000850677490e+00,1.7312692478299141e-02,-1.4730108901858330e-02,7.8335613012313843e-01,1.9161003112792969e+01,1.2695399284362793e+01,-3.8179099559783936e-02,-2.8450051322579384e-02,1.2063104659318924e-02,7.1883136034011841e-01,-3.1582381576299667e-02,8.0755352973937988e-03,-8.8886851444840431e-03,9.2086114883422852e+00,8.5662376880645752e-01,-1.2756750918924809e-02,-1.3720274437218904e-03,8.5282931104302406e-03,-3.9567342028021812e-03,8.1431744620203972e-03],
"split_indices":[12,14,12,8,0,0,6,0,14,0,0,0,1,0,3,0,14,6,0,0,0,0,0],
"split_type":[0,0,0,0,0,0,0,0,0,0,0,0,0,0,0,0,0,0,0,0,0,0,0],
"sum_hessian":[0.0,0.0,0.0,0.0,0.0,0.0,0.0,0.0,0.0,0.0,0.0,0.0,0.0,0.0,0.0,0.0,0.0,0.0,0.0,0.0,0.0,0.0,0.0],
"tree_param":{"num_deleted":"0","num_feature":"15","num_nodes":"23","size_leaf_vector":"0"}
},
{
"base_weights":[0.0,0.0,0.0,0.0,0.0,0.0,0.0,0.0,0.0,0.0,0.0,0.0,0.0,0.0,0.0,0.0,0.0,0.0,0.0,0.0,0.0,0.0,0.0],
"categories":[],"categories_nodes":[],"categories_segments":[],"categories_sizes":[],
"default_left":[true,true,false,true,true,true,true,false,false,true,true,false,true,true,false,false,false,true,false,false,false,false,false],
"id":39,
"left_children":[1,3,-1,5,7,9,11,-1,-1,13,15,-1,17,19,-1,-1,-1,21,-1,-1,-1,-1,-1],
"loss_changes":[0.0,0.0,0.0,0.0,0.0,0.0,0.0,0.0,0.0,0.0,0.0,0.0,0.0,0.0,0.0,0.0,0.0,0.0,0.0,0.0,0.0,0.0,0.0],
"parents":[2147483647,0,0,1,1,3,3,4,4,5,5,6,6,9,9,10,10,12,12,13,13,17,17],
"right_children":[2,4,-1,6,8,10,12,-1,-1,14,16,-1,18,20,-1,-1,-1,22,-1,-1,-1,-1,-1],
"split_conditions":[2.0687396824359894e-01,5.4984092712402344e+00,-3.6998700350522995e-02,1.7592140197753906e+01,8.4409990310668945e+00,1.8660892248153687e+00,5.7675033807754517e-01,-1.3388809747993946e-02,-3.7233434617519379e-02,3.3521866798400879e-01,9.7851066589355469e+00,-5.2375984378159046e-03,4.6111366271972656e+01,7.3580402135848999e-01,-4.8616845160722733e-03,-2.9716361314058304e-02,-9.6250092610716820e-03,-1.7772290448192507e-05,2.1496510133147240e-02,1.3916941359639168e-02,8.9520504698157310e-03,-2.1887423936277628e-03,9.5763588324189186e-03],
"split_indices":[7,8,0,14,8,12,1,0,0,8,14,0,14,12,0,0,0,5,0,0,0,0,0],
"split_type":[0,0,0,0,0,0,0,0,0,0,0,0,0,0,0,0,0,0,0,0,0,0,0],
"sum_hessian":[0.0,0.0,0.0,0.0,0.0,0.0,0.0,0.0,0.0,0.0,0.0,0.0,0.0,0.0,0.0,0.0,0.0,0.0,0.0,0.0,0.0,0.0,0.0],
"tree_param":{"num_deleted":"0","num_feature":"15","num_nodes":"23","size_leaf_vector":"0"}
},
{
"base_weights":[0.0,0.0,0.0,0.0,0.0,0.0,0.0,0.0,0.0,0.0,0.0,0.0,0.0,0.0,0.0,0.0,0.0,0.0,0.0,0.0,0.0],
"categories":[],"categories_nodes":[],"categories_segments":[],"categories_sizes":[],
"default_left":[true,true,true,true,false,true,true,false,false,false,false,true,true,false,true,false,false,true,false,false,false],
"id":40,
"left_children":[1,3,5,7,-1,9,11,-1,-1,-1,-1,13,15,-1,17,-1,-1,19,-1,-1,-1],
"loss_changes":[0.0,0.0,0.0,0.0,0.0,0.0,0.0,0.0,0.0,0.0,0.0,0.0,0.0,0.0,0.0,0.0,0.0,0.0,0.0,0.0,0.0],
"parents":[2147483647,0,0,1,1,2,2,3,3,5,5,6,6,11,11,12,12,14,14,17,17],
"right_children":[2,4,6,8,-1,10,12,-1,-1,-1,-1,14,16,-1,18,-1,-1,20,-1,-1,-1],
"split_conditions":[7.3558762669563293e-03,2.9688364028930664e+01,-2.5162597012240440e-05,1.8566817045211792e+00,1.8089227378368378e-02,3.2293356955051422e-02,2.2635715140495449e-05,1.7776563763618469e-02,1.7778511391952634e-03,-3.0439006164669991e-02,-1.0444475337862968e-02,5.5632913112640381e-01,2.9313579201698303e-02,-9.3720573931932449e-03,9.6352256834506989e-02,-3.0377171933650970e-02,-9.1858841478824615e-03,2.5392568588256836e+01,-1.0892624966800213e-02,1.8984321504831314e-03,1.1177451349794865e-02],
"split_indices":[4,14,5,12,0,4,5,0,0,0,0,1,4,0,7,0,0,14,0,0,0],
"split_type":[0,0,0,0,0,0,0,0,0,0,0,0,0,0,0,0,0,0,0,0,0],
"sum_hessian":[0.0,0.0,0.0,0.0,0.0,0.0,0.0,0.0,0.0,0.0,0.0,0.0,0.0,0.0,0.0,0.0,0.0,0.0,0.0,0.0,0.0],
"tree_param":{"num_deleted":"0","num_feature":"15","num_nodes":"21","size_leaf_vector":"0"}
},
{
"base_weights":[0.0,0.0,0.0,0.0,0.0,0.0,0.0,0.0,0.0,0.0,0.0,0.0,0.0,0.0,0.0,0.0,0.0],
"categories":[],"categories_nodes":[],"categories_segments":[],"categories_sizes":[],
"default_left":[true,true,true,true,false,false,true,true,false,false,false,false,true,true,false,false,false],
"id":41,
"left_children":[1,3,5,7,-1,-1,9,11,-1,-1,-1,-1,13,15,-1,-1,-1],
"loss_changes":[0.0,0.0,0.0,0.0,0.0,0.0,0.0,0.0,0.0,0.0,0.0,0.0,0.0,0.0,0.0,0.0,0.0],
"parents":[2147483647,0,0,1,1,2,2,3,3,6,6,7,7,12,12,13,13],
"right_children":[2,4,6,8,-1,-1,10,12,-1,-1,-1,-1,14,16,-1,-1,-1],
"split_conditions":[5.0289340019226074e+00,3.1793484687805176e+00,3.8949332237243652e+00,3.7502966733882204e-05,-1.7177673056721687e-02,-2.2313153371214867e-02,9.1507606506347656e+00,-3.8215588574530557e-05,-1.4284240081906319e-02,-8.9622504310682416e-04,-3.1573798507452011e-02,-1.4436693862080574e-02,4.3308929443359375e+01,6.4626641571521759e-02,1.5601098537445068e-02,6.6947648301720619e-03,-5.5162450298666954e-03],
"split_indices":[10,11,11,5,0,0,12,5,0,0,0,0,14,7,0,0,0],
"split_type":[0,0,0,0,0,0,0,0,0,0,0,0,0,0,0,0,0],
"sum_hessian":[0.0,0.0,0.0,0.0,0.0,0.0,0.0,0.0,0.0,0.0,0.0,0.0,0.0,0.0,0.0,0.0,0.0],
"tree_param":{"num_deleted":"0","num_feature":"15","num_nodes":"17","size_leaf_vector":"0"}
},
{
"base_weights":[0.0,0.0,0.0,0.0,0.0,0.0,0.0,0.0,0.0,0.0,0.0,0.0,0.0,0.0,0.0,0.0,0.0,0.0,0.0,0.0,0.0,0.0,0.0,0.0,0.0,0.0,0.0],
"categories":[],"categories_nodes":[],"categories_segments":[],"categories_sizes":[],
"default_left":[true,true,true,true,false,true,true,true,false,false,true,true,true,false,true,false,false,false,false,true,false,true,false,false,false,false,false],
"id":42,
"left_children":[1,3,5,7,-1,9,11,13,-1,-1,15,17,19,-1,21,-1,-1,-1,-1,23,-1,25,-1,-1,-1,-1,-1],
"loss_changes":[0.0,0.0,0.0,0.0,0.0,0.0,0.0,0.0,0.0,0.0,0.0,0.0,0.0,0.0,0.0,0.0,0.0,0.0,0.0,0.0,0.0,0.0,0.0,0.0,0.0,0.0,0.0],
"parents":[2147483647,0,0,1,1,2,2,3,3,5,5,6,6,7,7,10,10,11,11,12,12,14,14,19,19,21,21],
"right_children":[2,4,6,8,-1,10,12,14,-1,-1,16,18,20,-1,22,-1,-1,-1,-1,24,-1,26,-1,-1,-1,-1,-1],
"split_conditions":[6.5314387902617455e-03,5.2693090438842773e+00,2.1771039962768555e+00,4.9516819417476654e-02,-1.3731538318097591e-02,1.4961989402770996e+01,2.1057252883911133e+01,8.0283336639404297e+00,-1.2952694669365883e-03,-3.7063274066895247e-03,2.8698707580566406e+01,6.2061648368835449e+00,8.9829540252685547e-01,9.5529091777279973e-04,2.9061732813715935e-02,3.9905710145831108e-03,9.4968769699335098e-03,-2.2620024159550667e-02,-3.1972195953130722e-02,9.3893352895975113e-03,6.4901285804808140e-03,2.7858951091766357e+00,5.5725565180182457e-03,-1.8306899582967162e-03,-2.1416852250695229e-02,1.5118123032152653e-02,1.5665624290704727e-02],
"split_indices":[3,8,12,4,0,14,14,14,0,0,14,12,6,0,7,0,0,0,0,2,0,12,0,0,0,0,0],
"split_type":[0,0,0,0,0,0,0,0,0,0,0,0,0,0,0,0,0,0,0,0,0,0,0,0,0,0,0],
"sum_hessian":[0.0,0.0,0.0,0.0,0.0,0.0,0.0,0.0,0.0,0.0,0.0,0.0,0.0,0.0,0.0,0.0,0.0,0.0,0.0,0.0,0.0,0.0,0.0,0.0,0.0,0.0,0.0],
"tree_param":{"num_deleted":"0","num_feature":"15","num_nodes":"27","size_leaf_vector":"0"}
},
{
"base_weights":[0.0,0.0,0.0,0.0,0.0,0.0,0.0,0.0,0.0,0.0,0.0,0.0,0.0,0.0,0.0,0.0,0.0,0.0,0.0,0.0,0.0,0.0,0.0,0.0,0.0],
"categories":[],"categories_nodes":[],"categories_segments":[],"categories_sizes":[],
"default_left":[true,true,true,false,true,true,true,true,true,false,true,true,false,false,false,false,false,false,true,false,false,false,true,false,false],
"id":43,
"left_children":[1,3,5,-1,7,9,11,13,15,-1,17,19,-1,-1,-1,-1,-1,-1,21,-1,-1,-1,23,-1,-1],
"loss_changes":[0.0,0.0,0.0,0.0,0.0,0.0,0.0,0.0,0.0,0.0,0.0,0.0,0.0,0.0,0.0,0.0,0.0,0.0,0.0,0.0,0.0,0.0,0.0,0.0,0.0],
"parents":[2147483647,0,0,1,1,2,2,4,4,5,5,6,6,7,7,8,8,10,10,11,11,18,18,22,22],
"right_children":[2,4,6,-1,8,10,12,14,16,-1,18,20,-1,-1,-1,-1,-1,-1,22,-1,-1,-1,24,-1,-1],
"split_conditions":[9.1640156507492065e-01,1.9087497711181641e+01,3.5169151306152344e+01,1.2212567031383514e-02,8.6913031339645386e-01,9.7721328735351562e+00,5.4892554283142090e+00,7.9206734895706177e-01,3.5330024719238281e+01,-3.3890128135681152e-02,7.9834898933768272e-03,4.4819404602050781e+01,-1.8091596662998199e-02,1.3335251715034246e-03,-1.5633212402462959e-02,5.3862817585468292e-03,1.5441853553056717e-02,4.3147844262421131e-03,2.3514866828918457e+00,4.1163857094943523e-03,1.5540125779807568e-02,-2.7072578668594360e-03,2.3743097305297852e+01,-2.0465044304728508e-02,-9.3027101829648018e-03],
"split_indices":[8,0,14,0,1,14,8,6,0,0,4,14,0,0,0,0,0,0,12,0,0,0,0,0,0],
"split_type":[0,0,0,0,0,0,0,0,0,0,0,0,0,0,0,0,0,0,0,0,0,0,0,0,0],
"sum_hessian":[0.0,0.0,0.0,0.0,0.0,0.0,0.0,0.0,0.0,0.0,0.0,0.0,0.0,0.0,0.0,0.0,0.0,0.0,0.0,0.0,0.0,0.0,0.0,0.0,0.0],
"tree_param":{"num_deleted":"0","num_feature":"15","num_nodes":"25","size_leaf_vector":"0"}
},
{
"base_weights":[0.0,0.0,0.0,0.0,0.0,0.0,0.0,0.0,0.0,0.0,0.0,0.0,0.0,0.0,0.0,0.0,0.0,0.0,0.0,0.0,0.0,0.0,0.0],
"categories":[],"categories_nodes":[],"categories_segments":[],"categories_sizes":[],
"default_left":[true,true,false,true,true,true,false,true,true,true,true,false,true,false,false,false,false,false,true,false,false,false,false],
"id":44,
"left_children":[1,3,-1,5,7,9,-1,11,13,15,17,-1,19,-1,-1,-1,-1,-1,21,-1,-1,-1,-1],
"loss_changes":[0.0,0.0,0.0,0.0,0.0,0.0,0.0,0.0,0.0,0.0,0.0,0.0,0.0,0.0,0.0,0.0,0.0,0.0,0.0,0.0,0.0,0.0,0.0],
"parents":[2147483647,0,0,1,1,3,3,4,4,5,5,7,7,8,8,9,9,10,10,12,12,18,18],
"right_children":[2,4,-1,6,8,10,-1,12,14,16,18,-1,20,-1,-1,-1,-1,-1,22,-1,-1,-1,-1],
"split_conditions":[2.1159711480140686e-01,8.2899034023284912e-03,-3.3940698951482773e-02,6.8730115890502930e+00,1.0134072043001652e-02,7.1046296507120132e-03,-2.2144872695207596e-02,1.4932291030883789e+01,4.7582432627677917e-02,2.3982242584228516e+01,9.7392892837524414e+00,-9.9086742848157883e-03,1.5652153491973877e+00,-3.2318100333213806e-02,-1.8585912883281708e-02,1.3751241378486156e-02,2.1278575062751770e-02,-5.9518567286431789e-03,4.1566123962402344e+01,6.4958021976053715e-03,-4.9735740758478642e-03,2.9799973126500845e-03,1.1312302201986313e-02],
"split_indices":[7,3,0,8,2,4,0,14,4,14,14,0,8,0,0,0,0,0,14,0,0,0,0],
"split_type":[0,0,0,0,0,0,0,0,0,0,0,0,0,0,0,0,0,0,0,0,0,0,0],
"sum_hessian":[0.0,0.0,0.0,0.0,0.0,0.0,0.0,0.0,0.0,0.0,0.0,0.0,0.0,0.0,0.0,0.0,0.0,0.0,0.0,0.0,0.0,0.0,0.0],
"tree_param":{"num_deleted":"0","num_feature":"15","num_nodes":"23","size_leaf_vector":"0"}
},
{
"base_weights":[0.0,0.0,0.0,0.0,0.0,0.0,0.0,0.0,0.0,0.0,0.0,0.0,0.0,0.0,0.0],
"categories":[],"categories_nodes":[],"categories_segments":[],"categories_sizes":[],
"default_left":[true,true,true,true,false,false,false,false,true,false,true,true,false,false,false],
"id":45,
"left_children":[1,3,5,7,-1,-1,-1,-1,9,-1,11,13,-1,-1,-1],
"loss_changes":[0.0,0.0,0.0,0.0,0.0,0.0,0.0,0.0,0.0,0.0,0.0,0.0,0.0,0.0,0.0],
"parents":[2147483647,0,0,1,1,2,2,3,3,8,8,10,10,11,11],
"right_children":[2,4,6,8,-1,-1,-1,-1,10,-1,12,14,-1,-1,-1],
"split_conditions":[8.0863866806030273e+00,3.8900830986676738e-05,1.2997965812683105e+01,-2.5452560294070281e-05,-1.5311099588871002e-02,-1.4037058688700199e-02,-3.0637742951512337e-02,-9.4418153166770935e-03,6.2817854881286621e+00,-5.6605297140777111e-03,4.5489860534667969e+01,4.1663875579833984e+00,1.4642856083810329e-02,5.7841152884066105e-03,-6.2884865328669548e-03],
"split_indices":[12,5,12,5,0,0,0,0,14,0,14,8,0,0,0],
"split_type":[0,0,0,0,0,0,0,0,0,0,0,0,0,0,0],
"sum_hessian":[0.0,0.0,0.0,0.0,0.0,0.0,0.0,0.0,0.0,0.0,0.0,0.0,0.0,0.0,0.0],
"tree_param":{"num_deleted":"0","num_feature":"15","num_nodes":"15","size_leaf_vector":"0"}
},
{
"base_weights":[0.0,0.0,0.0,0.0,0.0,0.0,0.0,0.0,0.0,0.0,0.0,0.0,0.0,0.0,0.0,0.0,0.0,0.0,0.0,0.0,0.0,0.0,0.0,0.0,0.0,0.0,0.0],
"categories":[],"categories_nodes":[],"categories_segments":[],"categories_sizes":[],
"default_left":[true,true,true,true,false,true,true,true,false,false,false,true,true,false,false,false,true,true,true,false,false,false,false,true,false,false,false],
"id":46,
"left_children":[1,3,5,7,-1,9,11,13,-1,-1,-1,15,17,-1,-1,-1,19,21,23,-1,-1,-1,-1,25,-1,-1,-1],
"loss_changes":[0.0,0.0,0.0,0.0,0.0,0.0,0.0,0.0,0.0,0.0,0.0,0.0,0.0,0.0,0.0,0.0,0.0,0.0,0.0,0.0,0.0,0.0,0.0,0.0,0.0,0.0,0.0],
"parents":[2147483647,0,0,1,1,2,2,3,3,5,5,6,6,7,7,11,11,12,12,16,16,17,17,18,18,23,23],
"right_children":[2,4,6,8,-1,10,12,14,-1,-1,-1,16,18,-1,-1,-1,20,22,24,-1,-1,-1,-1,26,-1,-1,-1],
"split_conditions":[7.6902345754206181e-03,2.3238049820065498e-02,6.8730115890502930e-01,2.7165130615234375e+01,2.1496352273970842e-03,2.8097398757934570e+01,2.2826768875122070e+01,9.0804594755172729e-01,1.8024293705821037e-02,6.4719826914370060e-03,-5.3688422776758671e-03,8.4530868530273438e+00,3.5175728797912598e+00,4.5022196136415005e-03,1.6853049397468567e-02,-3.4940894693136215e-02,7.3246345855295658e-03,3.7629913330078125e+01,4.2196632385253906e+01,-6.2684901058673859e-03,-2.0254107192158699e-02,9.3029969139024615e-04,8.5371965542435646e-03,1.9931989669799805e+01,1.4845271361991763e-03,-1.7479464411735535e-02,-6.7133936099708080e-03],
"split_indices":[4,7,8,14,0,0,14,6,0,0,0,14,12,0,0,0,3,14,14,0,0,0,0,0,0,0,0],
"split_type":[0,0,0,0,0,0,0,0,0,0,0,0,0,0,0,0,0,0,0,0,0,0,0,0,0,0,0],
"sum_hessian":[0.0,0.0,0.0,0.0,0.0,0.0,0.0,0.0,0.0,0.0,0.0,0.0,0.0,0.0,0.0,0.0,0.0,0.0,0.0,0.0,0.0,0.0,0.0,0.0,0.0,0.0,0.0],
"tree_param":{"num_deleted":"0","num_feature":"15","num_nodes":"27","size_leaf_vector":"0"}
},
{
"base_weights":[0.0,0.0,0.0,0.0,0.0,0.0,0.0,0.0,0.0,0.0,0.0,0.0,0.0,0.0,0.0,0.0,0.0,0.0,0.0,0.0,0.0,0.0,0.0,0.0,0.0,0.0,0.0],
"categories":[],"categories_nodes":[],"categories_segments":[],"categories_sizes":[],
"default_left":[true,true,true,true,true,false,false,true,true,false,true,false,false,true,true,false,true,true,true,false,false,false,false,false,false,false,false],
"id":47,
"left_children":[1,3,5,7,9,-1,-1,11,13,-1,15,-1,-1,17,19,-1,21,23,25,-1,-1,-1,-1,-1,-1,-1,-1],
"loss_changes":[0.0,0.0,0.0,0.0,0.0,0.0,0.0,0.0,0.0,0.0,0.0,0.0,0.0,0.0,0.0,0.0,0.0,0.0,0.0,0.0,0.0,0.0,0.0,0.0,0.0,0.0,0.0],
"parents":[2147483647,0,0,1,1,2,2,3,3,4,4,7,7,8,8,10,10,13,13,14,14,16,16,17,17,18,18],
"right_children":[2,4,6,8,10,-1,-1,12,14,-1,16,-1,-1,18,20,-1,22,24,26,-1,-1,-1,-1,-1,-1,-1,-1],
"split_conditions":[1.1335559189319611e-01,9.0479135513305664e-01,4.1175730526447296e-02,5.2753933705389500e-03,9.8511630296707153e-01,-2.3966178297996521e-02,-7.4474504217505455e-03,1.2012525796890259e+00,7.8264230489730835e-01,-4.9252673052251339e-03,8.8950535282492638e-03,9.2421844601631165e-03,2.8184512630105019e-03,-7.5045675039291382e-01,1.2415318489074707e+00,1.0049429722130299e-02,2.3701436996459961e+01,3.4211635589599609e+00,8.4476694464683533e-03,6.9541539996862411e-03,-4.1371490806341171e-03,1.5965744853019714e-02,2.3103600367903709e-02,5.9010675176978111e-03,-5.6584700942039490e-03,-6.1840558191761374e-04,-1.7051095142960548e-02],
"split_indices":[7,6,4,3,1,0,0,8,13,0,2,0,0,13,8,0,14,12,4,0,0,0,0,0,0,0,0],
"split_type":[0,0,0,0,0,0,0,0,0,0,0,0,0,0,0,0,0,0,0,0,0,0,0,0,0,0,0],
"sum_hessian":[0.0,0.0,0.0,0.0,0.0,0.0,0.0,0.0,0.0,0.0,0.0,0.0,0.0,0.0,0.0,0.0,0.0,0.0,0.0,0.0,0.0,0.0,0.0,0.0,0.0,0.0,0.0],
"tree_param":{"num_deleted":"0","num_feature":"15","num_nodes":"27","size_leaf_vector":"0"}
},
{
"base_weights":[0.0,0.0,0.0,0.0,0.0,0.0,0.0,0.0,0.0,0.0,0.0,0.0,0.0,0.0,0.0,0.0,0.0,0.0,0.0,0.0,0.0,0.0,0.0,0.0,0.0],
"categories":[],"categories_nodes":[],"categories_segments":[],"categories_sizes":[],
"default_left":[true,true,false,true,true,true,false,true,true,true,false,true,true,false,false,false,true,false,false,false,true,false,false,false,false],
"id":48,
"left_children":[1,3,-1,5,7,9,-1,11,13,15,-1,17,19,-1,-1,-1,21,-1,-1,-1,23,-1,-1,-1,-1],
"loss_changes":[0.0,0.0,0.0,0.0,0.0,0.0,0.0,0.0,0.0,0.0,0.0,0.0,0.0,0.0,0.0,0.0,0.0,0.0,0.0,0.0,0.0,0.0,0.0,0.0,0.0],
"parents":[2147483647,0,0,1,1,3,3,4,4,5,5,7,7,8,8,9,9,11,11,12,12,16,16,20,20],
"right_children":[2,4,-1,6,8,10,-1,12,14,16,-1,18,20,-1,-1,-1,22,-1,-1,-1,24,-1,-1,-1,-1],
"split_conditions":[2.1159711480140686e-01,6.7826481536030769e-03,-2.9824147000908852e-02,5.6606233119964600e-02,1.9939116100431420e-05,4.1663875579833984e+00,-3.8943998515605927e-03,-1.8882079530158080e-05,4.6315681189298630e-02,7.3264026641845703e+00,-3.9029389154165983e-03,4.8221234232187271e-02,7.7776372432708740e-01,-2.9620049521327019e-02,-4.5558027923107147e-03,1.2686075642704964e-03,3.6752121448516846e+00,-2.4029655382037163e-02,-5.4296166636049747e-03,-2.1995650604367256e-03,3.2347652435302734e+01,9.3453628942370415e-03,1.2725999578833580e-02,5.3354622796177864e-03,1.4297740533947945e-02],
"split_indices":[7,3,0,4,5,8,0,5,4,14,0,4,1,0,0,0,12,0,0,0,14,0,0,0,0],
"split_type":[0,0,0,0,0,0,0,0,0,0,0,0,0,0,0,0,0,0,0,0,0,0,0,0,0],
"sum_hessian":[0.0,0.0,0.0,0.0,0.0,0.0,0.0,0.0,0.0,0.0,0.0,0.0,0.0,0.0,0.0,0.0,0.0,0.0,0.0,0.0,0.0,0.0,0.0,0.0,0.0],
"tree_param":{"num_deleted":"0","num_feature":"15","num_nodes":"25","size_leaf_vector":"0"}
},
{
"base_weights":[0.0,0.0,0.0,0.0,0.0,0.0,0.0,0.0,0.0,0.0,0.0,0.0,0.0,0.0,0.0,0.0,0.0,0.0,0.0,0.0,0.0],
"categories":[],"categories_nodes":[],"categories_segments":[],"categories_sizes":[],
"default_left":[true,true,true,true,false,true,true,false,false,false,false,true,true,true,false,false,false,true,false,false,false],
"id":49,
"left_children":[1,3,5,7,-1,9,11,-1,-1,-1,-1,13,15,17,-1,-1,-1,19,-1,-1,-1],
"loss_changes":[0.0,0.0,0.0,0.0,0.0,0.0,0.0,0.0,0.0,0.0,0.0,0.0,0.0,0.0,0.0,0.0,0.0,0.0,0.0,0.0,0.0],
"parents":[2147483647,0,0,1,1,2,2,3,3,5,5,6,6,11,11,12,12,13,13,17,17],
"right_children":[2,4,6,8,-1,10,12,-1,-1,-1,-1,14,16,18,-1,-1,-1,20,-1,-1,-1],
"split_conditions":[1.8660892248153687e+00,1.9307416677474976e+00,1.4111898422241211e+01,2.8236032485961914e+01,-6.5626273863017559e-03,6.6574683189392090e+00,8.6396865844726562e+00,1.0763981379568577e-02,-1.4251051470637321e-03,-3.2147672027349472e-02,-1.3010345399379730e-02,4.5124610900878906e+01,1.3243450164794922e+01,2.1133919290150516e-05,1.1760360561311245e-02,-1.0786638595163822e-02,-2.7777211740612984e-02,-2.1407311578514054e-05,-1.0135685093700886e-02,-8.9549245312809944e-03,4.5437882654368877e-03],
"split_indices":[12,10,14,0,0,14,12,0,0,0,0,14,12,5,0,0,0,5,0,0,0],
"split_type":[0,0,0,0,0,0,0,0,0,0,0,0,0,0,0,0,0,0,0,0,0],
"sum_hessian":[0.0,0.0,0.0,0.0,0.0,0.0,0.0,0.0,0.0,0.0,0.0,0.0,0.0,0.0,0.0,0.0,0.0,0.0,0.0,0.0,0.0],
"tree_param":{"num_deleted":"0","num_feature":"15","num_nodes":"21","size_leaf_vector":"0"}
},
{
"base_weights":[0.0,0.0,0.0,0.0,0.0,0.0,0.0,0.0,0.0,0.0,0.0,0.0,0.0,0.0,0.0,0.0,0.0,0.0,0.0,0.0,0.0,0.0,0.0,0.0,0.0],
"categories":[],"categories_nodes":[],"categories_segments":[],"categories_sizes":[],
"default_left":[true,false,true,true,true,false,true,true,true,true,false,true,true,false,false,false,true,false,false,false,true,false,false,false,false],
"id":50,
"left_children":[1,-1,3,5,7,-1,9,11,13,15,-1,17,19,-1,-1,-1,21,-1,-1,-1,23,-1,-1,-1,-1],
"loss_changes":[0.0,0.0,0.0,0.0,0.0,0.0,0.0,0.0,0.0,0.0,0.0,0.0,0.0,0.0,0.0,0.0,0.0,0.0,0.0,0.0,0.0,0.0,0.0,0.0,0.0],
"parents":[2147483647,0,0,2,2,3,3,4,4,6,6,7,7,8,8,9,9,11,11,12,12,16,16,20,20],
"right_children":[2,-1,4,6,8,-1,10,12,14,16,-1,18,20,-1,-1,-1,22,-1,-1,-1,24,-1,-1,-1,-1],
"split_conditions":[4.8713079094886780e-01,-1.2558443471789360e-02,1.3746023178100586e+00,1.8205240249633789e+01,3.9327514648437500e+01,1.0408930480480194e-02,9.3926453590393066e-01,1.6666519165039062e+01,4.4964723587036133e+00,8.3534282445907593e-01,7.6691480353474617e-03,4.6016812324523926e+00,3.7121956348419189e+00,1.3388102874159813e-02,-2.2778543643653393e-03,-8.4167709574103355e-03,8.9455270767211914e-01,-2.2603694349527359e-02,-1.9467156380414963e-02,1.8301551463082433e-03,1.9957635879516602e+01,-3.4274836070835590e-03,9.1391578316688538e-03,-2.0006947219371796e-02,-7.7176787890493870e-03],
"split_indices":[1,0,8,0,14,0,13,14,12,1,0,8,12,0,0,0,6,0,0,0,0,0,0,0,0],
"split_type":[0,0,0,0,0,0,0,0,0,0,0,0,0,0,0,0,0,0,0,0,0,0,0,0,0],
"sum_hessian":[0.0,0.0,0.0,0.0,0.0,0.0,0.0,0.0,0.0,0.0,0.0,0.0,0.0,0.0,0.0,0.0,0.0,0.0,0.0,0.0,0.0,0.0,0.0,0.0,0.0],
"tree_param":{"num_deleted":"0","num_feature":"15","num_nodes":"25","size_leaf_vector":"0"}
},
{
"base_weights":[0.0,0.0,0.0,0.0,0.0,0.0,0.0,0.0,0.0,0.0,0.0,0.0,0.0,0.0,0.0,0.0,0.0,0.0,0.0,0.0,0.0],
"categories":[],"categories_nodes":[],"categories_segments":[],"categories_sizes":[],
"default_left":[true,true,false,true,true,false,true,false,false,true,true,true,true,true,false,false,false,false,false,false,false],
"id":51,
"left_children":[1,3,-1,5,7,-1,9,-1,-1,11,13,15,17,19,-1,-1,-1,-1,-1,-1,-1],
"loss_changes":[0.0,0.0,0.0,0.0,0.0,0.0,0.0,0.0,0.0,0.0,0.0,0.0,0.0,0.0,0.0,0.0,0.0,0.0,0.0,0.0,0.0],
"parents":[2147483647,0,0,1,1,3,3,4,4,6,6,9,9,10,10,11,11,12,12,13,13],
"right_children":[2,4,-1,6,8,-1,10,-1,-1,12,14,16,18,20,-1,-1,-1,-1,-1,-1,-1],
"split_conditions":[2.1159711480140686e-01,6.4148106575012207e+00,-2.7365762740373611e-02,5.3774434328079224e-01,1.0029137611389160e+01,-7.7843624167144299e-03,2.9042385101318359e+01,-1.2610450387001038e-02,-3.7430889904499054e-02,1.8660892248153687e+00,4.6627079010009766e+01,1.3606431484222412e+00,9.7823877334594727e+00,5.6298518180847168e-01,1.4549675397574902e-02,8.4670744836330414e-03,-1.6593341715633869e-03,-2.1591570228338242e-02,-2.2845310159027576e-03,4.4898176565766335e-03,1.0284032672643661e-02],
"split_indices":[7,8,0,1,8,0,14,0,0,12,14,10,14,13,0,0,0,0,0,0,0],
"split_type":[0,0,0,0,0,0,0,0,0,0,0,0,0,0,0,0,0,0,0,0,0],
"sum_hessian":[0.0,0.0,0.0,0.0,0.0,0.0,0.0,0.0,0.0,0.0,0.0,0.0,0.0,0.0,0.0,0.0,0.0,0.0,0.0,0.0,0.0],
"tree_param":{"num_deleted":"0","num_feature":"15","num_nodes":"21","size_leaf_vector":"0"}
},
{
"base_weights":[0.0,0.0,0.0,0.0,0.0,0.0,0.0,0.0,0.0,0.0,0.0,0.0,0.0,0.0,0.0,0.0,0.0,0.0,0.0,0.0,0.0,0.0,0.0],
"categories":[],"categories_nodes":[],"categories_segments":[],"categories_sizes":[],
"default_left":[true,true,true,false,false,true,true,false,true,true,true,false,false,false,false,true,true,false,true,false,false,false,false],
"id":52,
"left_children":[1,3,5,-1,-1,7,9,-1,11,13,15,-1,-1,-1,-1,17,19,-1,21,-1,-1,-1,-1],
"loss_changes":[0.0,0.0,0.0,0.0,0.0,0.0,0.0,0.0,0.0,0.0,0.0,0.0,0.0,0.0,0.0,0.0,0.0,0.0,0.0,0.0,0.0,0.0,0.0],
"parents":[2147483647,0,0,1,1,2,2,5,5,6,6,8,8,9,9,10,10,15,15,16,16,18,18],
"right_children":[2,4,6,-1,-1,8,10,-1,12,14,16,-1,-1,-1,-1,18,20,-1,22,-1,-1,-1,-1],
"split_conditions":[6.6871605813503265e-03,2.5801586151123047e+01,4.5820078253746033e-01,7.7715683728456497e-03,1.2856970541179180e-02,2.4001989364624023e+01,1.7164314270019531e+01,7.5487196445465088e-03,3.4550938755273819e-02,3.9077157974243164e+00,4.1201438903808594e+00,8.7225167080760002e-03,-1.1089948005974293e-02,-1.5771150588989258e-02,-2.1530877798795700e-02,1.4708271250128746e-02,9.4175124168395996e-01,-4.8190122470259666e-03,9.4091463088989258e-01,-2.3713229224085808e-02,-3.8649823982268572e-03,6.4676150213927031e-04,1.2601073831319809e-02],
"split_indices":[4,14,8,0,0,0,14,0,4,8,8,0,0,0,0,4,1,0,1,0,0,0,0],
"split_type":[0,0,0,0,0,0,0,0,0,0,0,0,0,0,0,0,0,0,0,0,0,0,0],
"sum_hessian":[0.0,0.0,0.0,0.0,0.0,0.0,0.0,0.0,0.0,0.0,0.0,0.0,0.0,0.0,0.0,0.0,0.0,0.0,0.0,0.0,0.0,0.0,0.0],
"tree_param":{"num_deleted":"0","num_feature":"15","num_nodes":"23","size_leaf_vector":"0"}
},
{
"base_weights":[0.0,0.0,0.0,0.0,0.0,0.0,0.0,0.0,0.0,0.0,0.0,0.0,0.0,0.0,0.0,0.0,0.0,0.0,0.0,0.0,0.0],
"categories":[],"categories_nodes":[],"categories_segments":[],"categories_sizes":[],
"default_left":[true,true,true,true,false,true,true,true,false,true,false,false,false,true,false,false,false,false,true,false,false],
"id":53,
"left_children":[1,3,5,7,-1,9,11,13,-1,15,-1,-1,-1,17,-1,-1,-1,-1,19,-1,-1],
"loss_changes":[0.0,0.0,0.0,0.0,0.0,0.0,0.0,0.0,0.0,0.0,0.0,0.0,0.0,0.0,0.0,0.0,0.0,0.0,0.0,0.0,0.0],
"parents":[2147483647,0,0,1,1,2,2,3,3,5,5,6,6,7,7,9,9,13,13,18,18],
"right_children":[2,4,6,8,-1,10,12,14,-1,16,-1,-1,-1,18,-1,-1,-1,-1,20,-1,-1],
"split_conditions":[8.2899034023284912e-03,1.0632465779781342e-01,5.0154138356447220e-02,6.6905200481414795e-02,-1.1534617282450199e-02,1.0066110007755924e-05,4.7274389266967773e+00,5.6558670997619629e+00,-5.5422950536012650e-03,-1.1379811439837795e-05,-2.9345609247684479e-02,3.7022267933934927e-03,-1.3431328348815441e-02,6.2735061645507812e+00,-9.1527886688709259e-03,-2.4996122345328331e-02,6.5055023878812790e-03,-1.2340534012764692e-03,9.6583515405654907e-03,6.6105397418141365e-03,1.2933628633618355e-02],
"split_indices":[3,7,4,4,0,5,12,8,0,5,0,0,0,14,0,0,0,0,2,0,0],
"split_type":[0,0,0,0,0,0,0,0,0,0,0,0,0,0,0,0,0,0,0,0,0],
"sum_hessian":[0.0,0.0,0.0,0.0,0.0,0.0,0.0,0.0,0.0,0.0,0.0,0.0,0.0,0.0,0.0,0.0,0.0,0.0,0.0,0.0,0.0],
"tree_param":{"num_deleted":"0","num_feature":"15","num_nodes":"21","size_leaf_vector":"0"}
},
{
"base_weights":[0.0,0.0,0.0,0.0,0.0,0.0,0.0,0.0,0.0,0.0,0.0,0.0,0.0,0.0,0.0,0.0,0.0,0.0,0.0,0.0,0.0,0.0,0.0,0.0,0.0,0.0,0.0],
"categories":[],"categories_nodes":[],"categories_segments":[],"categories_sizes":[],
"default_left":[true,true,true,true,false,true,true,true,false,true,true,false,false,false,true,false,false,true,false,true,false,false,true,false,false,false,false],
"id":54,
"left_children":[1,3,5,7,-1,9,11,13,-1,15,17,-1,-1,-1,19,-1,-1,21,-1,23,-1,-1,25,-1,-1,-1,-1],
"loss_changes":[0.0,0.0,0.0,0.0,0.0,0.0,0.0,0.0,0.0,0.0,0.0,0.0,0.0,0.0,0.0,0.0,0.0,0.0,0.0,0.0,0.0,0.0,0.0,0.0,0.0,0.0,0.0],
"parents":[2147483647,0,0,1,1,2,2,3,3,5,5,6,6,7,7,9,9,10,10,14,14,17,17,19,19,22,22],
"right_children":[2,4,6,8,-1,10,12,14,-1,16,18,-1,-1,-1,20,-1,-1,22,-1,24,-1,-1,26,-1,-1,-1,-1],
"split_conditions":[6.2802294269204140e-03,5.3116060793399811e-02,2.2851245375932194e-05,4.5408960431814194e-02,-2.7092543896287680e-03,-1.9806107957265340e-05,3.8179233670234680e-02,8.7123280763626099e-01,-3.6210117395967245e-03,4.5985534787178040e-02,9.6758902072906494e-03,-2.7691613882780075e-02,-5.6647784076631069e-03,9.3807922676205635e-03,8.6799552664160728e-03,-2.1341750398278236e-02,-4.3614087626338005e-03,8.7184542790055275e-03,-1.0140733793377876e-02,2.3486059188842773e+01,8.4874208550900221e-04,-2.3295916616916656e-03,8.7227696180343628e-01,1.0548394173383713e-02,1.5060557052493095e-02,1.2249710038304329e-02,6.6172825172543526e-03],
"split_indices":[3,4,5,7,0,5,4,1,0,4,2,0,0,0,4,0,0,2,0,14,0,0,6,0,0,0,0],
"split_type":[0,0,0,0,0,0,0,0,0,0,0,0,0,0,0,0,0,0,0,0,0,0,0,0,0,0,0],
"sum_hessian":[0.0,0.0,0.0,0.0,0.0,0.0,0.0,0.0,0.0,0.0,0.0,0.0,0.0,0.0,0.0,0.0,0.0,0.0,0.0,0.0,0.0,0.0,0.0,0.0,0.0,0.0,0.0],
"tree_param":{"num_deleted":"0","num_feature":"15","num_nodes":"27","size_leaf_vector":"0"}
},
{
"base_weights":[0.0,0.0,0.0,0.0,0.0,0.0,0.0,0.0,0.0,0.0,0.0,0.0,0.0,0.0,0.0,0.0,0.0,0.0,0.0,0.0,0.0],
"categories":[],"categories_nodes":[],"categories_segments":[],"categories_sizes":[],
"default_left":[true,true,true,true,false,false,true,true,false,false,false,true,true,true,false,false,true,false,false,false,false],
"id":55,
"left_children":[1,3,5,7,-1,-1,9,11,-1,-1,-1,13,15,17,-1,-1,19,-1,-1,-1,-1],
"loss_changes":[0.0,0.0,0.0,0.0,0.0,0.0,0.0,0.0,0.0,0.0,0.0,0.0,0.0,0.0,0.0,0.0,0.0,0.0,0.0,0.0,0.0],
"parents":[2147483647,0,0,1,1,2,2,3,3,6,6,7,7,11,11,12,12,13,13,16,16],
"right_children":[2,4,6,8,-1,-1,10,12,-1,-1,-1,14,16,18,-1,-1,20,-1,-1,-1,-1],
"split_conditions":[5.0289340019226074e+00,3.1793484687805176e+00,3.8949332237243652e+00,4.7069152832031250e+01,-1.3570681214332581e-02,-1.8962193280458450e-02,9.7322631627321243e-03,1.8660892248153687e+00,1.1934153735637665e-02,3.0652990099042654e-03,-2.9598429799079895e-02,3.3642738342285156e+01,1.3925494194030762e+01,1.4395205304026604e-02,-4.3188813142478466e-03,-1.3952628709375858e-02,8.0386940389871597e-03,4.5051937922835350e-03,9.0091954916715622e-03,2.9445446562021971e-03,-3.8461575750261545e-03],
"split_indices":[10,11,11,14,0,0,2,12,0,0,0,0,14,4,0,0,3,0,0,0,0],
"split_type":[0,0,0,0,0,0,0,0,0,0,0,0,0,0,0,0,0,0,0,0,0],
"sum_hessian":[0.0,0.0,0.0,0.0,0.0,0.0,0.0,0.0,0.0,0.0,0.0,0.0,0.0,0.0,0.0,0.0,0.0,0.0,0.0,0.0,0.0],
"tree_param":{"num_deleted":"0","num_feature":"15","num_nodes":"21","size_leaf_vector":"0"}
},
{
"base_weights":[0.0,0.0,0.0,0.0,0.0,0.0,0.0,0.0,0.0,0.0,0.0,0.0,0.0,0.0,0.0],
"categories":[],"categories_nodes":[],"categories_segments":[],"categories_sizes":[],
"default_left":[true,true,false,false,true,false,true,true,true,false,true,false,false,false,false],
"id":56,
"left_children":[1,3,-1,-1,5,-1,7,9,11,-1,13,-1,-1,-1,-1],
"loss_changes":[0.0,0.0,0.0,0.0,0.0,0.0,0.0,0.0,0.0,0.0,0.0,0.0,0.0,0.0,0.0],
"parents":[2147483647,0,0,1,1,4,4,6,6,7,7,8,8,10,10],
"right_children":[2,4,-1,-1,6,-1,8,10,12,-1,14,-1,-1,-1,-1],
"split_conditions":[2.1443100273609161e-01,5.0097048282623291e-01,-2.4349268525838852e-02,-8.8493740186095238e-03,-3.8331887481035665e-05,-1.3455753214657307e-02,2.4263092200271785e-05,7.0338249206542969e-01,1.0545427910983562e-02,1.4456990174949169e-02,7.8768265247344971e-01,-1.0559804737567902e-02,-1.1111011262983084e-03,-4.7264061868190765e-03,5.4326769895851612e-03],
"split_indices":[7,1,0,0,5,0,5,6,2,0,1,0,0,0,0],
"split_type":[0,0,0,0,0,0,0,0,0,0,0,0,0,0,0],
"sum_hessian":[0.0,0.0,0.0,0.0,0.0,0.0,0.0,0.0,0.0,0.0,0.0,0.0,0.0,0.0,0.0],
