{"learner":{"attributes":{},"feature_names":[],"feature_types":[],"gradient_booster":{"model":{"gbtree_model_param":{"num_trees":"2000","size_leaf_vector":"0"},
"tree_info":[0,0,0,0,0,0,0,0,0,0,0,0,0,0,0,0,0,0,0,0,0,0,0,0,0,0,0,0,0,0,0,0,0,0,0,0,0,0,0,0,0,0,0,0,0,0,0,0,0,0,0,0,0,0,0,0,0,0,0,0,0,0,0,0,0,0,0,0,0,0,0,0,0,0,0,0,0,0,0,0,0,0,0,0,0,0,0,0,0,0,0,0,0,0,0,0,0,0,0,0,0,0,0,0,0,0,0,0,0,0,0,0,0,0,0,0,0,0,0,0,0,0,0,0,0,0,0,0,0,0,0,0,0,0,0,0,0,0,0,0,0,0,0,0,0,0,0,0,0,0,0,0,0,0,0,0,0,0,0,0,0,0,0,0,0,0,0,0,0,0,0,0,0,0,0,0,0,0,0,0,0,0,0,0,0,0,0,0,0,0,0,0,0,0,0,0,0,0,0,0,0,0,0,0,0,0,0,0,0,0,0,0,0,0,0,0,0,0,0,0,0,0,0,0,0,0,0,0,0,0,0,0,0,0,0,0,0,0,0,0,0,0,0,0,0,0,0,0,0,0,0,0,0,0,0,0,0,0,0,0,0,0,0,0,0,0,0,0,0,0,0,0,0,0,0,0,0,0,0,0,0,0,0,0,0,0,0,0,0,0,0,0,0,0,0,0,0,0,0,0,0,0,0,0,0,0,0,0,0,0,0,0,0,0,0,0,0,0,0,0,0,0,0,0,0,0,0,0,0,0,0,0,0,0,0,0,0,0,0,0,0,0,0,0,0,0,0,0,0,0,0,0,0,0,0,0,0,0,0,0,0,0,0,0,0,0,0,0,0,0,0,0,0,0,0,0,0,0,0,0,0,0,0,0,0,0,0,0,0,0,0,0,0,0,0,0,0,0,0,0,0,0,0,0,0,0,0,0,0,0,0,0,0,0,0,0,0,0,0,0,0,0,0,0,0,0,0,0,0,0,0,0,0,0,0,0,0,0,0,0,0,0,0,0,0,0,0,0,0,0,0,0,0,0,0,0,0,0,0,0,0,0,0,0,0,0,0,0,0,0,0,0,0,0,0,0,0,0,0,0,0,0,0,0,0,0,0,0,0,0,0,0,0,0,0,0,0,0,0,0,0,0,0,0,0,0,0,0,0,0,0,0,0,0,0,0,0,0,0,0,0,0,0,0,0,0,0,0,0,0,0,0,0,0,0,0,0,0,0,0,0,0,0,0,0,0,0,0,0,0,0,0,0,0,0,0,0,0,0,0,0,0,0,0,0,0,0,0,0,0,0,0,0,0,0,0,0,0,0,0,0,0,0,0,0,0,0,0,0,0,0,0,0,0,0,0,0,0,0,0,0,0,0,0,0,0,0,0,0,0,0,0,0,0,0,0,0,0,0,0,0,0,0,0,0,0,0,0,0,0,0,0,0,0,0,0,0,0,0,0,0,0,0,0,0,0,0,0,0,0,0,0,0,0,0,0,0,0,0,0,0,0,0,0,0,0,0,0,0,0,0,0,0,0,0,0,0,0,0,0,0,0,0,0,0,0,0,0,0,0,0,0,0,0,0,0,0,0,0,0,0,0,0,0,0,0,0,0,0,0,0,0,0,0,0,0,0,0,0,0,0,0,0,0,0,0,0,0,0,0,0,0,0,0,0,0,0,0,0,0,0,0,0,0,0,0,0,0,0,0,0,0,0,0,0,0,0,0,0,0,0,0,0,0,0,0,0,0,0,0,0,0,0,0,0,0,0,0,0,0,0,0,0,0,0,0,0,0,0,0,0,0,0,0,0,0,0,0,0,0,0,0,0,0,0,0,0,0,0,0,0,0,0,0,0,0,0,0,0,0,0,0,0,0,0,0,0,0,0,0,0,0,0,0,0,0,0,0,0,0,0,0,0,0,0,0,0,0,0,0,0,0,0,0,0,0,0,0,0,0,0,0,0,0,0,0,0,0,0,0,0,0,0,0,0,0,0,0,0,0,0,0,0,0,0,0,0,0,0,0,0,0,0,0,0,0,0,0,0,0,0,0,0,0,0,0,0,0,0,0,0,0,0,0,0,0,0,0,0,0,0,0,0,0,0,0,0,0,0,0,0,0,0,0,0,0,0,0,0,0,0,0,0,0,0,0,0,0,0,0,0,0,0,0,0,0,0,0,0,0,0,0,0,0,0,0,0,0,0,0,0,0,0,0,0,0,0,0,0,0,0,0,0,0,0,0,0,0,0,0,0,0,0,0,0,0,0,0,0,0,0,0,0,0,0,0,0,0,0,0,0,0,0,0,0,0,0,0,0,0,0,0,0,0,0,0,0,0,0,0,0,0,0,0,0,0,0,0,0,0,0,0,0,0,0,0,0,0,0,0,0,0,0,0,0,0,0,0,0,0,0,0,0,0,0,0,0,0,0,0,0,0,0,0,0,0,0,0,0,0,0,0,0,0,0,0,0,0,0,0,0,0,0,0,0,0,0,0,0,0,0,0,0,0,0,0,0,0,0,0,0,0,0,0,0,0,0,0,0,0,0,0,0,0,0,0,0,0,0,0,0,0,0,0,0,0,0,0,0,0,0,0,0,0,0,0,0,0,0,0,0,0,0,0,0,0,0,0,0,0,0,0,0,0,0,0,0,0,0,0,0,0,0,0,0,0,0,0,0,0,0,0,0,0,0,0,0,0,0,0,0,0,0,0,0,0,0,0,0,0,0,0,0,0,0,0,0,0,0,0,0,0,0,0,0,0,0,0,0,0,0,0,0,0,0,0,0,0,0,0,0,0,0,0,0,0,0,0,0,0,0,0,0,0,0,0,0,0,0,0,0,0,0,0,0,0,0,0,0,0,0,0,0,0,0,0,0,0,0,0,0,0,0,0,0,0,0,0,0,0,0,0,0,0,0,0,0,0,0,0,0,0,0,0,0,0,0,0,0,0,0,0,0,0,0,0,0,0,0,0,0,0,0,0,0,0,0,0,0,0,0,0,0,0,0,0,0,0,0,0,0,0,0,0,0,0,0,0,0,0,0,0,0,0,0,0,0,0,0,0,0,0,0,0,0,0,0,0,0,0,0,0,0,0,0,0,0,0,0,0,0,0,0,0,0,0,0,0,0,0,0,0,0,0,0,0,0,0,0,0,0,0,0,0,0,0,0,0,0,0,0,0,0,0,0,0,0,0,0,0,0,0,0,0,0,0,0,0,0,0,0,0,0,0,0,0,0,0,0,0,0,0,0,0,0,0,0,0,0,0,0,0,0,0,0,0,0,0,0,0,0,0,0,0,0,0,0,0,0,0,0,0,0,0,0,0,0,0,0,0,0,0,0,0,0,0,0,0,0,0,0,0,0,0,0,0,0,0,0,0,0,0,0,0,0,0,0,0,0,0,0,0,0,0,0,0,0,0,0,0,0,0,0,0,0,0,0,0,0,0,0,0,0,0,0,0,0,0,0,0,0,0,0,0,0,0,0,0,0,0,0,0,0,0,0,0,0,0,0,0,0,0,0,0,0,0,0,0,0,0,0,0,0,0,0,0,0,0,0,0,0,0,0,0,0,0,0,0,0,0,0,0,0,0,0,0,0,0,0,0,0,0,0,0,0,0,0,0,0,0,0,0,0,0,0,0,0,0,0,0,0,0,0,0,0,0,0,0,0,0,0,0,0,0,0,0,0,0,0,0,0,0,0,0,0,0,0,0,0,0,0,0,0,0,0,0,0,0,0,0,0,0,0,0,0,0,0,0,0,0,0,0,0,0,0,0,0,0,0,0,0,0,0,0,0,0,0,0,0,0,0,0,0,0,0,0,0,0,0,0,0,0,0,0,0,0,0,0,0,0,0,0,0,0,0,0,0,0,0,0,0,0,0,0,0,0,0,0,0,0,0,0,0,0,0,0,0,0,0,0,0,0,0,0,0,0,0,0,0,0,0,0,0,0,0,0,0,0,0,0,0,0,0,0,0,0,0,0,0,0,0,0,0,0,0,0,0,0,0,0,0,0,0,0,0,0,0,0,0,0,0,0,0,0,0,0,0,0,0,0,0,0,0,0,0,0,0,0,0,0,0,0,0,0,0,0,0,0,0,0,0,0,0,0,0,0,0,0,0,0,0,0,0,0,0,0,0,0,0,0,0,0,0,0,0,0,0,0,0,0,0,0,0,0,0,0,0,0,0,0,0,0,0,0,0,0,0,0,0,0,0,0,0,0,0,0,0,0,0,0,0,0,0,0,0,0,0,0,0,0,0,0,0,0,0,0,0,0,0,0,0,0,0,0,0,0,0,0,0,0,0,0,0,0,0,0,0,0,0,0,0,0,0,0,0,0,0,0,0,0,0,0,0,0,0,0,0,0,0,0,0,0,0,0,0,0,0,0,0,0,0,0,0,0,0,0,0,0,0,0,0,0,0,0,0,0,0,0,0,0,0,0,0,0,0,0,0,0,0,0,0,0,0,0,0,0,0,0,0,0,0,0,0,0,0,0,0,0,0,0,0,0,0,0,0,0,0,0,0,0],
"trees":
[
{
"base_weights":[0.0,0.0,0.0,0.0,0.0,0.0,0.0,0.0,0.0,0.0,0.0,0.0,0.0,0.0,0.0,0.0,0.0,0.0,0.0,0.0,0.0,0.0,0.0,0.0,0.0,0.0,0.0],
"categories":[],"categories_nodes":[],"categories_segments":[],"categories_sizes":[],
"default_left":[true,true,true,true,true,true,false,true,false,true,false,false,true,true,false,true,false,false,true,false,false,false,true,false,false,false,false],
"id":0,
"left_children":[1,3,5,7,9,11,-1,13,-1,15,-1,-1,17,19,-1,21,-1,-1,23,-1,-1,-1,25,-1,-1,-1,-1],
"loss_changes":[0.0,0.0,0.0,0.0,0.0,0.0,0.0,0.0,0.0,0.0,0.0,0.0,0.0,0.0,0.0,0.0,0.0,0.0,0.0,0.0,0.0,0.0,0.0,0.0,0.0,0.0,0.0],
"parents":[2147483647,0,0,1,1,2,2,3,3,4,4,5,5,7,7,9,9,12,12,13,13,15,15,18,18,22,22],
"right_children":[2,4,6,8,10,12,-1,14,-1,16,-1,-1,18,20,-1,22,-1,-1,24,-1,-1,-1,26,-1,-1,-1,-1],
"split_conditions":[3.8892431259155273e+00,8.3025318384170532e-01,8.2894080877304077e-01,1.3634350299835205e+00,2.4485036730766296e-02,6.0541510581970215e+00,-3.4681923687458038e-02,1.6532674431800842e-02,-6.4071103930473328e-02,5.5848318338394165e-01,3.1713742762804031e-02,-6.5940342843532562e-02,1.4558545313775539e-02,3.4827273339033127e-02,-3.3391434699296951e-02,8.8666617870330811e-01,4.5234292745590210e-02,-8.1288300454616547e-02,3.7426540851593018e+00,3.3918671309947968e-02,4.8965555615723133e-03,6.1817422509193420e-02,4.1675731539726257e-02,-9.0922355651855469e-02,-9.7874641418457031e-02,8.5393376648426056e-02,7.3209546506404877e-02],
"split_indices":[13,6,6,8,4,13,0,3,0,8,0,0,3,4,0,6,0,0,12,0,0,0,7,0,0,0,0],
"split_type":[0,0,0,0,0,0,0,0,0,0,0,0,0,0,0,0,0,0,0,0,0,0,0,0,0,0,0],
"sum_hessian":[0.0,0.0,0.0,0.0,0.0,0.0,0.0,0.0,0.0,0.0,0.0,0.0,0.0,0.0,0.0,0.0,0.0,0.0,0.0,0.0,0.0,0.0,0.0,0.0,0.0,0.0,0.0],
"tree_param":{"num_deleted":"0","num_feature":"18","num_nodes":"27","size_leaf_vector":"0"}
},
{
"base_weights":[0.0,0.0,0.0,0.0,0.0,0.0,0.0,0.0,0.0,0.0,0.0,0.0,0.0,0.0,0.0,0.0,0.0,0.0,0.0,0.0,0.0,0.0,0.0],
"categories":[],"categories_nodes":[],"categories_segments":[],"categories_sizes":[],
"default_left":[true,true,true,true,true,true,false,true,false,true,false,false,true,false,false,false,true,false,false,true,false,false,false],
"id":1,
"left_children":[1,3,5,7,9,11,-1,13,-1,15,-1,-1,17,-1,-1,-1,19,-1,-1,21,-1,-1,-1],
"loss_changes":[0.0,0.0,0.0,0.0,0.0,0.0,0.0,0.0,0.0,0.0,0.0,0.0,0.0,0.0,0.0,0.0,0.0,0.0,0.0,0.0,0.0,0.0,0.0],
"parents":[2147483647,0,0,1,1,2,2,3,3,4,4,5,5,7,7,9,9,12,12,16,16,19,19],
"right_children":[2,4,6,8,10,12,-1,14,-1,16,-1,-1,18,-1,-1,-1,20,-1,-1,22,-1,-1,-1],
"split_conditions":[4.1670460700988770e+00,8.2010531425476074e-01,8.4725993871688843e-01,1.3634350299835205e+00,2.5549603626132011e-02,6.1794033050537109e+00,-3.2296516001224518e-02,1.4548754319548607e-02,-5.9864856302738190e-02,8.7728375196456909e-01,2.4369370192289352e-02,-6.0032282024621964e-02,2.5353462696075439e+00,1.8861373886466026e-02,-2.8913499787449837e-02,4.4180735945701599e-02,4.2617230415344238e+00,-7.4342973530292511e-02,-8.6967550218105316e-02,8.4494787734001875e-04,5.5101890116930008e-02,6.1618164181709290e-02,7.7427618205547333e-02],
"split_indices":[13,6,6,8,4,13,0,3,0,6,0,0,12,0,0,0,16,0,0,17,0,0,0],
"split_type":[0,0,0,0,0,0,0,0,0,0,0,0,0,0,0,0,0,0,0,0,0,0,0],
"sum_hessian":[0.0,0.0,0.0,0.0,0.0,0.0,0.0,0.0,0.0,0.0,0.0,0.0,0.0,0.0,0.0,0.0,0.0,0.0,0.0,0.0,0.0,0.0,0.0],
"tree_param":{"num_deleted":"0","num_feature":"18","num_nodes":"23","size_leaf_vector":"0"}
},
{
"base_weights":[0.0,0.0,0.0,0.0,0.0,0.0,0.0,0.0,0.0,0.0,0.0,0.0,0.0,0.0,0.0,0.0,0.0,0.0,0.0,0.0,0.0,0.0,0.0,0.0,0.0,0.0,0.0],
"categories":[],"categories_nodes":[],"categories_segments":[],"categories_sizes":[],
"default_left":[true,true,true,true,true,true,true,true,false,true,true,false,false,true,false,false,false,true,false,false,false,false,false,true,false,false,false],
"id":2,
"left_children":[1,3,5,7,9,11,13,15,-1,17,19,-1,-1,21,-1,-1,-1,23,-1,-1,-1,-1,-1,25,-1,-1,-1],
"loss_changes":[0.0,0.0,0.0,0.0,0.0,0.0,0.0,0.0,0.0,0.0,0.0,0.0,0.0,0.0,0.0,0.0,0.0,0.0,0.0,0.0,0.0,0.0,0.0,0.0,0.0,0.0,0.0],
"parents":[2147483647,0,0,1,1,2,2,3,3,4,4,5,5,6,6,7,7,9,9,10,10,13,13,17,17,23,23],
"right_children":[2,4,6,8,10,12,14,16,-1,18,20,-1,-1,22,-1,-1,-1,24,-1,-1,-1,-1,-1,26,-1,-1,-1],
"split_conditions":[3.6114401817321777e+00,8.1364756822586060e-01,5.5434308052062988e+00,9.7388219833374023e-01,2.4485036730766296e-02,8.0683994293212891e-01,7.9321849346160889e-01,1.5210061334073544e-02,-4.7709073871374130e-02,5.5848318338394165e-01,8.7846595048904419e-01,-5.4257795214653015e-02,6.1545283533632755e-03,1.6060618683695793e-02,-5.5754303932189941e-02,1.8379371613264084e-02,-2.7047900483012199e-02,6.3296973705291748e-02,3.3944677561521530e-02,1.3118761591613293e-02,3.7864051759243011e-02,-6.8783022463321686e-02,-8.1279017031192780e-02,4.3818712234497070e+00,4.8604812473058701e-02,7.2622895240783691e-02,5.3696032613515854e-02],
"split_indices":[13,6,13,8,4,6,6,3,0,8,6,0,0,3,0,0,0,7,0,0,0,0,0,16,0,0,0],
"split_type":[0,0,0,0,0,0,0,0,0,0,0,0,0,0,0,0,0,0,0,0,0,0,0,0,0,0,0],
"sum_hessian":[0.0,0.0,0.0,0.0,0.0,0.0,0.0,0.0,0.0,0.0,0.0,0.0,0.0,0.0,0.0,0.0,0.0,0.0,0.0,0.0,0.0,0.0,0.0,0.0,0.0,0.0,0.0],
"tree_param":{"num_deleted":"0","num_feature":"18","num_nodes":"27","size_leaf_vector":"0"}
},
{
"base_weights":[0.0,0.0,0.0,0.0,0.0,0.0,0.0,0.0,0.0,0.0,0.0,0.0,0.0,0.0,0.0,0.0,0.0,0.0,0.0,0.0,0.0,0.0,0.0,0.0,0.0,0.0,0.0],
"categories":[],"categories_nodes":[],"categories_segments":[],"categories_sizes":[],
"default_left":[true,true,true,true,true,true,true,true,false,true,false,false,false,true,false,true,false,true,false,false,false,false,false,true,false,false,false],
"id":3,
"left_children":[1,3,5,7,9,11,13,15,-1,17,-1,-1,-1,19,-1,21,-1,23,-1,-1,-1,-1,-1,25,-1,-1,-1],
"loss_changes":[0.0,0.0,0.0,0.0,0.0,0.0,0.0,0.0,0.0,0.0,0.0,0.0,0.0,0.0,0.0,0.0,0.0,0.0,0.0,0.0,0.0,0.0,0.0,0.0,0.0,0.0,0.0],
"parents":[2147483647,0,0,1,1,2,2,3,3,4,4,5,5,6,6,7,7,9,9,13,13,15,15,17,17,23,23],
"right_children":[2,4,6,8,10,12,14,16,-1,18,-1,-1,-1,20,-1,22,-1,24,-1,-1,-1,-1,-1,26,-1,-1,-1],
"split_conditions":[3.6114401817321777e+00,8.3947855234146118e-01,5.8194289207458496e+00,1.1686586141586304e+00,2.6614170521497726e-02,8.1846529245376587e-01,1.7214639186859131e+00,1.6532674431800842e-02,-4.4787254184484482e-02,5.0108814239501953e+00,2.3673135787248611e-02,-4.9077432602643967e-02,6.1331843025982380e-03,1.6638338565826416e-02,-7.4617795646190643e-02,3.2352238893508911e-02,-2.1269714459776878e-02,6.1416864395141602e-02,3.6717288196086884e-02,-4.6324357390403748e-02,-6.9816663861274719e-02,3.1303338706493378e-02,5.3243525326251984e-03,9.0782654285430908e-01,4.6455636620521545e-02,5.7833109050989151e-02,6.7976094782352448e-02],
"split_indices":[13,6,13,8,4,6,8,3,0,16,0,0,0,3,0,4,0,7,0,0,0,0,0,6,0,0,0],
"split_type":[0,0,0,0,0,0,0,0,0,0,0,0,0,0,0,0,0,0,0,0,0,0,0,0,0,0,0],
"sum_hessian":[0.0,0.0,0.0,0.0,0.0,0.0,0.0,0.0,0.0,0.0,0.0,0.0,0.0,0.0,0.0,0.0,0.0,0.0,0.0,0.0,0.0,0.0,0.0,0.0,0.0,0.0,0.0],
"tree_param":{"num_deleted":"0","num_feature":"18","num_nodes":"27","size_leaf_vector":"0"}
},
{
"base_weights":[0.0,0.0,0.0,0.0,0.0,0.0,0.0,0.0,0.0,0.0,0.0,0.0,0.0,0.0,0.0,0.0,0.0,0.0,0.0,0.0,0.0,0.0,0.0,0.0,0.0],
"categories":[],"categories_nodes":[],"categories_segments":[],"categories_sizes":[],
"default_left":[true,true,true,true,true,true,false,false,false,true,false,true,true,true,true,false,false,false,false,true,false,false,false,false,false],
"id":4,
"left_children":[1,3,5,7,9,11,-1,-1,-1,13,-1,15,17,19,21,-1,-1,-1,-1,23,-1,-1,-1,-1,-1],
"loss_changes":[0.0,0.0,0.0,0.0,0.0,0.0,0.0,0.0,0.0,0.0,0.0,0.0,0.0,0.0,0.0,0.0,0.0,0.0,0.0,0.0,0.0,0.0,0.0,0.0,0.0],
"parents":[2147483647,0,0,1,1,2,2,3,3,4,4,5,5,9,9,11,11,12,12,13,13,14,14,19,19],
"right_children":[2,4,6,8,10,12,-1,-1,-1,14,-1,16,18,20,22,-1,-1,-1,-1,24,-1,-1,-1,-1,-1],
"split_conditions":[4.4448494911193848e+00,7.9658061265945435e-01,8.5367166996002197e-01,1.3887447305023670e-02,9.3080526590347290e-01,1.2519737482070923e+00,-2.5787653401494026e-02,2.8226983267813921e-03,-3.6974303424358368e-02,2.1291336044669151e-02,-2.6510262396186590e-03,1.6869425773620605e-02,3.0056430816650391e+01,6.6117137670516968e-02,8.8756537437438965e-01,-3.9443485438823700e-02,-6.6013783216476440e-02,-7.3379479348659515e-02,-6.4411342144012451e-02,4.2687907218933105e+00,4.0593218058347702e-02,1.7731998115777969e-02,4.1817639023065567e-02,6.3318222761154175e-02,4.5930903404951096e-02],
"split_indices":[13,6,6,3,8,8,0,0,0,4,0,3,15,7,6,0,0,0,0,16,0,0,0,0,0],
"split_type":[0,0,0,0,0,0,0,0,0,0,0,0,0,0,0,0,0,0,0,0,0,0,0,0,0],
"sum_hessian":[0.0,0.0,0.0,0.0,0.0,0.0,0.0,0.0,0.0,0.0,0.0,0.0,0.0,0.0,0.0,0.0,0.0,0.0,0.0,0.0,0.0,0.0,0.0,0.0,0.0],
"tree_param":{"num_deleted":"0","num_feature":"18","num_nodes":"25","size_leaf_vector":"0"}
},
{
"base_weights":[0.0,0.0,0.0,0.0,0.0,0.0,0.0,0.0,0.0,0.0,0.0,0.0,0.0,0.0,0.0,0.0,0.0,0.0,0.0,0.0,0.0,0.0,0.0,0.0,0.0,0.0,0.0],
"categories":[],"categories_nodes":[],"categories_segments":[],"categories_sizes":[],
"default_left":[true,true,true,true,true,true,false,false,false,true,false,false,true,true,true,true,true,false,false,true,false,false,false,false,false,false,false],
"id":5,
"left_children":[1,3,5,7,9,11,-1,-1,-1,13,-1,-1,15,17,19,21,23,-1,-1,25,-1,-1,-1,-1,-1,-1,-1],
"loss_changes":[0.0,0.0,0.0,0.0,0.0,0.0,0.0,0.0,0.0,0.0,0.0,0.0,0.0,0.0,0.0,0.0,0.0,0.0,0.0,0.0,0.0,0.0,0.0,0.0,0.0,0.0,0.0],
"parents":[2147483647,0,0,1,1,2,2,3,3,4,4,5,5,9,9,12,12,13,13,14,14,15,15,16,16,19,19],
"right_children":[2,4,6,8,10,12,-1,-1,-1,14,-1,-1,16,18,20,22,24,-1,-1,26,-1,-1,-1,-1,-1,-1,-1],
"split_conditions":[3.3336369991302490e+00,7.7951365709304810e-01,8.6191523075103760e-01,1.5820795670151711e-02,9.3080526590347290e-01,5.1828870773315430e+00,-6.2559251673519611e-03,1.2495988048613071e-03,-3.9520811289548874e-02,8.6887681484222412e-01,-1.3471096463035792e-04,-3.2541733235120773e-02,3.5011925697326660e+00,2.4175576865673065e-02,2.1291336044669151e-02,1.6827149316668510e-02,1.1703273773193359e+01,3.4685004502534866e-02,1.3478504493832588e-02,4.5225157737731934e+00,3.6601409316062927e-02,-4.2537868022918701e-02,-6.2209837138652802e-02,-6.2493085861206055e-02,-7.0902407169342041e-02,5.8002032339572906e-02,4.5296642929315567e-02],
"split_indices":[13,6,6,3,8,13,0,0,0,6,0,0,12,4,4,3,13,0,0,9,0,0,0,0,0,0,0],
"split_type":[0,0,0,0,0,0,0,0,0,0,0,0,0,0,0,0,0,0,0,0,0,0,0,0,0,0,0],
"sum_hessian":[0.0,0.0,0.0,0.0,0.0,0.0,0.0,0.0,0.0,0.0,0.0,0.0,0.0,0.0,0.0,0.0,0.0,0.0,0.0,0.0,0.0,0.0,0.0,0.0,0.0,0.0,0.0],
"tree_param":{"num_deleted":"0","num_feature":"18","num_nodes":"27","size_leaf_vector":"0"}
},
{
"base_weights":[0.0,0.0,0.0,0.0,0.0,0.0,0.0,0.0,0.0,0.0,0.0,0.0,0.0,0.0,0.0,0.0,0.0,0.0,0.0,0.0,0.0,0.0,0.0,0.0,0.0],
"categories":[],"categories_nodes":[],"categories_segments":[],"categories_sizes":[],
"default_left":[true,true,true,true,false,true,true,true,true,true,false,false,false,true,false,true,false,false,false,false,false,true,false,false,false],
"id":6,
"left_children":[1,3,5,7,-1,9,11,13,15,17,-1,-1,-1,19,-1,21,-1,-1,-1,-1,-1,23,-1,-1,-1],
"loss_changes":[0.0,0.0,0.0,0.0,0.0,0.0,0.0,0.0,0.0,0.0,0.0,0.0,0.0,0.0,0.0,0.0,0.0,0.0,0.0,0.0,0.0,0.0,0.0,0.0,0.0],
"parents":[2147483647,0,0,1,1,2,2,3,3,5,5,6,6,7,7,8,8,9,9,13,13,15,15,21,21],
"right_children":[2,4,6,8,-1,10,12,14,16,18,-1,-1,-1,20,-1,22,-1,-1,-1,-1,-1,24,-1,-1,-1],
"split_conditions":[3.0558338165283203e+00,1.5582114458084106e+00,8.3901631832122803e-01,8.4609121084213257e-01,-3.8448169827461243e-02,2.1909539699554443e+00,4.9897727966308594e+00,1.6532674431800842e-02,2.1291336044669151e-02,1.5757197514176369e-02,-6.4649507403373718e-02,1.6130212694406509e-02,-3.2026145607233047e-02,3.3147782087326050e-02,-1.3213471509516239e-02,5.3159399032592773e+00,2.9484011232852936e-02,-2.4609616026282310e-02,-5.4641116410493851e-02,2.7769878506660461e-02,6.1917058192193508e-03,3.9295489788055420e+00,3.8334865123033524e-02,5.7181835174560547e-02,4.3224215507507324e-02],
"split_indices":[13,8,6,6,0,8,13,3,4,3,0,0,0,4,0,9,0,0,0,0,0,16,0,0,0],
"split_type":[0,0,0,0,0,0,0,0,0,0,0,0,0,0,0,0,0,0,0,0,0,0,0,0,0],
"sum_hessian":[0.0,0.0,0.0,0.0,0.0,0.0,0.0,0.0,0.0,0.0,0.0,0.0,0.0,0.0,0.0,0.0,0.0,0.0,0.0,0.0,0.0,0.0,0.0,0.0,0.0],
"tree_param":{"num_deleted":"0","num_feature":"18","num_nodes":"25","size_leaf_vector":"0"}
},
{
"base_weights":[0.0,0.0,0.0,0.0,0.0,0.0,0.0,0.0,0.0,0.0,0.0,0.0,0.0,0.0,0.0,0.0,0.0,0.0,0.0,0.0,0.0,0.0,0.0,0.0,0.0],
"categories":[],"categories_nodes":[],"categories_segments":[],"categories_sizes":[],
"default_left":[true,true,true,true,false,false,true,true,true,false,true,true,false,true,false,false,false,true,false,true,false,false,false,false,false],
"id":7,
"left_children":[1,3,5,7,-1,-1,9,11,13,-1,15,17,-1,19,-1,-1,-1,21,-1,23,-1,-1,-1,-1,-1],
"loss_changes":[0.0,0.0,0.0,0.0,0.0,0.0,0.0,0.0,0.0,0.0,0.0,0.0,0.0,0.0,0.0,0.0,0.0,0.0,0.0,0.0,0.0,0.0,0.0,0.0,0.0],
"parents":[2147483647,0,0,1,1,2,2,3,3,6,6,7,7,8,8,10,10,11,11,13,13,17,17,19,19],
"right_children":[2,4,6,8,-1,-1,10,12,14,-1,16,18,-1,20,-1,-1,-1,22,-1,24,-1,-1,-1,-1,-1],
"split_conditions":[4.4448494911193848e+00,2.1425406932830811e+00,6.9250946044921875e+00,8.5223221778869629e-01,-5.0537344068288803e-02,-2.6981426402926445e-02,2.5353462696075439e+00,1.9839210435748100e-02,2.2355902940034866e-02,-4.5036081224679947e-02,2.1346122741699219e+01,3.8778368383646011e-02,-2.6026619598269463e-02,4.5938973426818848e+00,2.3237053304910660e-02,-6.5960288047790527e-02,-5.8966957032680511e-02,7.4562631547451019e-02,-2.6965131983160973e-03,8.4494787734001875e-04,3.2129514962434769e-02,5.6553068570792675e-03,2.9756927862763405e-02,3.5313665866851807e-02,5.3504999727010727e-02],
"split_indices":[13,8,13,6,0,0,12,3,4,0,15,4,0,16,0,0,0,17,0,17,0,0,0,0,0],
"split_type":[0,0,0,0,0,0,0,0,0,0,0,0,0,0,0,0,0,0,0,0,0,0,0,0,0],
"sum_hessian":[0.0,0.0,0.0,0.0,0.0,0.0,0.0,0.0,0.0,0.0,0.0,0.0,0.0,0.0,0.0,0.0,0.0,0.0,0.0,0.0,0.0,0.0,0.0,0.0,0.0],
"tree_param":{"num_deleted":"0","num_feature":"18","num_nodes":"25","size_leaf_vector":"0"}
},
{
"base_weights":[0.0,0.0,0.0,0.0,0.0,0.0,0.0,0.0,0.0,0.0,0.0,0.0,0.0,0.0,0.0,0.0,0.0,0.0,0.0,0.0,0.0,0.0,0.0,0.0,0.0],
"categories":[],"categories_nodes":[],"categories_segments":[],"categories_sizes":[],
"default_left":[true,true,true,true,true,true,true,false,false,true,false,true,false,false,false,true,false,true,false,false,true,false,false,false,false],
"id":8,
"left_children":[1,3,5,7,9,11,13,-1,-1,15,-1,17,-1,-1,-1,19,-1,21,-1,-1,23,-1,-1,-1,-1],
"loss_changes":[0.0,0.0,0.0,0.0,0.0,0.0,0.0,0.0,0.0,0.0,0.0,0.0,0.0,0.0,0.0,0.0,0.0,0.0,0.0,0.0,0.0,0.0,0.0,0.0,0.0],
"parents":[2147483647,0,0,1,1,2,2,3,3,4,4,5,5,6,6,9,9,11,11,15,15,17,17,20,20],
"right_children":[2,4,6,8,10,12,14,-1,-1,16,-1,18,-1,-1,-1,20,-1,22,-1,-1,24,-1,-1,-1,-1],
"split_conditions":[3.0558338165283203e+00,7.6106292009353638e-01,7.9963022470474243e-01,1.3269054703414440e-02,2.8571134433150291e-02,3.1605660915374756e-02,6.3711524009704590e+00,5.0348374061286449e-03,-3.1200069934129715e-02,5.3359880447387695e+00,8.8538667187094688e-03,2.3755637928843498e-02,-6.4018301665782928e-02,5.6598391383886337e-03,-3.9507564157247543e-02,8.4494787734001875e-04,1.8222732469439507e-02,2.6874004364013672e+01,-5.8868683874607086e-02,2.5400212034583092e-02,3.7466578483581543e+00,-4.4507663697004318e-02,-2.0645121112465858e-02,5.1762223243713379e-02,3.6816816776990891e-02],
"split_indices":[13,6,6,3,4,2,13,0,0,16,0,2,0,0,0,17,0,15,0,0,16,0,0,0,0],
"split_type":[0,0,0,0,0,0,0,0,0,0,0,0,0,0,0,0,0,0,0,0,0,0,0,0,0],
"sum_hessian":[0.0,0.0,0.0,0.0,0.0,0.0,0.0,0.0,0.0,0.0,0.0,0.0,0.0,0.0,0.0,0.0,0.0,0.0,0.0,0.0,0.0,0.0,0.0,0.0,0.0],
"tree_param":{"num_deleted":"0","num_feature":"18","num_nodes":"25","size_leaf_vector":"0"}
},
{
"base_weights":[0.0,0.0,0.0,0.0,0.0,0.0,0.0,0.0,0.0,0.0,0.0,0.0,0.0,0.0,0.0,0.0,0.0,0.0,0.0,0.0,0.0,0.0,0.0,0.0,0.0],
"categories":[],"categories_nodes":[],"categories_segments":[],"categories_sizes":[],
"default_left":[true,true,true,true,false,true,true,true,true,false,false,false,false,true,false,true,false,false,true,true,false,false,false,false,false],
"id":9,
"left_children":[1,3,5,7,-1,9,11,13,15,-1,-1,-1,-1,17,-1,19,-1,-1,21,23,-1,-1,-1,-1,-1],
"loss_changes":[0.0,0.0,0.0,0.0,0.0,0.0,0.0,0.0,0.0,0.0,0.0,0.0,0.0,0.0,0.0,0.0,0.0,0.0,0.0,0.0,0.0,0.0,0.0,0.0,0.0],
"parents":[2147483647,0,0,1,1,2,2,3,3,5,5,6,6,7,7,8,8,13,13,15,15,18,18,19,19],
"right_children":[2,4,6,8,-1,10,12,14,16,-1,-1,-1,-1,18,-1,20,-1,-1,22,24,-1,-1,-1,-1,-1],
"split_conditions":[4.7226524353027344e+00,2.3373172283172607e+00,1.4084705114364624e+00,8.6067605018615723e-01,-4.9444504082202911e-02,8.0759620666503906e-01,3.0880487442016602e+01,2.0500516518950462e-02,8.0531299114227295e-02,-4.3798699975013733e-02,-1.2209428474307060e-02,-5.9591051191091537e-02,-4.7142203897237778e-02,3.0820138752460480e-02,-2.3979814723134041e-02,5.1310296058654785e+00,1.9757911562919617e-02,1.9542006775736809e-02,1.2372563593089581e-02,2.1543263574130833e-04,2.2627644240856171e-02,1.0770704597234726e-02,-1.1411027051508427e-02,3.5248875617980957e-02,4.7526065260171890e-02],
"split_indices":[13,8,8,6,0,6,15,3,7,0,0,0,0,4,0,16,0,0,3,17,0,0,0,0,0],
"split_type":[0,0,0,0,0,0,0,0,0,0,0,0,0,0,0,0,0,0,0,0,0,0,0,0,0],
"sum_hessian":[0.0,0.0,0.0,0.0,0.0,0.0,0.0,0.0,0.0,0.0,0.0,0.0,0.0,0.0,0.0,0.0,0.0,0.0,0.0,0.0,0.0,0.0,0.0,0.0,0.0],
"tree_param":{"num_deleted":"0","num_feature":"18","num_nodes":"25","size_leaf_vector":"0"}
},
{
"base_weights":[0.0,0.0,0.0,0.0,0.0,0.0,0.0,0.0,0.0,0.0,0.0,0.0,0.0,0.0,0.0,0.0,0.0,0.0,0.0,0.0,0.0,0.0,0.0,0.0,0.0],
"categories":[],"categories_nodes":[],"categories_segments":[],"categories_sizes":[],
"default_left":[true,true,true,false,true,true,false,true,true,true,true,false,true,true,false,false,false,true,false,false,false,false,false,false,false],
"id":10,
"left_children":[1,3,5,-1,7,9,-1,11,13,15,17,-1,19,21,-1,-1,-1,23,-1,-1,-1,-1,-1,-1,-1],
"loss_changes":[0.0,0.0,0.0,0.0,0.0,0.0,0.0,0.0,0.0,0.0,0.0,0.0,0.0,0.0,0.0,0.0,0.0,0.0,0.0,0.0,0.0,0.0,0.0,0.0,0.0],
"parents":[2147483647,0,0,1,1,2,2,4,4,5,5,7,7,8,8,9,9,10,10,12,12,13,13,17,17],
"right_children":[2,4,6,-1,8,10,-1,12,14,16,18,-1,20,22,-1,-1,-1,24,-1,-1,-1,-1,-1,-1,-1],
"split_conditions":[2.7780308723449707e+00,7.4261218309402466e-01,8.7382268905639648e-01,-1.2147199362516403e-02,8.9298027753829956e-01,2.4114538192749023e+01,5.2643981762230396e-03,8.4494787734001875e-04,5.0449568778276443e-02,1.3666407205164433e-02,7.5504207611083984e-01,-1.3250007759779692e-03,5.9296612739562988e+00,9.2212873697280884e-01,3.0001841485500336e-02,-3.8027938455343246e-02,-5.7122297585010529e-02,1.6237631440162659e-02,-4.9775205552577972e-03,3.1011192128062248e-02,6.6202213056385517e-03,3.7629928439855576e-02,4.7282967716455460e-02,-2.3814534768462181e-02,-5.2086554467678070e-02],
"split_indices":[13,6,6,0,6,15,0,17,7,3,6,0,16,6,0,0,0,3,0,0,0,0,0,0,0],
"split_type":[0,0,0,0,0,0,0,0,0,0,0,0,0,0,0,0,0,0,0,0,0,0,0,0,0],
"sum_hessian":[0.0,0.0,0.0,0.0,0.0,0.0,0.0,0.0,0.0,0.0,0.0,0.0,0.0,0.0,0.0,0.0,0.0,0.0,0.0,0.0,0.0,0.0,0.0,0.0,0.0],
"tree_param":{"num_deleted":"0","num_feature":"18","num_nodes":"25","size_leaf_vector":"0"}
},
{
"base_weights":[0.0,0.0,0.0,0.0,0.0,0.0,0.0,0.0,0.0,0.0,0.0,0.0,0.0,0.0,0.0,0.0,0.0,0.0,0.0,0.0,0.0,0.0,0.0],
"categories":[],"categories_nodes":[],"categories_segments":[],"categories_sizes":[],
"default_left":[true,true,true,true,true,false,true,true,true,false,false,false,false,true,false,false,true,true,false,false,false,false,false],
"id":11,
"left_children":[1,3,5,7,9,-1,11,13,15,-1,-1,-1,-1,17,-1,-1,19,21,-1,-1,-1,-1,-1],
"loss_changes":[0.0,0.0,0.0,0.0,0.0,0.0,0.0,0.0,0.0,0.0,0.0,0.0,0.0,0.0,0.0,0.0,0.0,0.0,0.0,0.0,0.0,0.0,0.0],
"parents":[2147483647,0,0,1,1,2,2,3,3,4,4,6,6,7,7,8,8,13,13,16,16,17,17],
"right_children":[2,4,6,8,10,-1,12,14,16,-1,-1,-1,-1,18,-1,-1,20,22,-1,-1,-1,-1,-1],
"split_conditions":[1.5582114458084106e+00,5.2782588005065918e+00,2.9162006378173828e+00,2.7472244575619698e-02,2.4694359302520752e+00,-2.4468913674354553e-02,5.2360305786132812e+00,9.9332377314567566e-02,6.4386756896972656e+01,-1.9326973706483841e-02,-4.5329805463552475e-02,-4.7279257327318192e-02,-6.0927491635084152e-02,5.4066634178161621e+00,9.9012544378638268e-03,1.1722766794264317e-02,7.7241408824920654e-01,1.7895862579345703e+01,1.5489139594137669e-02,-3.1144198030233383e-02,-1.6559530049562454e-03,3.4918945282697678e-02,4.4652555137872696e-02],
"split_indices":[8,13,8,4,12,0,8,7,0,0,0,0,0,16,0,0,6,15,0,0,0,0,0],
"split_type":[0,0,0,0,0,0,0,0,0,0,0,0,0,0,0,0,0,0,0,0,0,0,0],
"sum_hessian":[0.0,0.0,0.0,0.0,0.0,0.0,0.0,0.0,0.0,0.0,0.0,0.0,0.0,0.0,0.0,0.0,0.0,0.0,0.0,0.0,0.0,0.0,0.0],
"tree_param":{"num_deleted":"0","num_feature":"18","num_nodes":"23","size_leaf_vector":"0"}
},
{
"base_weights":[0.0,0.0,0.0,0.0,0.0,0.0,0.0,0.0,0.0,0.0,0.0,0.0,0.0,0.0,0.0,0.0,0.0,0.0,0.0,0.0,0.0,0.0,0.0],
"categories":[],"categories_nodes":[],"categories_segments":[],"categories_sizes":[],
"default_left":[true,true,true,true,false,true,false,true,true,true,true,true,false,false,false,false,false,false,false,true,false,false,false],
"id":12,
"left_children":[1,3,5,7,-1,9,-1,11,13,15,17,19,-1,-1,-1,-1,-1,-1,-1,21,-1,-1,-1],
"loss_changes":[0.0,0.0,0.0,0.0,0.0,0.0,0.0,0.0,0.0,0.0,0.0,0.0,0.0,0.0,0.0,0.0,0.0,0.0,0.0,0.0,0.0,0.0,0.0],
"parents":[2147483647,0,0,1,1,2,2,3,3,5,5,7,7,8,8,9,9,10,10,11,11,19,19],
"right_children":[2,4,6,8,-1,10,-1,12,14,16,18,20,-1,-1,-1,-1,-1,-1,-1,22,-1,-1,-1],
"split_conditions":[2.7780308723449707e+00,1.3634350299835205e+00,8.7473863363265991e-01,2.9670024290680885e-02,-2.3379823192954063e-02,2.4808481216430664e+01,5.2182916551828384e-03,8.6171627044677734e-02,7.3030296325683594e+01,1.2323649406433105e+01,6.0427918434143066e+00,5.1734347343444824e+00,1.2949609197676182e-02,1.4168928377330303e-02,-1.6636712476611137e-02,-5.3743168711662292e-02,-3.8348060101270676e-02,-4.5650480315089226e-03,-3.9020661264657974e-02,3.1203823164105415e-04,1.9553946331143379e-02,3.0547592788934708e-02,4.1920416057109833e-02],
"split_indices":[13,8,6,4,0,15,0,7,0,15,13,16,0,0,0,0,0,0,0,17,0,0,0],
"split_type":[0,0,0,0,0,0,0,0,0,0,0,0,0,0,0,0,0,0,0,0,0,0,0],
"sum_hessian":[0.0,0.0,0.0,0.0,0.0,0.0,0.0,0.0,0.0,0.0,0.0,0.0,0.0,0.0,0.0,0.0,0.0,0.0,0.0,0.0,0.0,0.0,0.0],
"tree_param":{"num_deleted":"0","num_feature":"18","num_nodes":"23","size_leaf_vector":"0"}
},
{
"base_weights":[0.0,0.0,0.0,0.0,0.0,0.0,0.0,0.0,0.0,0.0,0.0,0.0,0.0,0.0,0.0,0.0,0.0,0.0,0.0,0.0,0.0,0.0,0.0,0.0,0.0],
"categories":[],"categories_nodes":[],"categories_segments":[],"categories_sizes":[],
"default_left":[true,true,true,true,true,false,true,true,true,false,false,false,false,false,false,true,true,true,false,true,false,false,false,false,false],
"id":13,
"left_children":[1,3,5,7,9,-1,11,13,15,-1,-1,-1,-1,-1,-1,17,19,21,-1,23,-1,-1,-1,-1,-1],
"loss_changes":[0.0,0.0,0.0,0.0,0.0,0.0,0.0,0.0,0.0,0.0,0.0,0.0,0.0,0.0,0.0,0.0,0.0,0.0,0.0,0.0,0.0,0.0,0.0,0.0,0.0],
"parents":[2147483647,0,0,1,1,2,2,3,3,4,4,6,6,7,7,8,8,15,15,16,16,17,17,19,19],
"right_children":[2,4,6,8,10,-1,12,14,16,-1,-1,-1,-1,-1,-1,18,20,22,-1,24,-1,-1,-1,-1,-1],
"split_conditions":[1.7529879808425903e+00,5.5560617446899414e+00,3.3041942119598389e+00,7.4015897512435913e-01,2.9104065895080566e+00,-2.5081485509872437e-02,5.9422583580017090e+00,1.0759036988019943e-01,2.1977797150611877e-02,-1.7818586900830269e-02,-4.3605856597423553e-02,-5.0330244004726410e-02,-5.4297342896461487e-02,-2.1678844466805458e-02,3.9561590529046953e-04,4.5514917373657227e+00,2.1380121707916260e+00,8.4494787734001875e-04,1.6598772257566452e-02,6.1153929680585861e-02,-2.6776636950671673e-03,1.8426975235342979e-02,4.0900155901908875e-02,7.9397372901439667e-03,2.0199740305542946e-02],
"split_indices":[8,13,8,6,12,0,13,17,4,0,0,0,0,0,0,16,13,17,0,17,0,0,0,0,0],
"split_type":[0,0,0,0,0,0,0,0,0,0,0,0,0,0,0,0,0,0,0,0,0,0,0,0,0],
"sum_hessian":[0.0,0.0,0.0,0.0,0.0,0.0,0.0,0.0,0.0,0.0,0.0,0.0,0.0,0.0,0.0,0.0,0.0,0.0,0.0,0.0,0.0,0.0,0.0,0.0,0.0],
"tree_param":{"num_deleted":"0","num_feature":"18","num_nodes":"25","size_leaf_vector":"0"}
},
{
"base_weights":[0.0,0.0,0.0,0.0,0.0,0.0,0.0,0.0,0.0,0.0,0.0,0.0,0.0,0.0,0.0,0.0,0.0,0.0,0.0,0.0,0.0,0.0,0.0],
"categories":[],"categories_nodes":[],"categories_segments":[],"categories_sizes":[],
"default_left":[true,true,true,true,true,true,true,true,false,true,false,false,false,false,false,false,false,true,false,true,false,false,false],
"id":14,
"left_children":[1,3,5,7,9,11,13,15,-1,17,-1,-1,-1,-1,-1,-1,-1,19,-1,21,-1,-1,-1],
"loss_changes":[0.0,0.0,0.0,0.0,0.0,0.0,0.0,0.0,0.0,0.0,0.0,0.0,0.0,0.0,0.0,0.0,0.0,0.0,0.0,0.0,0.0,0.0,0.0],
"parents":[2147483647,0,0,1,1,2,2,3,3,4,4,5,5,6,6,7,7,9,9,17,17,19,19],
"right_children":[2,4,6,8,10,12,14,16,-1,18,-1,-1,-1,-1,-1,-1,-1,20,-1,22,-1,-1,-1],
"split_conditions":[1.1686586141586304e+00,8.0409795045852661e-01,3.1834661483764648e+01,1.9839210435748100e-02,1.2630882859230042e-01,1.7532114028930664e+01,7.3917704820632935e-01,5.4804931640625000e+01,-3.8106188178062439e-02,1.8520768880844116e+00,-6.3617201521992683e-03,-5.2181292325258255e-02,-3.3744316548109055e-02,-3.4724488854408264e-02,1.8025969620794058e-03,1.1731941252946854e-02,-9.3731759116053581e-03,6.1346197128295898e+00,-1.1778465704992414e-03,2.9846670804545283e-04,1.0347591713070869e-02,2.0875299349427223e-02,3.5743970423936844e-02],
"split_indices":[8,6,15,3,7,15,6,0,0,12,0,0,0,0,0,0,0,16,0,17,0,0,0],
"split_type":[0,0,0,0,0,0,0,0,0,0,0,0,0,0,0,0,0,0,0,0,0,0,0],
"sum_hessian":[0.0,0.0,0.0,0.0,0.0,0.0,0.0,0.0,0.0,0.0,0.0,0.0,0.0,0.0,0.0,0.0,0.0,0.0,0.0,0.0,0.0,0.0,0.0],
"tree_param":{"num_deleted":"0","num_feature":"18","num_nodes":"23","size_leaf_vector":"0"}
},
{
"base_weights":[0.0,0.0,0.0,0.0,0.0,0.0,0.0,0.0,0.0,0.0,0.0,0.0,0.0,0.0,0.0,0.0,0.0,0.0,0.0,0.0,0.0,0.0,0.0,0.0,0.0,0.0,0.0],
"categories":[],"categories_nodes":[],"categories_segments":[],"categories_sizes":[],
"default_left":[true,true,true,false,true,true,true,true,true,false,false,true,true,true,false,true,false,false,true,false,false,false,false,false,false,false,false],
"id":15,
"left_children":[1,3,5,-1,7,9,11,13,15,-1,-1,17,19,21,-1,23,-1,-1,25,-1,-1,-1,-1,-1,-1,-1,-1],
"loss_changes":[0.0,0.0,0.0,0.0,0.0,0.0,0.0,0.0,0.0,0.0,0.0,0.0,0.0,0.0,0.0,0.0,0.0,0.0,0.0,0.0,0.0,0.0,0.0,0.0,0.0,0.0,0.0],
"parents":[2147483647,0,0,1,1,2,2,4,4,5,5,6,6,7,7,8,8,11,11,12,12,13,13,15,15,18,18],
"right_children":[2,4,6,-1,8,10,12,14,16,-1,-1,18,20,22,-1,24,-1,-1,26,-1,-1,-1,-1,-1,-1,-1,-1],
"split_conditions":[2.5002276897430420e+00,7.2231638431549072e-01,1.8779848098754883e+01,-8.8133011013269424e-03,9.0063929557800293e-01,9.1787424087524414e+00,7.7947914600372314e-01,1.2672396087646484e+02,3.5693519115447998e+00,-5.0708934664726257e-02,-3.1683940440416336e-02,1.3756881467998028e-02,2.5639187544584274e-02,1.9112857818603516e+01,-7.5835655443370342e-03,9.2685747146606445e-01,2.5124197825789452e-02,-9.1569116339087486e-03,6.5521413087844849e-01,1.9698429852724075e-02,-1.0421427898108959e-02,6.8853711709380150e-03,2.2792272269725800e-02,3.1594291329383850e-02,3.9906356483697891e-02,-4.9027714878320694e-02,-2.9447890818119049e-02],
"split_indices":[13,6,15,0,6,15,6,0,9,0,0,3,4,15,0,6,0,0,6,0,0,0,0,0,0,0,0],
"split_type":[0,0,0,0,0,0,0,0,0,0,0,0,0,0,0,0,0,0,0,0,0,0,0,0,0,0,0],
"sum_hessian":[0.0,0.0,0.0,0.0,0.0,0.0,0.0,0.0,0.0,0.0,0.0,0.0,0.0,0.0,0.0,0.0,0.0,0.0,0.0,0.0,0.0,0.0,0.0,0.0,0.0,0.0,0.0],
"tree_param":{"num_deleted":"0","num_feature":"18","num_nodes":"27","size_leaf_vector":"0"}
},
{
"base_weights":[0.0,0.0,0.0,0.0,0.0,0.0,0.0,0.0,0.0,0.0,0.0,0.0,0.0,0.0,0.0,0.0,0.0,0.0,0.0,0.0,0.0,0.0,0.0],
"categories":[],"categories_nodes":[],"categories_segments":[],"categories_sizes":[],
"default_left":[true,true,true,true,true,false,true,true,true,false,false,false,false,true,false,false,false,true,true,false,false,false,false],
"id":16,
"left_children":[1,3,5,7,9,-1,11,13,15,-1,-1,-1,-1,17,-1,-1,-1,19,21,-1,-1,-1,-1],
"loss_changes":[0.0,0.0,0.0,0.0,0.0,0.0,0.0,0.0,0.0,0.0,0.0,0.0,0.0,0.0,0.0,0.0,0.0,0.0,0.0,0.0,0.0,0.0,0.0],
"parents":[2147483647,0,0,1,1,2,2,3,3,4,4,6,6,7,7,8,8,13,13,17,17,18,18],
"right_children":[2,4,6,8,10,-1,12,14,16,-1,-1,-1,-1,18,-1,-1,-1,20,22,-1,-1,-1,-1],
"split_conditions":[1.9477643966674805e+00,6.1116676330566406e+00,3.4981896877288818e+00,3.0768914148211479e-02,2.4694359302520752e+00,-2.3324888199567795e-02,6.2818155288696289e+00,1.2001357227563858e-01,6.7096260070800781e+01,-1.7083019018173218e-02,-4.2141046375036240e-02,-4.6094235032796860e-02,-5.1645528525114059e-02,4.2758579254150391e+00,6.3071196200326085e-04,6.5731932409107685e-03,-1.8142541870474815e-02,2.3789758682250977e+01,1.5176369808614254e-02,2.8781712055206299e-02,3.9301361888647079e-02,2.1789120510220528e-02,-4.3864473700523376e-03],
"split_indices":[8,13,8,4,12,0,13,7,0,0,0,0,0,16,0,0,0,15,3,0,0,0,0],
"split_type":[0,0,0,0,0,0,0,0,0,0,0,0,0,0,0,0,0,0,0,0,0,0,0],
"sum_hessian":[0.0,0.0,0.0,0.0,0.0,0.0,0.0,0.0,0.0,0.0,0.0,0.0,0.0,0.0,0.0,0.0,0.0,0.0,0.0,0.0,0.0,0.0,0.0],
"tree_param":{"num_deleted":"0","num_feature":"18","num_nodes":"23","size_leaf_vector":"0"}
},
{
"base_weights":[0.0,0.0,0.0,0.0,0.0,0.0,0.0,0.0,0.0,0.0,0.0,0.0,0.0,0.0,0.0,0.0,0.0,0.0,0.0,0.0,0.0],
"categories":[],"categories_nodes":[],"categories_segments":[],"categories_sizes":[],
"default_left":[true,true,true,true,true,true,false,true,true,false,false,false,false,false,false,true,false,true,false,false,false],
"id":17,
"left_children":[1,3,5,7,9,11,-1,13,15,-1,-1,-1,-1,-1,-1,17,-1,19,-1,-1,-1],
"loss_changes":[0.0,0.0,0.0,0.0,0.0,0.0,0.0,0.0,0.0,0.0,0.0,0.0,0.0,0.0,0.0,0.0,0.0,0.0,0.0,0.0,0.0],
"parents":[2147483647,0,0,1,1,2,2,3,3,4,4,5,5,7,7,8,8,15,15,17,17],
"right_children":[2,4,6,8,10,12,-1,14,16,-1,-1,-1,-1,-1,-1,18,-1,20,-1,-1,-1],
"split_conditions":[1.9477643966674805e+00,2.2048535346984863e+00,3.4610435485839844e+01,7.4015897512435913e-01,1.5391092300415039e+01,4.3061851501464844e+01,-2.0670900121331215e-02,1.6841491684317589e-02,1.3446742296218872e-01,-4.2713075876235962e-02,-1.0971223935484886e-02,-4.7254085540771484e-02,-3.9349861443042755e-02,5.4751685820519924e-03,-3.3989805728197098e-02,6.4455909729003906e+00,-4.1667558252811432e-03,2.9846670804545283e-04,4.4204699806869030e-03,1.2371172197163105e-02,2.8591472655534744e-02],
"split_indices":[8,12,15,6,15,0,0,3,7,0,0,0,0,0,0,16,0,17,0,0,0],
"split_type":[0,0,0,0,0,0,0,0,0,0,0,0,0,0,0,0,0,0,0,0,0],
"sum_hessian":[0.0,0.0,0.0,0.0,0.0,0.0,0.0,0.0,0.0,0.0,0.0,0.0,0.0,0.0,0.0,0.0,0.0,0.0,0.0,0.0,0.0],
"tree_param":{"num_deleted":"0","num_feature":"18","num_nodes":"21","size_leaf_vector":"0"}
},
{
"base_weights":[0.0,0.0,0.0,0.0,0.0,0.0,0.0,0.0,0.0,0.0,0.0,0.0,0.0,0.0,0.0,0.0,0.0,0.0,0.0],
"categories":[],"categories_nodes":[],"categories_segments":[],"categories_sizes":[],
"default_left":[true,true,true,true,true,false,false,true,false,true,false,false,true,false,false,true,false,false,false],
"id":18,
"left_children":[1,3,5,7,9,-1,-1,11,-1,13,-1,-1,15,-1,-1,17,-1,-1,-1],
"loss_changes":[0.0,0.0,0.0,0.0,0.0,0.0,0.0,0.0,0.0,0.0,0.0,0.0,0.0,0.0,0.0,0.0,0.0,0.0,0.0],
"parents":[2147483647,0,0,1,1,2,2,3,3,4,4,7,7,9,9,12,12,15,15],
"right_children":[2,4,6,8,10,-1,-1,12,-1,14,-1,-1,16,-1,-1,18,-1,-1,-1],
"split_conditions":[3.1605392694473267e-02,5.0004553794860840e+00,6.3066792488098145e+00,2.5856060907244682e-02,1.5682882070541382e-01,-4.5559827238321304e-02,-5.3204540163278580e-02,1.5480021946132183e-02,-2.0273845642805099e-02,2.4978895187377930e+01,-4.0030803531408310e-02,-1.0879362234845757e-03,3.6263365298509598e-02,-2.8298098593950272e-02,-1.0418393649160862e-03,2.5973697662353516e+01,1.3456101296469569e-03,1.5663079917430878e-02,3.1529221683740616e-02],
"split_indices":[2,13,13,2,7,0,0,2,0,15,0,0,4,0,0,15,0,0,0],
"split_type":[0,0,0,0,0,0,0,0,0,0,0,0,0,0,0,0,0,0,0],
"sum_hessian":[0.0,0.0,0.0,0.0,0.0,0.0,0.0,0.0,0.0,0.0,0.0,0.0,0.0,0.0,0.0,0.0,0.0,0.0,0.0],
"tree_param":{"num_deleted":"0","num_feature":"18","num_nodes":"19","size_leaf_vector":"0"}
},
{
"base_weights":[0.0,0.0,0.0,0.0,0.0,0.0,0.0,0.0,0.0,0.0,0.0,0.0,0.0,0.0,0.0,0.0,0.0,0.0,0.0,0.0,0.0,0.0,0.0],
"categories":[],"categories_nodes":[],"categories_segments":[],"categories_sizes":[],
"default_left":[true,true,true,true,true,true,false,true,false,false,false,true,true,true,false,false,false,false,false,true,false,false,false],
"id":19,
"left_children":[1,3,5,7,9,11,-1,13,-1,-1,-1,15,17,19,-1,-1,-1,-1,-1,21,-1,-1,-1],
"loss_changes":[0.0,0.0,0.0,0.0,0.0,0.0,0.0,0.0,0.0,0.0,0.0,0.0,0.0,0.0,0.0,0.0,0.0,0.0,0.0,0.0,0.0,0.0,0.0],
"parents":[2147483647,0,0,1,1,2,2,3,3,4,4,5,5,7,7,11,11,12,12,13,13,19,19],
"right_children":[2,4,6,8,10,12,-1,14,-1,-1,-1,16,18,20,-1,-1,-1,-1,-1,22,-1,-1,-1],
"split_conditions":[8.6924290657043457e-01,3.1605422496795654e-02,9.7333006560802460e-02,2.4418782442808151e-02,6.5933465957641602e+00,1.7534862518310547e+01,-1.8961247988045216e-03,1.9371106624603271e+00,-3.3503692597150803e-02,-4.4269915670156479e-02,-5.2494816482067108e-02,1.1112123727798462e+00,1.8097635358572006e-02,9.6923461914062500e+01,-1.9429657608270645e-02,2.7460541576147079e-02,-1.1588501511141658e-03,3.4977409988641739e-02,1.7921419814229012e-02,6.3924151659011841e-01,-1.0215159505605698e-02,1.5882013365626335e-02,-2.6779721956700087e-03],
"split_indices":[6,2,7,2,13,15,0,12,0,0,0,13,4,0,0,0,0,0,0,8,0,0,0],
"split_type":[0,0,0,0,0,0,0,0,0,0,0,0,0,0,0,0,0,0,0,0,0,0,0],
"sum_hessian":[0.0,0.0,0.0,0.0,0.0,0.0,0.0,0.0,0.0,0.0,0.0,0.0,0.0,0.0,0.0,0.0,0.0,0.0,0.0,0.0,0.0,0.0,0.0],
"tree_param":{"num_deleted":"0","num_feature":"18","num_nodes":"23","size_leaf_vector":"0"}
},
{
"base_weights":[0.0,0.0,0.0,0.0,0.0,0.0,0.0,0.0,0.0,0.0,0.0,0.0,0.0,0.0,0.0,0.0,0.0,0.0,0.0,0.0,0.0,0.0,0.0,0.0,0.0,0.0,0.0],
"categories":[],"categories_nodes":[],"categories_segments":[],"categories_sizes":[],
"default_left":[true,true,true,true,false,true,true,true,true,false,false,false,false,true,true,false,true,false,false,true,true,false,false,false,false,false,false],
"id":20,
"left_children":[1,3,5,7,-1,9,11,13,15,-1,-1,-1,-1,17,19,-1,21,-1,-1,23,25,-1,-1,-1,-1,-1,-1],
"loss_changes":[0.0,0.0,0.0,0.0,0.0,0.0,0.0,0.0,0.0,0.0,0.0,0.0,0.0,0.0,0.0,0.0,0.0,0.0,0.0,0.0,0.0,0.0,0.0,0.0,0.0,0.0,0.0],
"parents":[2147483647,0,0,1,1,2,2,3,3,5,5,6,6,7,7,8,8,13,13,14,14,16,16,19,19,20,20],
"right_children":[2,4,6,8,-1,10,12,14,16,-1,-1,-1,-1,18,20,-1,22,-1,-1,24,26,-1,-1,-1,-1,-1,-1],
"split_conditions":[9.7388219833374023e-01,1.5683791041374207e-01,3.0316659927368164e+01,6.3254427909851074e+00,-1.7397956922650337e-02,1.7271833419799805e+01,2.9649140834808350e+00,3.9430672768503428e-04,1.2950749136507511e-02,-4.4303797185420990e-02,-2.5476479902863503e-02,7.7659823000431061e-03,-3.3865459263324738e-02,9.0104949474334717e-01,2.2766958236694336e+01,1.2570259161293507e-02,2.2355226516723633e+01,-4.6948553062975407e-03,2.1309977397322655e-02,1.6668184995651245e+00,4.3781747817993164e+00,-2.7341494336724281e-02,-7.4613583274185658e-03,2.5001499801874161e-02,1.0281329741701484e-03,3.6038819700479507e-02,1.9859658554196358e-02],
"split_indices":[8,7,15,16,0,15,8,17,3,0,0,0,0,6,15,0,15,0,0,13,16,0,0,0,0,0,0],
"split_type":[0,0,0,0,0,0,0,0,0,0,0,0,0,0,0,0,0,0,0,0,0,0,0,0,0,0,0],
"sum_hessian":[0.0,0.0,0.0,0.0,0.0,0.0,0.0,0.0,0.0,0.0,0.0,0.0,0.0,0.0,0.0,0.0,0.0,0.0,0.0,0.0,0.0,0.0,0.0,0.0,0.0,0.0,0.0],
"tree_param":{"num_deleted":"0","num_feature":"18","num_nodes":"27","size_leaf_vector":"0"}
},
{
"base_weights":[0.0,0.0,0.0,0.0,0.0,0.0,0.0,0.0,0.0,0.0,0.0,0.0,0.0,0.0,0.0,0.0,0.0,0.0,0.0,0.0,0.0,0.0,0.0,0.0,0.0,0.0,0.0,0.0,0.0],
"categories":[],"categories_nodes":[],"categories_segments":[],"categories_sizes":[],
"default_left":[true,true,true,false,true,true,true,true,false,false,true,true,true,true,true,false,false,false,false,false,false,false,true,false,true,false,false,false,false],
"id":21,
"left_children":[1,3,5,-1,7,9,11,13,-1,-1,15,17,19,21,23,-1,-1,-1,-1,-1,-1,-1,25,-1,27,-1,-1,-1,-1],
"loss_changes":[0.0,0.0,0.0,0.0,0.0,0.0,0.0,0.0,0.0,0.0,0.0,0.0,0.0,0.0,0.0,0.0,0.0,0.0,0.0,0.0,0.0,0.0,0.0,0.0,0.0,0.0,0.0,0.0,0.0],
"parents":[2147483647,0,0,1,1,2,2,4,4,5,5,6,6,7,7,10,10,11,11,12,12,13,13,14,14,22,22,24,24],
"right_children":[2,4,6,-1,8,10,12,14,-1,-1,16,18,20,22,24,-1,-1,-1,-1,-1,-1,-1,26,-1,28,-1,-1,-1,-1],
"split_conditions":[2.5002276897430420e+00,6.9833040237426758e-01,2.4114538192749023e+01,-7.9079438000917435e-03,8.3912324905395508e+00,1.1388422012329102e+01,7.5658023357391357e-01,1.7951395034790039e+01,-3.1994164455682039e-03,-4.0846388787031174e-02,7.5334221124649048e-02,1.5786586329340935e-02,2.4653064087033272e-02,8.9492177963256836e-01,1.0014330148696899e+00,-8.2592396065592766e-03,-3.6344178020954132e-02,-7.1747070178389549e-03,-3.6463748663663864e-02,1.8751442432403564e-02,-4.6912766993045807e-03,-2.3875267652329057e-04,9.2705982923507690e-01,1.1742060072720051e-02,2.8614364624023438e+01,1.7784977331757545e-02,3.1110106036067009e-02,2.1776115521788597e-02,2.6653265580534935e-02],
"split_indices":[13,6,15,0,9,15,6,15,0,0,7,3,4,6,1,0,0,0,0,0,0,0,6,0,15,0,0,0,0],
"split_type":[0,0,0,0,0,0,0,0,0,0,0,0,0,0,0,0,0,0,0,0,0,0,0,0,0,0,0,0,0],
"sum_hessian":[0.0,0.0,0.0,0.0,0.0,0.0,0.0,0.0,0.0,0.0,0.0,0.0,0.0,0.0,0.0,0.0,0.0,0.0,0.0,0.0,0.0,0.0,0.0,0.0,0.0,0.0,0.0,0.0,0.0],
"tree_param":{"num_deleted":"0","num_feature":"18","num_nodes":"29","size_leaf_vector":"0"}
},
{
"base_weights":[0.0,0.0,0.0,0.0,0.0,0.0,0.0,0.0,0.0,0.0,0.0,0.0,0.0,0.0,0.0,0.0,0.0,0.0,0.0,0.0,0.0,0.0,0.0],
"categories":[],"categories_nodes":[],"categories_segments":[],"categories_sizes":[],
"default_left":[true,true,true,true,true,false,false,true,true,false,false,false,true,false,true,true,true,false,false,false,false,false,false],
"id":22,
"left_children":[1,3,5,7,9,-1,-1,11,13,-1,-1,-1,15,-1,17,19,21,-1,-1,-1,-1,-1,-1],
"loss_changes":[0.0,0.0,0.0,0.0,0.0,0.0,0.0,0.0,0.0,0.0,0.0,0.0,0.0,0.0,0.0,0.0,0.0,0.0,0.0,0.0,0.0,0.0,0.0],
"parents":[2147483647,0,0,1,1,2,2,3,3,4,4,7,7,8,8,12,12,14,14,15,15,16,16],
"right_children":[2,4,6,8,10,-1,-1,12,14,-1,-1,-1,16,-1,18,20,22,-1,-1,-1,-1,-1,-1],
"split_conditions":[2.5320937633514404e+00,6.9450769424438477e+00,5.2412681579589844e+00,2.5274466723203659e-02,6.4057998657226562e+00,-2.5919077917933464e-02,-4.7509208321571350e-02,1.5802724286913872e-02,1.1553389951586723e-02,-1.5044908970594406e-02,-3.6746524274349213e-02,1.3519226340577006e-03,2.6493171691894531e+01,1.0325930081307888e-02,2.4464210510253906e+01,4.1486425399780273e+00,4.2617230415344238e+00,-1.6037547960877419e-02,4.9624015809968114e-04,2.4881783872842789e-02,-3.6165551282465458e-03,3.9464961737394333e-02,1.8281731754541397e-02],
"split_indices":[8,13,8,4,9,0,0,2,3,0,0,0,15,0,15,16,16,0,0,0,0,0,0],
"split_type":[0,0,0,0,0,0,0,0,0,0,0,0,0,0,0,0,0,0,0,0,0,0,0],
"sum_hessian":[0.0,0.0,0.0,0.0,0.0,0.0,0.0,0.0,0.0,0.0,0.0,0.0,0.0,0.0,0.0,0.0,0.0,0.0,0.0,0.0,0.0,0.0,0.0],
"tree_param":{"num_deleted":"0","num_feature":"18","num_nodes":"23","size_leaf_vector":"0"}
},
{
"base_weights":[0.0,0.0,0.0,0.0,0.0,0.0,0.0,0.0,0.0,0.0,0.0,0.0,0.0,0.0,0.0,0.0,0.0,0.0,0.0],
"categories":[],"categories_nodes":[],"categories_segments":[],"categories_sizes":[],
"default_left":[true,true,true,true,true,false,false,true,false,false,true,true,false,false,false,true,false,false,false],
"id":23,
"left_children":[1,3,5,7,9,-1,-1,11,-1,-1,13,15,-1,-1,-1,17,-1,-1,-1],
"loss_changes":[0.0,0.0,0.0,0.0,0.0,0.0,0.0,0.0,0.0,0.0,0.0,0.0,0.0,0.0,0.0,0.0,0.0,0.0,0.0],
"parents":[2147483647,0,0,1,1,2,2,3,3,4,4,7,7,10,10,11,11,15,15],
"right_children":[2,4,6,8,10,-1,-1,12,-1,-1,14,16,-1,-1,-1,18,-1,-1,-1],
"split_conditions":[3.1605392694473267e-02,1.9316924810409546e+00,6.3066792488098145e+00,1.6744129359722137e-01,1.2331425666809082e+01,-3.8494668900966644e-02,-4.9610599875450134e-02,2.5729702785611153e-02,-1.4384288340806961e-02,-3.7386890500783920e-02,7.4130067825317383e+00,4.3955594301223755e-02,-1.5357702039182186e-02,6.1113754054531455e-04,-3.5815089941024780e-02,1.0850154608488083e-01,-8.9355767704546452e-04,1.4390579424798489e-02,2.4392837658524513e-02],
"split_indices":[2,12,13,7,15,0,0,2,0,0,13,4,0,0,0,17,0,0,0],
"split_type":[0,0,0,0,0,0,0,0,0,0,0,0,0,0,0,0,0,0,0],
"sum_hessian":[0.0,0.0,0.0,0.0,0.0,0.0,0.0,0.0,0.0,0.0,0.0,0.0,0.0,0.0,0.0,0.0,0.0,0.0,0.0],
"tree_param":{"num_deleted":"0","num_feature":"18","num_nodes":"19","size_leaf_vector":"0"}
},
{
"base_weights":[0.0,0.0,0.0,0.0,0.0,0.0,0.0,0.0,0.0,0.0,0.0,0.0,0.0,0.0,0.0,0.0,0.0,0.0,0.0,0.0,0.0,0.0,0.0,0.0,0.0,0.0,0.0,0.0,0.0],
"categories":[],"categories_nodes":[],"categories_segments":[],"categories_sizes":[],
"default_left":[true,true,true,true,true,true,false,false,true,true,true,true,false,false,false,true,false,true,true,false,true,false,false,false,false,false,false,false,false],
"id":24,
"left_children":[1,3,5,7,9,11,-1,-1,13,15,17,19,-1,-1,-1,21,-1,23,25,-1,27,-1,-1,-1,-1,-1,-1,-1,-1],
"loss_changes":[0.0,0.0,0.0,0.0,0.0,0.0,0.0,0.0,0.0,0.0,0.0,0.0,0.0,0.0,0.0,0.0,0.0,0.0,0.0,0.0,0.0,0.0,0.0,0.0,0.0,0.0,0.0,0.0,0.0],
"parents":[2147483647,0,0,1,1,2,2,3,3,4,4,5,5,8,8,9,9,10,10,11,11,15,15,17,17,18,18,20,20],
"right_children":[2,4,6,8,10,12,-1,-1,14,16,18,20,-1,-1,-1,22,-1,24,26,-1,28,-1,-1,-1,-1,-1,-1,-1,-1],
"split_conditions":[8.8481414318084717e-01,1.1903526261448860e-02,2.2680819034576416e-02,5.2647113800048828e-02,2.1512250900268555e+01,3.8164684772491455e+00,2.3628952912986279e-03,-9.0143922716379166e-03,4.5660108327865601e-01,2.1078545600175858e-02,7.2385817766189575e-01,1.1242887703701854e-03,1.1113179847598076e-02,1.8375935032963753e-02,3.8010796997696161e-03,1.5649671852588654e-01,-4.2255330830812454e-02,2.0478323101997375e-02,6.2477002143859863e+00,1.2980154715478420e-02,1.6792322158813477e+01,-6.7426213063299656e-03,-3.7905145436525345e-02,-1.3979317620396614e-02,-3.9867214858531952e-02,1.1557019315660000e-02,-8.9158928021788597e-03,2.8684359043836594e-02,3.7467241287231445e-02],
"split_indices":[6,3,4,17,15,16,0,0,8,3,6,17,0,0,0,8,0,3,16,0,15,0,0,0,0,0,0,0,0],
"split_type":[0,0,0,0,0,0,0,0,0,0,0,0,0,0,0,0,0,0,0,0,0,0,0,0,0,0,0,0,0],
"sum_hessian":[0.0,0.0,0.0,0.0,0.0,0.0,0.0,0.0,0.0,0.0,0.0,0.0,0.0,0.0,0.0,0.0,0.0,0.0,0.0,0.0,0.0,0.0,0.0,0.0,0.0,0.0,0.0,0.0,0.0],
"tree_param":{"num_deleted":"0","num_feature":"18","num_nodes":"29","size_leaf_vector":"0"}
},
{
"base_weights":[0.0,0.0,0.0,0.0,0.0,0.0,0.0,0.0,0.0,0.0,0.0,0.0,0.0,0.0,0.0,0.0,0.0,0.0,0.0,0.0,0.0,0.0,0.0,0.0,0.0],
"categories":[],"categories_nodes":[],"categories_segments":[],"categories_sizes":[],
"default_left":[true,true,true,true,true,true,true,true,false,false,false,false,true,false,false,true,false,false,false,true,true,false,false,false,false],
"id":25,
"left_children":[1,3,5,7,9,11,13,15,-1,-1,-1,-1,17,-1,-1,19,-1,-1,-1,21,23,-1,-1,-1,-1],
"loss_changes":[0.0,0.0,0.0,0.0,0.0,0.0,0.0,0.0,0.0,0.0,0.0,0.0,0.0,0.0,0.0,0.0,0.0,0.0,0.0,0.0,0.0,0.0,0.0,0.0,0.0],
"parents":[2147483647,0,0,1,1,2,2,3,3,4,4,5,5,6,6,7,7,12,12,15,15,19,19,20,20],
"right_children":[2,4,6,8,10,12,14,16,-1,-1,-1,-1,18,-1,-1,20,-1,-1,-1,22,24,-1,-1,-1,-1],
"split_conditions":[7.7910572290420532e-01,8.5813550949096680e+00,3.3309291839599609e+01,2.3145744577050209e-02,3.3246334075927734e+01,1.3000741004943848e+01,2.4139935970306396e+00,4.3750699609518051e-02,-1.2521890923380852e-02,-2.5405600666999817e-02,-1.0893015423789620e-03,-4.1886653751134872e-02,9.0553253889083862e-02,1.0078748688101768e-02,-1.8962034955620766e-02,1.2141356468200684e+01,-1.7631865339353681e-03,-1.2052897363901138e-02,-3.3307112753391266e-02,8.3340924978256226e-01,9.0062581002712250e-02,2.0402524620294571e-02,-3.8797864690423012e-03,1.6992613673210144e-02,2.3562652990221977e-02],
"split_indices":[8,9,15,3,15,15,8,4,0,0,0,0,7,0,0,15,0,0,0,13,17,0,0,0,0],
"split_type":[0,0,0,0,0,0,0,0,0,0,0,0,0,0,0,0,0,0,0,0,0,0,0,0,0],
"sum_hessian":[0.0,0.0,0.0,0.0,0.0,0.0,0.0,0.0,0.0,0.0,0.0,0.0,0.0,0.0,0.0,0.0,0.0,0.0,0.0,0.0,0.0,0.0,0.0,0.0,0.0],
"tree_param":{"num_deleted":"0","num_feature":"18","num_nodes":"25","size_leaf_vector":"0"}
},
{
"base_weights":[0.0,0.0,0.0,0.0,0.0,0.0,0.0,0.0,0.0,0.0,0.0,0.0,0.0,0.0,0.0,0.0,0.0,0.0,0.0],
"categories":[],"categories_nodes":[],"categories_segments":[],"categories_sizes":[],
"default_left":[true,true,true,true,false,false,true,true,false,false,true,true,false,false,false,true,false,false,false],
"id":26,
"left_children":[1,3,5,7,-1,-1,9,11,-1,-1,13,15,-1,-1,-1,17,-1,-1,-1],
"loss_changes":[0.0,0.0,0.0,0.0,0.0,0.0,0.0,0.0,0.0,0.0,0.0,0.0,0.0,0.0,0.0,0.0,0.0,0.0,0.0],
"parents":[2147483647,0,0,1,1,2,2,3,3,6,6,7,7,10,10,11,11,15,15],
"right_children":[2,4,6,8,-1,-1,10,12,-1,-1,14,16,-1,-1,-1,18,-1,-1,-1],
"split_conditions":[1.6902309656143188e+00,3.1605392694473267e-02,1.6764653846621513e-02,1.7923294007778168e-01,-3.4870333969593048e-02,2.8939155163243413e-04,1.7912418365478516e+01,2.5682318955659866e-02,-1.4013281092047691e-02,-3.5419765859842300e-02,8.1681356430053711e+00,4.0658924728631973e-02,-1.3173882849514484e-02,-6.2047517858445644e-03,-4.0643811225891113e-02,1.1576951481401920e-02,5.8014102978631854e-04,1.7345320666208863e-03,1.7584428191184998e-02],
"split_indices":[12,2,4,7,0,0,15,2,0,0,13,4,0,0,0,2,0,0,0],
"split_type":[0,0,0,0,0,0,0,0,0,0,0,0,0,0,0,0,0,0,0],
"sum_hessian":[0.0,0.0,0.0,0.0,0.0,0.0,0.0,0.0,0.0,0.0,0.0,0.0,0.0,0.0,0.0,0.0,0.0,0.0,0.0],
"tree_param":{"num_deleted":"0","num_feature":"18","num_nodes":"19","size_leaf_vector":"0"}
},
{
"base_weights":[0.0,0.0,0.0,0.0,0.0,0.0,0.0,0.0,0.0,0.0,0.0,0.0,0.0,0.0,0.0,0.0,0.0,0.0,0.0,0.0,0.0,0.0,0.0,0.0,0.0,0.0,0.0],
"categories":[],"categories_nodes":[],"categories_segments":[],"categories_sizes":[],
"default_left":[true,true,true,true,true,true,false,false,true,true,true,false,true,false,false,true,true,false,true,false,false,false,false,false,false,false,false],
"id":27,
"left_children":[1,3,5,7,9,11,-1,-1,13,15,17,-1,19,-1,-1,21,23,-1,25,-1,-1,-1,-1,-1,-1,-1,-1],
"loss_changes":[0.0,0.0,0.0,0.0,0.0,0.0,0.0,0.0,0.0,0.0,0.0,0.0,0.0,0.0,0.0,0.0,0.0,0.0,0.0,0.0,0.0,0.0,0.0,0.0,0.0,0.0,0.0],
"parents":[2147483647,0,0,1,1,2,2,3,3,4,4,5,5,8,8,9,9,10,10,12,12,15,15,16,16,18,18],
"right_children":[2,4,6,8,10,12,-1,-1,14,16,18,-1,20,-1,-1,22,24,-1,26,-1,-1,-1,-1,-1,-1,-1,-1],
"split_conditions":[8.8664609193801880e-01,1.1903526261448860e-02,7.8337840735912323e-02,6.1048250645399094e-02,6.6152119636535645e+00,9.1181287765502930e+00,1.5099784359335899e-03,-7.1957809850573540e-03,5.2481227874755859e+01,2.4458566665649414e+01,1.8404051661491394e-02,1.0705174878239632e-02,1.0480838012695312e+02,1.6144424676895142e-02,3.7577843759208918e-03,7.0831067860126495e-02,3.3070508390665054e-02,-1.2350155971944332e-02,2.5762655258178711e+01,1.8093049526214600e-02,2.9744865372776985e-02,-2.4024281650781631e-02,-4.6401801519095898e-03,1.3400691561400890e-02,-1.0324538685381413e-02,-4.5514542609453201e-02,-2.7305012568831444e-02],
"split_indices":[6,3,7,17,16,15,0,0,0,15,3,0,0,0,0,17,4,0,15,0,0,0,0,0,0,0,0],
"split_type":[0,0,0,0,0,0,0,0,0,0,0,0,0,0,0,0,0,0,0,0,0,0,0,0,0,0,0],
"sum_hessian":[0.0,0.0,0.0,0.0,0.0,0.0,0.0,0.0,0.0,0.0,0.0,0.0,0.0,0.0,0.0,0.0,0.0,0.0,0.0,0.0,0.0,0.0,0.0,0.0,0.0,0.0,0.0],
"tree_param":{"num_deleted":"0","num_feature":"18","num_nodes":"27","size_leaf_vector":"0"}
},
{
"base_weights":[0.0,0.0,0.0,0.0,0.0,0.0,0.0,0.0,0.0,0.0,0.0,0.0,0.0,0.0,0.0,0.0,0.0,0.0,0.0,0.0,0.0,0.0,0.0,0.0,0.0],
"categories":[],"categories_nodes":[],"categories_segments":[],"categories_sizes":[],
"default_left":[true,true,true,true,true,false,false,true,true,false,false,true,true,false,true,true,false,false,true,false,false,false,false,false,false],
"id":28,
"left_children":[1,3,5,7,9,-1,-1,11,13,-1,-1,15,17,-1,19,21,-1,-1,23,-1,-1,-1,-1,-1,-1],
"loss_changes":[0.0,0.0,0.0,0.0,0.0,0.0,0.0,0.0,0.0,0.0,0.0,0.0,0.0,0.0,0.0,0.0,0.0,0.0,0.0,0.0,0.0,0.0,0.0,0.0,0.0],
"parents":[2147483647,0,0,1,1,2,2,3,3,4,4,7,7,8,8,11,11,12,12,14,14,15,15,18,18],
"right_children":[2,4,6,8,10,-1,-1,12,14,-1,-1,16,18,-1,20,22,-1,-1,24,-1,-1,-1,-1,-1,-1],
"split_conditions":[2.7268700599670410e+00,9.2098894119262695e+00,3.9167568206787109e+01,6.7636299133300781e+00,3.4977912902832031e+01,-3.8163498044013977e-02,-2.6155786588788033e-02,1.7585229873657227e+01,1.2428541667759418e-02,-2.5451239198446274e-02,-1.9351181108504534e-03,1.9446215629577637e+00,9.3987232446670532e-01,8.0591244623064995e-03,2.1555297851562500e+01,2.2322697639465332e+00,-1.5799285843968391e-02,7.3128682561218739e-04,3.7657352447509766e+01,-2.4620590731501579e-02,-5.8449935168027878e-03,1.6765950247645378e-02,-5.9861113550141454e-04,1.6744960099458694e-02,2.9093658551573753e-02],
"split_indices":[8,9,0,16,15,0,0,15,3,0,0,13,1,0,15,9,0,0,15,0,0,0,0,0,0],
"split_type":[0,0,0,0,0,0,0,0,0,0,0,0,0,0,0,0,0,0,0,0,0,0,0,0,0],
"sum_hessian":[0.0,0.0,0.0,0.0,0.0,0.0,0.0,0.0,0.0,0.0,0.0,0.0,0.0,0.0,0.0,0.0,0.0,0.0,0.0,0.0,0.0,0.0,0.0,0.0,0.0],
"tree_param":{"num_deleted":"0","num_feature":"18","num_nodes":"25","size_leaf_vector":"0"}
},
{
"base_weights":[0.0,0.0,0.0,0.0,0.0,0.0,0.0,0.0,0.0,0.0,0.0,0.0,0.0,0.0,0.0,0.0,0.0,0.0,0.0,0.0,0.0,0.0,0.0,0.0,0.0],
"categories":[],"categories_nodes":[],"categories_segments":[],"categories_sizes":[],
"default_left":[true,true,true,true,true,true,true,true,true,false,true,false,true,false,false,false,false,true,false,false,false,false,false,false,false],
"id":29,
"left_children":[1,3,5,7,9,11,13,15,17,-1,19,-1,21,-1,-1,-1,-1,23,-1,-1,-1,-1,-1,-1,-1],
"loss_changes":[0.0,0.0,0.0,0.0,0.0,0.0,0.0,0.0,0.0,0.0,0.0,0.0,0.0,0.0,0.0,0.0,0.0,0.0,0.0,0.0,0.0,0.0,0.0,0.0,0.0],
"parents":[2147483647,0,0,1,1,2,2,3,3,4,4,5,5,6,6,7,7,8,8,10,10,12,12,17,17],
"right_children":[2,4,6,8,10,12,14,16,18,-1,20,-1,22,-1,-1,-1,-1,24,-1,-1,-1,-1,-1,-1,-1],
"split_conditions":[5.8432930707931519e-01,6.3075633049011230e+00,3.2051517486572266e+01,1.1242219246923923e-02,2.3679355621337891e+01,1.1773029327392578e+01,6.1633458137512207e+00,6.9512023925781250e+01,5.6328244209289551e+00,-2.5454161688685417e-02,1.2223701179027557e-01,-3.8544744253158569e-02,9.8289662599563599e-01,8.6385551840066910e-03,-2.2570306435227394e-02,1.9507488235831261e-02,1.0723838582634926e-02,1.2182518959045410e+01,-4.5207319781184196e-03,8.5554840043187141e-03,-8.7883435189723969e-03,-2.4996969848871231e-02,-9.3006454408168793e-03,3.0698599293828011e-03,1.8032046034932137e-02],
"split_indices":[8,9,15,3,15,15,13,0,16,0,7,0,1,0,0,0,0,15,0,0,0,0,0,0,0],
"split_type":[0,0,0,0,0,0,0,0,0,0,0,0,0,0,0,0,0,0,0,0,0,0,0,0,0],
"sum_hessian":[0.0,0.0,0.0,0.0,0.0,0.0,0.0,0.0,0.0,0.0,0.0,0.0,0.0,0.0,0.0,0.0,0.0,0.0,0.0,0.0,0.0,0.0,0.0,0.0,0.0],
"tree_param":{"num_deleted":"0","num_feature":"18","num_nodes":"25","size_leaf_vector":"0"}
},
{
"base_weights":[0.0,0.0,0.0,0.0,0.0,0.0,0.0,0.0,0.0,0.0,0.0,0.0,0.0,0.0,0.0,0.0,0.0,0.0,0.0,0.0,0.0,0.0,0.0,0.0,0.0,0.0,0.0,0.0,0.0],
"categories":[],"categories_nodes":[],"categories_segments":[],"categories_sizes":[],
"default_left":[true,true,true,true,false,true,true,true,false,true,false,false,true,true,false,true,true,false,false,false,true,false,false,false,true,false,false,false,false],
"id":30,
"left_children":[1,3,5,7,-1,9,11,13,-1,15,-1,-1,17,19,-1,21,23,-1,-1,-1,25,-1,-1,-1,27,-1,-1,-1,-1],
"loss_changes":[0.0,0.0,0.0,0.0,0.0,0.0,0.0,0.0,0.0,0.0,0.0,0.0,0.0,0.0,0.0,0.0,0.0,0.0,0.0,0.0,0.0,0.0,0.0,0.0,0.0,0.0,0.0,0.0,0.0],
"parents":[2147483647,0,0,1,1,2,2,3,3,5,5,6,6,7,7,9,9,12,12,13,13,15,15,16,16,20,20,24,24],
"right_children":[2,4,6,8,-1,10,12,14,-1,16,-1,-1,18,20,-1,22,24,-1,-1,-1,26,-1,-1,-1,28,-1,-1,-1,-1],
"split_conditions":[2.2224247455596924e+00,1.5282420349121094e+02,3.4697177886962891e+01,4.2695757001638412e-02,-6.0184411704540253e-03,8.9571499824523926e-01,7.3368132114410400e-01,4.9921780824661255e-01,-1.5536663122475147e-03,6.5889365971088409e-02,2.0184973254799843e-03,-1.1085589416325092e-02,4.2517822265625000e+01,7.5594711303710938e+01,2.6362247299402952e-03,4.5090866088867188e+00,1.3210177421569824e-02,5.4741357453167439e-03,1.7190169543027878e-02,1.9218204542994499e-02,8.7795990705490112e-01,-1.9225385040044785e-02,-3.4210771322250366e-02,-2.2459703031927347e-03,7.2300872802734375e+00,1.2006318429484963e-03,1.9170839339494705e-02,-1.5217286534607410e-02,-3.3896468579769135e-02],
"split_indices":[13,0,15,4,0,6,6,8,0,17,0,0,15,0,0,16,3,0,0,0,6,0,0,0,16,0,0,0,0],
"split_type":[0,0,0,0,0,0,0,0,0,0,0,0,0,0,0,0,0,0,0,0,0,0,0,0,0,0,0,0,0],
"sum_hessian":[0.0,0.0,0.0,0.0,0.0,0.0,0.0,0.0,0.0,0.0,0.0,0.0,0.0,0.0,0.0,0.0,0.0,0.0,0.0,0.0,0.0,0.0,0.0,0.0,0.0,0.0,0.0,0.0,0.0],
"tree_param":{"num_deleted":"0","num_feature":"18","num_nodes":"29","size_leaf_vector":"0"}
},
{
"base_weights":[0.0,0.0,0.0,0.0,0.0,0.0,0.0,0.0,0.0,0.0,0.0,0.0,0.0,0.0,0.0,0.0,0.0,0.0,0.0,0.0,0.0,0.0,0.0],
"categories":[],"categories_nodes":[],"categories_segments":[],"categories_sizes":[],
"default_left":[true,true,true,true,false,false,true,true,false,false,true,true,true,false,false,true,false,true,false,false,false,false,false],
"id":31,
"left_children":[1,3,5,7,-1,-1,9,11,-1,-1,13,15,17,-1,-1,19,-1,21,-1,-1,-1,-1,-1],
"loss_changes":[0.0,0.0,0.0,0.0,0.0,0.0,0.0,0.0,0.0,0.0,0.0,0.0,0.0,0.0,0.0,0.0,0.0,0.0,0.0,0.0,0.0,0.0,0.0],
"parents":[2147483647,0,0,1,1,2,2,3,3,6,6,7,7,10,10,11,11,12,12,15,15,17,17],
"right_children":[2,4,6,8,-1,-1,10,12,-1,-1,14,16,18,-1,-1,20,-1,22,-1,-1,-1,-1,-1],
"split_conditions":[1.2381222844123840e-01,3.1605392694473267e-02,3.0174083076417446e-03,2.6329904794692993e-02,-3.4008588641881943e-02,-2.3043509572744370e-02,5.3925285339355469e+00,1.3306606292724609e+01,-2.2921577095985413e-02,4.4170334003865719e-03,9.9526375532150269e-02,1.3890154361724854e+00,3.6991524696350098e+00,-2.5464488193392754e-02,-9.3411682173609734e-03,9.1586065292358398e-01,-1.6072195023298264e-02,4.1757814586162567e-02,-3.7620065268129110e-03,4.1146730072796345e-03,2.4239856749773026e-02,1.6736933961510658e-02,5.0979997031390667e-03],
"split_indices":[7,2,17,2,0,0,16,15,0,0,17,13,11,0,0,6,0,4,0,0,0,0,0],
"split_type":[0,0,0,0,0,0,0,0,0,0,0,0,0,0,0,0,0,0,0,0,0,0,0],
"sum_hessian":[0.0,0.0,0.0,0.0,0.0,0.0,0.0,0.0,0.0,0.0,0.0,0.0,0.0,0.0,0.0,0.0,0.0,0.0,0.0,0.0,0.0,0.0,0.0],
"tree_param":{"num_deleted":"0","num_feature":"18","num_nodes":"23","size_leaf_vector":"0"}
},
{
"base_weights":[0.0,0.0,0.0,0.0,0.0,0.0,0.0,0.0,0.0,0.0,0.0,0.0,0.0,0.0,0.0,0.0,0.0,0.0,0.0,0.0,0.0,0.0,0.0],
"categories":[],"categories_nodes":[],"categories_segments":[],"categories_sizes":[],
"default_left":[true,true,true,true,false,false,false,true,true,true,true,false,true,false,false,true,false,true,false,false,false,false,false],
"id":32,
"left_children":[1,3,5,7,-1,-1,-1,9,11,13,15,-1,17,-1,-1,19,-1,21,-1,-1,-1,-1,-1],
"loss_changes":[0.0,0.0,0.0,0.0,0.0,0.0,0.0,0.0,0.0,0.0,0.0,0.0,0.0,0.0,0.0,0.0,0.0,0.0,0.0,0.0,0.0,0.0,0.0],
"parents":[2147483647,0,0,1,1,2,2,3,3,7,7,8,8,9,9,10,10,12,12,15,15,17,17],
"right_children":[2,4,6,8,-1,-1,-1,10,12,14,16,-1,18,-1,-1,20,-1,22,-1,-1,-1,-1,-1],
"split_conditions":[2.9216465950012207e+00,2.3819114267826080e-01,3.9787418365478516e+01,5.6257572174072266e+00,-2.3953493684530258e-02,-3.6147627979516983e-02,-2.3876754567027092e-02,3.9430672768503428e-04,4.9227443695068359e+01,7.7372252941131592e-02,3.8128543853759766e+01,9.2328554019331932e-03,2.1514954045414925e-02,4.1478648781776428e-03,-1.0671737603843212e-02,3.5593197345733643e+00,2.6442784816026688e-02,4.0208786725997925e-02,-3.3219553530216217e-02,2.2449856624007225e-02,5.2266665734350681e-03,1.3282571453601122e-03,-1.6759000718593597e-02],
"split_indices":[8,7,0,16,0,0,0,17,0,7,15,0,3,0,0,16,0,4,0,0,0,0,0],
"split_type":[0,0,0,0,0,0,0,0,0,0,0,0,0,0,0,0,0,0,0,0,0,0,0],
"sum_hessian":[0.0,0.0,0.0,0.0,0.0,0.0,0.0,0.0,0.0,0.0,0.0,0.0,0.0,0.0,0.0,0.0,0.0,0.0,0.0,0.0,0.0,0.0,0.0],
"tree_param":{"num_deleted":"0","num_feature":"18","num_nodes":"23","size_leaf_vector":"0"}
},
{
"base_weights":[0.0,0.0,0.0,0.0,0.0,0.0,0.0,0.0,0.0,0.0,0.0,0.0,0.0,0.0,0.0,0.0,0.0,0.0,0.0,0.0,0.0,0.0,0.0,0.0,0.0],
"categories":[],"categories_nodes":[],"categories_segments":[],"categories_sizes":[],
"default_left":[true,true,true,true,false,false,true,true,true,false,true,false,false,true,true,false,false,true,true,false,false,false,false,false,false],
"id":33,
"left_children":[1,3,5,7,-1,-1,9,11,13,-1,15,-1,-1,17,19,-1,-1,21,23,-1,-1,-1,-1,-1,-1],
"loss_changes":[0.0,0.0,0.0,0.0,0.0,0.0,0.0,0.0,0.0,0.0,0.0,0.0,0.0,0.0,0.0,0.0,0.0,0.0,0.0,0.0,0.0,0.0,0.0,0.0,0.0],
"parents":[2147483647,0,0,1,1,2,2,3,3,6,6,7,7,8,8,10,10,13,13,14,14,17,17,18,18],
"right_children":[2,4,6,8,-1,-1,10,12,14,-1,16,-1,-1,18,20,-1,-1,22,24,-1,-1,-1,-1,-1,-1],
"split_conditions":[1.6902309656143188e+00,3.5059759616851807e+00,9.1080093383789062e+00,1.5802696347236633e-02,-2.8872154653072357e-02,-3.3011332154273987e-02,1.8201624974608421e-02,6.5209619700908661e-02,3.5021202087402344e+01,5.3414525464177132e-03,5.8014793395996094e+00,8.9980373159050941e-03,-1.6557622700929642e-02,9.0728288888931274e-01,9.9010270833969116e-01,-6.7512257955968380e-03,-2.4859242141246796e-02,1.0580912232398987e-02,1.3598906517028809e+01,6.9869169965386391e-03,2.5505520403385162e-02,1.4537185430526733e-02,-4.3730600737035275e-03,1.6300013288855553e-02,2.4497145786881447e-02],
"split_indices":[12,8,15,2,0,0,4,7,15,0,9,0,0,6,1,0,0,3,15,0,0,0,0,0,0],
"split_type":[0,0,0,0,0,0,0,0,0,0,0,0,0,0,0,0,0,0,0,0,0,0,0,0,0],
"sum_hessian":[0.0,0.0,0.0,0.0,0.0,0.0,0.0,0.0,0.0,0.0,0.0,0.0,0.0,0.0,0.0,0.0,0.0,0.0,0.0,0.0,0.0,0.0,0.0,0.0,0.0],
"tree_param":{"num_deleted":"0","num_feature":"18","num_nodes":"25","size_leaf_vector":"0"}
},
{
"base_weights":[0.0,0.0,0.0,0.0,0.0,0.0,0.0,0.0,0.0,0.0,0.0,0.0,0.0,0.0,0.0,0.0,0.0,0.0,0.0],
"categories":[],"categories_nodes":[],"categories_segments":[],"categories_sizes":[],
"default_left":[true,true,true,true,false,false,true,true,false,false,false,false,true,true,true,false,false,false,false],
"id":34,
"left_children":[1,3,5,7,-1,-1,9,11,-1,-1,-1,-1,13,15,17,-1,-1,-1,-1],
"loss_changes":[0.0,0.0,0.0,0.0,0.0,0.0,0.0,0.0,0.0,0.0,0.0,0.0,0.0,0.0,0.0,0.0,0.0,0.0,0.0],
"parents":[2147483647,0,0,1,1,2,2,3,3,6,6,7,7,12,12,13,13,14,14],
"right_children":[2,4,6,8,-1,-1,10,12,-1,-1,-1,-1,14,16,18,-1,-1,-1,-1],
"split_conditions":[7.2228803634643555e+00,3.1605392694473267e-02,4.9017634242773056e-02,2.6250930503010750e-02,-2.7553781867027283e-02,-3.1729105859994888e-02,3.6826529502868652e+00,1.3879798352718353e-02,-1.8076697364449501e-02,-6.5364236943423748e-03,-3.5999447107315063e-02,-6.8331807851791382e-03,2.3939092636108398e+01,5.5848318338394165e-01,4.3956436157226562e+01,6.7760762758553028e-03,-1.5696091577410698e-02,1.2352689169347286e-02,2.3817360401153564e-02],
"split_indices":[13,2,17,2,0,0,12,2,0,0,0,0,15,8,15,0,0,0,0],
"split_type":[0,0,0,0,0,0,0,0,0,0,0,0,0,0,0,0,0,0,0],
"sum_hessian":[0.0,0.0,0.0,0.0,0.0,0.0,0.0,0.0,0.0,0.0,0.0,0.0,0.0,0.0,0.0,0.0,0.0,0.0,0.0],
"tree_param":{"num_deleted":"0","num_feature":"18","num_nodes":"19","size_leaf_vector":"0"}
},
{
"base_weights":[0.0,0.0,0.0,0.0,0.0,0.0,0.0,0.0,0.0,0.0,0.0,0.0,0.0,0.0,0.0,0.0,0.0,0.0,0.0,0.0,0.0,0.0,0.0,0.0,0.0,0.0,0.0],
"categories":[],"categories_nodes":[],"categories_segments":[],"categories_sizes":[],
"default_left":[true,true,true,true,false,true,true,false,true,false,true,true,false,true,false,false,true,false,true,false,false,false,true,false,false,false,false],
"id":35,
"left_children":[1,3,5,7,-1,9,11,-1,13,-1,15,17,-1,19,-1,-1,21,-1,23,-1,-1,-1,25,-1,-1,-1,-1],
"loss_changes":[0.0,0.0,0.0,0.0,0.0,0.0,0.0,0.0,0.0,0.0,0.0,0.0,0.0,0.0,0.0,0.0,0.0,0.0,0.0,0.0,0.0,0.0,0.0,0.0,0.0,0.0,0.0],
"parents":[2147483647,0,0,1,1,2,2,3,3,5,5,6,6,8,8,10,10,11,11,13,13,16,16,18,18,22,22],
"right_children":[2,4,6,8,-1,10,12,-1,14,-1,16,18,-1,20,-1,-1,22,-1,24,-1,-1,-1,26,-1,-1,-1,-1],
"split_conditions":[1.8681127578020096e-02,4.7847204208374023e+00,5.9352622032165527e+00,9.7002234542742372e-04,-4.1427398100495338e-03,1.0752449743449688e-02,4.2460670471191406e+01,3.5584429278969765e-03,3.2232863903045654e+00,8.4120798856019974e-03,8.7325555086135864e-01,2.0307222366333008e+01,7.7625259291380644e-04,2.1353199005126953e+01,1.0746107436716557e-02,-1.4142641797661781e-02,1.0868531227111816e+01,-3.4936293959617615e-02,3.3711515367031097e-02,2.4503767490386963e-02,3.1019249930977821e-02,-1.0525139980018139e-02,3.5854890942573547e-01,-6.3017681241035461e-03,-2.0990183576941490e-02,9.5171974971890450e-03,-1.6802824102342129e-03],
"split_indices":[4,16,9,17,0,3,15,0,16,0,1,15,0,15,0,0,15,0,4,0,0,0,8,0,0,0,0],
"split_type":[0,0,0,0,0,0,0,0,0,0,0,0,0,0,0,0,0,0,0,0,0,0,0,0,0,0,0],
"sum_hessian":[0.0,0.0,0.0,0.0,0.0,0.0,0.0,0.0,0.0,0.0,0.0,0.0,0.0,0.0,0.0,0.0,0.0,0.0,0.0,0.0,0.0,0.0,0.0,0.0,0.0,0.0,0.0],
"tree_param":{"num_deleted":"0","num_feature":"18","num_nodes":"27","size_leaf_vector":"0"}
},
{
"base_weights":[0.0,0.0,0.0,0.0,0.0,0.0,0.0,0.0,0.0,0.0,0.0,0.0,0.0,0.0,0.0,0.0,0.0],
"categories":[],"categories_nodes":[],"categories_segments":[],"categories_sizes":[],
"default_left":[true,true,false,true,false,true,false,true,true,true,false,false,true,false,false,false,false],
"id":36,
"left_children":[1,3,-1,5,-1,7,-1,9,11,13,-1,-1,15,-1,-1,-1,-1],
"loss_changes":[0.0,0.0,0.0,0.0,0.0,0.0,0.0,0.0,0.0,0.0,0.0,0.0,0.0,0.0,0.0,0.0,0.0],
"parents":[2147483647,0,0,1,1,3,3,5,5,7,7,8,8,9,9,12,12],
"right_children":[2,4,-1,6,-1,8,-1,10,12,14,-1,-1,16,-1,-1,-1,-1],
"split_conditions":[2.1578702330589294e-01,3.1605392694473267e-02,-2.1071393042802811e-02,2.6945902034640312e-02,-2.9365714639425278e-02,1.4841983795166016e+01,-2.5900568813085556e-02,1.3890154361724854e+00,1.2806316837668419e-02,1.5998630523681641e+00,-1.4038045890629292e-02,-5.4548396728932858e-03,9.0803921222686768e-01,1.1058753356337547e-02,-1.5321109676733613e-03,1.3585877604782581e-03,1.3810671865940094e-02],
"split_indices":[7,2,0,2,0,15,0,13,2,9,0,0,1,0,0,0,0],
"split_type":[0,0,0,0,0,0,0,0,0,0,0,0,0,0,0,0,0],
"sum_hessian":[0.0,0.0,0.0,0.0,0.0,0.0,0.0,0.0,0.0,0.0,0.0,0.0,0.0,0.0,0.0,0.0,0.0],
"tree_param":{"num_deleted":"0","num_feature":"18","num_nodes":"17","size_leaf_vector":"0"}
},
{
"base_weights":[0.0,0.0,0.0,0.0,0.0,0.0,0.0,0.0,0.0,0.0,0.0,0.0,0.0,0.0,0.0,0.0,0.0,0.0,0.0,0.0,0.0],
"categories":[],"categories_nodes":[],"categories_segments":[],"categories_sizes":[],
"default_left":[true,true,true,true,false,false,false,true,true,false,true,true,false,true,false,false,true,false,false,false,false],
"id":37,
"left_children":[1,3,5,7,-1,-1,-1,9,11,-1,13,15,-1,17,-1,-1,19,-1,-1,-1,-1],
"loss_changes":[0.0,0.0,0.0,0.0,0.0,0.0,0.0,0.0,0.0,0.0,0.0,0.0,0.0,0.0,0.0,0.0,0.0,0.0,0.0,0.0,0.0],
"parents":[2147483647,0,0,1,1,2,2,3,3,7,7,8,8,10,10,11,11,13,13,16,16],
"right_children":[2,4,6,8,-1,-1,-1,10,12,-1,14,16,-1,18,-1,-1,20,-1,-1,-1,-1],
"split_conditions":[9.0771311521530151e-01,1.6054493713378906e+02,9.1757881164550781e+01,5.8432930707931519e-01,-2.0344791933894157e-02,8.6148511618375778e-03,2.0295154303312302e-02,4.7704383850097656e+01,3.4848045349121094e+01,1.3016092590987682e-02,3.8450676947832108e-02,1.9191671371459961e+01,2.3161678109318018e-03,1.2744190216064453e+01,-1.5749908983707428e-02,-2.7089620009064674e-02,8.9954972267150879e-02,-7.5801890343427658e-03,7.7467001974582672e-03,-5.6541957892477512e-03,-1.9233083352446556e-02],
"split_indices":[6,0,0,8,0,0,0,0,15,0,4,15,0,15,0,0,7,0,0,0,0],
"split_type":[0,0,0,0,0,0,0,0,0,0,0,0,0,0,0,0,0,0,0,0,0],
"sum_hessian":[0.0,0.0,0.0,0.0,0.0,0.0,0.0,0.0,0.0,0.0,0.0,0.0,0.0,0.0,0.0,0.0,0.0,0.0,0.0,0.0,0.0],
"tree_param":{"num_deleted":"0","num_feature":"18","num_nodes":"21","size_leaf_vector":"0"}
},
{
"base_weights":[0.0,0.0,0.0,0.0,0.0,0.0,0.0,0.0,0.0,0.0,0.0,0.0,0.0,0.0,0.0,0.0,0.0,0.0,0.0,0.0,0.0,0.0,0.0,0.0,0.0,0.0,0.0,0.0,0.0],
"categories":[],"categories_nodes":[],"categories_segments":[],"categories_sizes":[],
"default_left":[true,true,true,true,false,true,true,false,true,false,true,true,true,false,false,true,false,true,true,true,false,false,false,false,false,false,false,false,false],
"id":38,
"left_children":[1,3,5,7,-1,9,11,-1,13,-1,15,17,19,-1,-1,21,-1,23,25,27,-1,-1,-1,-1,-1,-1,-1,-1,-1],
"loss_changes":[0.0,0.0,0.0,0.0,0.0,0.0,0.0,0.0,0.0,0.0,0.0,0.0,0.0,0.0,0.0,0.0,0.0,0.0,0.0,0.0,0.0,0.0,0.0,0.0,0.0,0.0,0.0,0.0,0.0],
"parents":[2147483647,0,0,1,1,2,2,3,3,5,5,6,6,8,8,10,10,11,11,12,12,15,15,17,17,18,18,19,19],
"right_children":[2,4,6,8,-1,10,12,-1,14,-1,16,18,20,-1,-1,22,-1,24,26,28,-1,-1,-1,-1,-1,-1,-1,-1,-1],
"split_conditions":[1.4285567216575146e-02,4.2758579254150391e+00,2.0373456478118896e+00,9.7002234542742372e-04,-3.1271655461750925e-04,5.9528884887695312e+01,3.1487688064575195e+01,4.2698974721133709e-03,2.2980983734130859e+01,9.4728926196694374e-03,3.1753648072481155e-02,9.4971671700477600e-02,1.0031724929809570e+01,1.8200160935521126e-02,2.5248708203434944e-02,1.2697470092773438e+02,-1.1841548606753349e-02,6.7724704742431641e-02,6.8402916193008423e-01,1.1051685810089111e+00,-1.2849509716033936e-02,6.3229305669665337e-03,-3.1914783176034689e-03,-1.2756006792187691e-02,-2.9726456850767136e-02,-1.7836168408393860e-02,-3.1183017417788506e-03,9.2154750600457191e-03,-4.7712689265608788e-03],
"split_indices":[4,16,13,17,0,0,15,0,15,0,4,17,9,0,0,0,0,7,6,8,0,0,0,0,0,0,0,0,0],
"split_type":[0,0,0,0,0,0,0,0,0,0,0,0,0,0,0,0,0,0,0,0,0,0,0,0,0,0,0,0,0],
"sum_hessian":[0.0,0.0,0.0,0.0,0.0,0.0,0.0,0.0,0.0,0.0,0.0,0.0,0.0,0.0,0.0,0.0,0.0,0.0,0.0,0.0,0.0,0.0,0.0,0.0,0.0,0.0,0.0,0.0,0.0],
"tree_param":{"num_deleted":"0","num_feature":"18","num_nodes":"29","size_leaf_vector":"0"}
},
{
"base_weights":[0.0,0.0,0.0,0.0,0.0,0.0,0.0,0.0,0.0,0.0,0.0,0.0,0.0,0.0,0.0,0.0,0.0,0.0,0.0],
"categories":[],"categories_nodes":[],"categories_segments":[],"categories_sizes":[],
"default_left":[true,true,false,true,true,true,true,false,false,true,true,false,false,false,false,true,false,false,false],
"id":39,
"left_children":[1,3,-1,5,7,9,11,-1,-1,13,15,-1,-1,-1,-1,17,-1,-1,-1],
"loss_changes":[0.0,0.0,0.0,0.0,0.0,0.0,0.0,0.0,0.0,0.0,0.0,0.0,0.0,0.0,0.0,0.0,0.0,0.0,0.0],
"parents":[2147483647,0,0,1,1,3,3,4,4,5,5,6,6,9,9,10,10,15,15],
"right_children":[2,4,-1,6,8,10,12,-1,-1,14,16,-1,-1,-1,-1,18,-1,-1,-1],
"split_conditions":[2.5234112143516541e-01,2.7268700599670410e+00,-2.4530889466404915e-02,7.3078303337097168e+00,5.4346756935119629e+00,4.8620018060319126e-04,5.9004882812500000e+01,-1.0887645184993744e-02,-3.6472439765930176e-02,-1.5646882057189941e+00,3.8299140930175781e+01,2.9231123626232147e-03,-1.5706969425082207e-02,4.8659075982868671e-03,-8.4435045719146729e-03,3.8164315223693848e+00,1.7932623624801636e-02,1.6959967091679573e-02,1.4378163032233715e-03],
"split_indices":[7,8,0,16,8,17,0,0,0,14,15,0,0,0,0,16,0,0,0],
"split_type":[0,0,0,0,0,0,0,0,0,0,0,0,0,0,0,0,0,0,0],
"sum_hessian":[0.0,0.0,0.0,0.0,0.0,0.0,0.0,0.0,0.0,0.0,0.0,0.0,0.0,0.0,0.0,0.0,0.0,0.0,0.0],
"tree_param":{"num_deleted":"0","num_feature":"18","num_nodes":"19","size_leaf_vector":"0"}
},
{
"base_weights":[0.0,0.0,0.0,0.0,0.0,0.0,0.0,0.0,0.0,0.0,0.0,0.0,0.0,0.0,0.0,0.0,0.0,0.0,0.0,0.0,0.0],
"categories":[],"categories_nodes":[],"categories_segments":[],"categories_sizes":[],
"default_left":[true,true,true,true,false,false,true,true,false,true,false,true,false,false,true,true,false,false,false,false,false],
"id":40,
"left_children":[1,3,5,7,-1,-1,9,11,-1,13,-1,15,-1,-1,17,19,-1,-1,-1,-1,-1],
"loss_changes":[0.0,0.0,0.0,0.0,0.0,0.0,0.0,0.0,0.0,0.0,0.0,0.0,0.0,0.0,0.0,0.0,0.0,0.0,0.0,0.0,0.0],
"parents":[2147483647,0,0,1,1,2,2,3,3,6,6,7,7,9,9,11,11,14,14,15,15],
"right_children":[2,4,6,8,-1,-1,10,12,-1,14,-1,16,-1,-1,18,20,-1,-1,-1,-1,-1],
"split_conditions":[1.2073078155517578e+00,3.1164228916168213e+00,7.8936080932617188e+00,1.2075188636779785e+01,-2.0675973966717720e-02,-2.9184658080339432e-02,8.3191614151000977e+00,4.9450043588876724e-02,-9.3137156218290329e-03,9.6559423208236694e-01,-2.9607327654957771e-02,1.1767892539501190e-01,-2.6440615765750408e-03,-7.5861206278204918e-03,4.6857752799987793e+00,5.4137310981750488e+00,1.5254095196723938e-02,1.1778478510677814e-02,-5.1464154385030270e-03,1.0307507589459419e-02,-2.9877051711082458e-03],
"split_indices":[12,8,15,9,0,0,13,4,0,1,0,17,0,0,16,16,0,0,0,0,0],
"split_type":[0,0,0,0,0,0,0,0,0,0,0,0,0,0,0,0,0,0,0,0,0],
"sum_hessian":[0.0,0.0,0.0,0.0,0.0,0.0,0.0,0.0,0.0,0.0,0.0,0.0,0.0,0.0,0.0,0.0,0.0,0.0,0.0,0.0,0.0],
"tree_param":{"num_deleted":"0","num_feature":"18","num_nodes":"21","size_leaf_vector":"0"}
},
{
"base_weights":[0.0,0.0,0.0,0.0,0.0,0.0,0.0,0.0,0.0,0.0,0.0,0.0,0.0,0.0,0.0,0.0,0.0,0.0,0.0,0.0,0.0,0.0,0.0,0.0,0.0,0.0,0.0,0.0,0.0],
"categories":[],"categories_nodes":[],"categories_segments":[],"categories_sizes":[],
"default_left":[true,true,true,true,true,false,true,true,false,true,true,true,false,false,false,false,false,true,true,false,false,false,true,true,false,false,false,false,false],
"id":41,
"left_children":[1,3,5,7,9,-1,11,13,-1,15,17,19,-1,-1,-1,-1,-1,21,23,-1,-1,-1,25,27,-1,-1,-1,-1,-1],
"loss_changes":[0.0,0.0,0.0,0.0,0.0,0.0,0.0,0.0,0.0,0.0,0.0,0.0,0.0,0.0,0.0,0.0,0.0,0.0,0.0,0.0,0.0,0.0,0.0,0.0,0.0,0.0,0.0,0.0,0.0],
"parents":[2147483647,0,0,1,1,2,2,3,3,4,4,6,6,7,7,9,9,10,10,11,11,17,17,18,18,22,22,23,23],
"right_children":[2,4,6,8,10,-1,12,14,-1,16,18,20,-1,-1,-1,-1,-1,22,24,-1,-1,-1,26,28,-1,-1,-1,-1,-1],
"split_conditions":[1.0494560003280640e-01,1.0580912232398987e-02,2.0346063613891602e+01,2.9342773437500000e+01,9.5543068647384644e-01,-2.5062555447220802e-02,1.3053328514099121e+01,1.6668184995651245e+00,1.6416143625974655e-02,8.8349677622318268e-02,4.6857752799987793e+00,6.9715142250061035e-01,-1.6271233558654785e-02,1.2427968904376030e-02,3.1209422741085291e-03,-2.2980850189924240e-02,-4.5516043901443481e-03,1.0956210136413574e+01,1.8856812268495560e-02,-1.1481191031634808e-02,3.7066249642521143e-03,2.5203882250934839e-03,2.7629018783569336e+01,3.6730092763900757e-01,-1.3748603872954845e-02,1.3101336546242237e-02,2.1343771368265152e-02,3.7599045317620039e-03,-2.4085089098662138e-03],
"split_indices":[7,3,15,15,1,0,9,13,0,17,16,6,0,0,0,0,0,15,3,0,0,0,15,12,0,0,0,0,0],
"split_type":[0,0,0,0,0,0,0,0,0,0,0,0,0,0,0,0,0,0,0,0,0,0,0,0,0,0,0,0,0],
"sum_hessian":[0.0,0.0,0.0,0.0,0.0,0.0,0.0,0.0,0.0,0.0,0.0,0.0,0.0,0.0,0.0,0.0,0.0,0.0,0.0,0.0,0.0,0.0,0.0,0.0,0.0,0.0,0.0,0.0,0.0],
"tree_param":{"num_deleted":"0","num_feature":"18","num_nodes":"29","size_leaf_vector":"0"}
},
{
"base_weights":[0.0,0.0,0.0,0.0,0.0,0.0,0.0,0.0,0.0,0.0,0.0,0.0,0.0,0.0,0.0,0.0,0.0,0.0,0.0,0.0,0.0],
"categories":[],"categories_nodes":[],"categories_segments":[],"categories_sizes":[],
"default_left":[true,true,true,true,false,false,false,false,true,true,true,true,true,true,false,false,false,false,false,false,false],
"id":42,
"left_children":[1,3,5,7,-1,-1,-1,-1,9,11,13,15,17,19,-1,-1,-1,-1,-1,-1,-1],
"loss_changes":[0.0,0.0,0.0,0.0,0.0,0.0,0.0,0.0,0.0,0.0,0.0,0.0,0.0,0.0,0.0,0.0,0.0,0.0,0.0,0.0,0.0],
"parents":[2147483647,0,0,1,1,2,2,3,3,8,8,9,9,10,10,11,11,12,12,13,13],
"right_children":[2,4,6,8,-1,-1,-1,-1,10,12,14,16,18,20,-1,-1,-1,-1,-1,-1,-1],
"split_conditions":[3.1605392694473267e-02,2.7324976399540901e-02,9.5650899410247803e-01,1.0200778022408485e-02,-2.7756739407777786e-02,-4.3016195297241211e-02,-1.4325479045510292e-02,-9.1985072940587997e-03,2.9826463699340820e+01,3.7232211232185364e-01,5.8617897033691406e+00,4.3579630851745605e+00,1.4577810287475586e+01,4.4586002349853516e+01,7.3955778498202562e-04,8.7221674621105194e-03,-4.4258842244744301e-03,-2.1203087642788887e-02,-4.5951209031045437e-03,1.0538806207478046e-02,1.9028134644031525e-02],
"split_indices":[2,2,1,2,0,0,0,0,15,8,13,9,15,15,0,0,0,0,0,0,0],
"split_type":[0,0,0,0,0,0,0,0,0,0,0,0,0,0,0,0,0,0,0,0,0],
"sum_hessian":[0.0,0.0,0.0,0.0,0.0,0.0,0.0,0.0,0.0,0.0,0.0,0.0,0.0,0.0,0.0,0.0,0.0,0.0,0.0,0.0,0.0],
"tree_param":{"num_deleted":"0","num_feature":"18","num_nodes":"21","size_leaf_vector":"0"}
},
{
"base_weights":[0.0,0.0,0.0,0.0,0.0,0.0,0.0,0.0,0.0,0.0,0.0,0.0,0.0,0.0,0.0,0.0,0.0,0.0,0.0],
"categories":[],"categories_nodes":[],"categories_segments":[],"categories_sizes":[],
"default_left":[true,true,true,false,true,false,false,true,true,false,false,true,false,true,true,false,false,false,false],
"id":43,
"left_children":[1,3,5,-1,7,-1,-1,9,11,-1,-1,13,-1,15,17,-1,-1,-1,-1],
"loss_changes":[0.0,0.0,0.0,0.0,0.0,0.0,0.0,0.0,0.0,0.0,0.0,0.0,0.0,0.0,0.0,0.0,0.0,0.0,0.0],
"parents":[2147483647,0,0,1,1,2,2,4,4,7,7,8,8,11,11,13,13,14,14],
"right_children":[2,4,6,-1,8,-1,-1,10,12,-1,-1,14,-1,16,18,-1,-1,-1,-1],
"split_conditions":[9.1137689352035522e-01,7.1562929153442383e+00,9.8497169494628906e+01,-1.5348642133176327e-02,1.6977880001068115e+00,7.3772273026406765e-03,1.9039247184991837e-02,1.1359233093261719e+02,4.3409698486328125e+01,8.8995350524783134e-03,-6.0776378959417343e-03,7.1822972297668457e+00,7.9908799380064011e-03,1.0274582542479038e-02,2.7085840225219727e+01,6.3126939348876476e-03,-5.8480468578636646e-03,-2.8095241636037827e-02,-1.0017755441367626e-02],
"split_indices":[6,15,0,0,13,0,0,0,15,0,0,9,0,3,15,0,0,0,0],
"split_type":[0,0,0,0,0,0,0,0,0,0,0,0,0,0,0,0,0,0,0],
"sum_hessian":[0.0,0.0,0.0,0.0,0.0,0.0,0.0,0.0,0.0,0.0,0.0,0.0,0.0,0.0,0.0,0.0,0.0,0.0,0.0],
"tree_param":{"num_deleted":"0","num_feature":"18","num_nodes":"19","size_leaf_vector":"0"}
},
{
"base_weights":[0.0,0.0,0.0,0.0,0.0,0.0,0.0,0.0,0.0,0.0,0.0,0.0,0.0,0.0,0.0,0.0,0.0],
"categories":[],"categories_nodes":[],"categories_segments":[],"categories_sizes":[],
"default_left":[true,true,true,true,false,false,true,true,false,false,false,true,false,true,false,false,false],
"id":44,
"left_children":[1,3,5,7,-1,-1,9,11,-1,-1,-1,13,-1,15,-1,-1,-1],
"loss_changes":[0.0,0.0,0.0,0.0,0.0,0.0,0.0,0.0,0.0,0.0,0.0,0.0,0.0,0.0,0.0,0.0,0.0],
"parents":[2147483647,0,0,1,1,2,2,3,3,6,6,7,7,11,11,13,13],
"right_children":[2,4,6,8,-1,-1,10,12,-1,-1,-1,14,-1,16,-1,-1,-1],
"split_conditions":[1.5682882070541382e-01,2.3807052522897720e-02,2.3549486160278320e+01,5.6056931614875793e-02,-1.3272522948682308e-02,-2.6315828785300255e-02,2.4269127845764160e-01,2.7268700599670410e+00,-7.0080044679343700e-03,-6.0257082805037498e-04,-1.4496425166726112e-02,1.2543964385986328e-01,-1.2482124380767345e-02,5.0038142204284668e+00,1.3241658918559551e-02,9.2132762074470520e-03,-1.2105717323720455e-03],
"split_indices":[7,3,15,4,0,0,7,8,0,0,0,17,0,16,0,0,0],
"split_type":[0,0,0,0,0,0,0,0,0,0,0,0,0,0,0,0,0],
"sum_hessian":[0.0,0.0,0.0,0.0,0.0,0.0,0.0,0.0,0.0,0.0,0.0,0.0,0.0,0.0,0.0,0.0,0.0],
"tree_param":{"num_deleted":"0","num_feature":"18","num_nodes":"17","size_leaf_vector":"0"}
},
{
"base_weights":[0.0,0.0,0.0,0.0,0.0,0.0,0.0,0.0,0.0,0.0,0.0,0.0,0.0,0.0,0.0,0.0,0.0],
"categories":[],"categories_nodes":[],"categories_segments":[],"categories_sizes":[],
"default_left":[true,true,true,false,false,true,true,false,false,true,false,true,false,false,true,false,false],
"id":45,
"left_children":[1,3,5,-1,-1,7,9,-1,-1,11,-1,13,-1,-1,15,-1,-1],
"loss_changes":[0.0,0.0,0.0,0.0,0.0,0.0,0.0,0.0,0.0,0.0,0.0,0.0,0.0,0.0,0.0,0.0,0.0],
"parents":[2147483647,0,0,1,1,2,2,5,5,6,6,9,9,11,11,14,14],
"right_children":[2,4,6,-1,-1,8,10,-1,-1,12,-1,14,-1,-1,16,-1,-1],
"split_conditions":[1.2087788432836533e-02,2.1330644607543945e+01,7.0675341412425041e-03,7.0533454418182373e-03,1.2003290466964245e-02,-1.5606733560562134e+00,2.4085599929094315e-02,-2.1289333235472441e-03,-1.9559755921363831e-02,3.2597310543060303e+00,-1.9392488524317741e-02,3.9755142211914062e+01,-1.3105139136314392e-02,1.1075614020228386e-02,1.5805820003151894e-02,-9.6699986606836319e-03,4.3591107241809368e-03],
"split_indices":[4,15,16,0,0,14,3,0,0,12,0,0,0,0,2,0,0],
"split_type":[0,0,0,0,0,0,0,0,0,0,0,0,0,0,0,0,0],
"sum_hessian":[0.0,0.0,0.0,0.0,0.0,0.0,0.0,0.0,0.0,0.0,0.0,0.0,0.0,0.0,0.0,0.0,0.0],
"tree_param":{"num_deleted":"0","num_feature":"18","num_nodes":"17","size_leaf_vector":"0"}
},
{
"base_weights":[0.0,0.0,0.0,0.0,0.0,0.0,0.0,0.0,0.0,0.0,0.0,0.0,0.0,0.0,0.0,0.0,0.0,0.0,0.0,0.0,0.0,0.0,0.0,0.0,0.0],
"categories":[],"categories_nodes":[],"categories_segments":[],"categories_sizes":[],
"default_left":[true,true,true,false,true,false,true,false,false,true,true,false,false,true,true,true,true,true,false,false,false,false,false,false,false],
"id":46,
"left_children":[1,3,5,-1,7,-1,9,-1,-1,11,13,-1,-1,15,17,19,21,23,-1,-1,-1,-1,-1,-1,-1],
"loss_changes":[0.0,0.0,0.0,0.0,0.0,0.0,0.0,0.0,0.0,0.0,0.0,0.0,0.0,0.0,0.0,0.0,0.0,0.0,0.0,0.0,0.0,0.0,0.0,0.0,0.0],
"parents":[2147483647,0,0,1,1,2,2,4,4,6,6,9,9,10,10,13,13,14,14,15,15,16,16,17,17],
"right_children":[2,4,6,-1,8,-1,10,-1,-1,12,14,-1,-1,16,18,20,22,24,-1,-1,-1,-1,-1,-1,-1],
"split_conditions":[6.7414414882659912e-01,4.5716472625732422e+01,8.2255911827087402e-01,1.1308050015941262e-03,4.4499631971120834e-02,-9.7902752459049225e-03,1.5802724286913872e-02,-1.4454809948801994e-02,-2.7281243354082108e-02,7.4461542069911957e-02,3.0865411758422852e+01,6.9224508479237556e-03,-1.7451012507081032e-02,3.7232211232185364e-01,4.4602611541748047e+01,1.7247362062335014e-02,1.6998340606689453e+01,4.9921780824661255e-01,2.2159574553370476e-02,1.0837446898221970e-02,-2.0513683557510376e-03,-2.0136324688792229e-02,-2.7498281560838223e-03,1.6022546216845512e-02,5.2196867763996124e-03],
"split_indices":[6,0,1,0,4,0,2,0,0,7,15,0,0,8,15,3,15,8,0,0,0,0,0,0,0],
"split_type":[0,0,0,0,0,0,0,0,0,0,0,0,0,0,0,0,0,0,0,0,0,0,0,0,0],
"sum_hessian":[0.0,0.0,0.0,0.0,0.0,0.0,0.0,0.0,0.0,0.0,0.0,0.0,0.0,0.0,0.0,0.0,0.0,0.0,0.0,0.0,0.0,0.0,0.0,0.0,0.0],
"tree_param":{"num_deleted":"0","num_feature":"18","num_nodes":"25","size_leaf_vector":"0"}
},
{
"base_weights":[0.0,0.0,0.0,0.0,0.0,0.0,0.0,0.0,0.0,0.0,0.0,0.0,0.0,0.0,0.0,0.0,0.0,0.0,0.0,0.0,0.0,0.0,0.0,0.0,0.0],
"categories":[],"categories_nodes":[],"categories_segments":[],"categories_sizes":[],
"default_left":[true,true,true,true,false,false,true,false,true,true,false,true,true,true,false,true,false,false,true,false,false,false,false,false,false],
"id":47,
"left_children":[1,3,5,7,-1,-1,9,-1,11,13,-1,15,17,19,-1,21,-1,-1,23,-1,-1,-1,-1,-1,-1],
"loss_changes":[0.0,0.0,0.0,0.0,0.0,0.0,0.0,0.0,0.0,0.0,0.0,0.0,0.0,0.0,0.0,0.0,0.0,0.0,0.0,0.0,0.0,0.0,0.0,0.0,0.0],
"parents":[2147483647,0,0,1,1,2,2,3,3,6,6,8,8,9,9,11,11,12,12,13,13,15,15,18,18],
"right_children":[2,4,6,8,-1,-1,10,-1,12,14,-1,16,18,20,-1,22,-1,-1,24,-1,-1,-1,-1,-1,-1],
"split_conditions":[1.2073078155517578e+00,3.1164228916168213e+00,7.7201218605041504e+00,1.5802696347236633e-02,-1.7717691138386726e-02,-2.5302553549408913e-02,8.4889402389526367e+00,-2.6999141555279493e-03,2.5887119293212891e+01,8.8746863603591919e-01,-2.6064265519380569e-02,3.0680921673774719e-01,9.4075077772140503e-01,4.4378185272216797e+00,-7.1814954280853271e-03,1.7193982377648354e-02,-8.1614442169666290e-03,9.5880095614120364e-04,5.0108814239501953e+00,6.6246679052710533e-03,-1.9615518394857645e-03,9.1623337939381599e-03,-2.8832340613007545e-03,2.1720420569181442e-02,6.2192776240408421e-03],
"split_indices":[12,8,15,2,0,0,13,0,15,8,0,8,1,9,0,3,0,0,16,0,0,0,0,0,0],
"split_type":[0,0,0,0,0,0,0,0,0,0,0,0,0,0,0,0,0,0,0,0,0,0,0,0,0],
"sum_hessian":[0.0,0.0,0.0,0.0,0.0,0.0,0.0,0.0,0.0,0.0,0.0,0.0,0.0,0.0,0.0,0.0,0.0,0.0,0.0,0.0,0.0,0.0,0.0,0.0,0.0],
"tree_param":{"num_deleted":"0","num_feature":"18","num_nodes":"25","size_leaf_vector":"0"}
},
{
"base_weights":[0.0,0.0,0.0,0.0,0.0,0.0,0.0,0.0,0.0,0.0,0.0,0.0,0.0,0.0,0.0],
"categories":[],"categories_nodes":[],"categories_segments":[],"categories_sizes":[],
"default_left":[true,true,false,true,false,true,false,false,true,true,true,false,false,false,false],
"id":48,
"left_children":[1,3,-1,5,-1,7,-1,-1,9,11,13,-1,-1,-1,-1],
"loss_changes":[0.0,0.0,0.0,0.0,0.0,0.0,0.0,0.0,0.0,0.0,0.0,0.0,0.0,0.0,0.0],
"parents":[2147483647,0,0,1,1,3,3,5,5,8,8,9,9,10,10],
"right_children":[2,4,-1,6,-1,8,-1,-1,10,12,14,-1,-1,-1,-1],
"split_conditions":[2.5823694467544556e-01,3.1605392694473267e-02,-2.0023852586746216e-02,2.7072260156273842e-02,-2.2659894078969955e-02,7.7252597548067570e-03,-2.2661631926894188e-02,-7.2588133625686169e-03,9.9132947921752930e+00,1.5577316284179688e+00,4.2038311004638672e+01,2.3883308749645948e-03,-1.8395943567156792e-02,5.2732331678271294e-03,1.4174992218613625e-02],
"split_indices":[7,2,0,2,0,2,0,0,15,9,15,0,0,0,0],
"split_type":[0,0,0,0,0,0,0,0,0,0,0,0,0,0,0],
"sum_hessian":[0.0,0.0,0.0,0.0,0.0,0.0,0.0,0.0,0.0,0.0,0.0,0.0,0.0,0.0,0.0],
"tree_param":{"num_deleted":"0","num_feature":"18","num_nodes":"15","size_leaf_vector":"0"}
},
{
"base_weights":[0.0,0.0,0.0,0.0,0.0,0.0,0.0,0.0,0.0,0.0,0.0,0.0,0.0,0.0,0.0,0.0,0.0,0.0,0.0,0.0,0.0],
"categories":[],"categories_nodes":[],"categories_segments":[],"categories_sizes":[],
"default_left":[true,true,true,true,false,true,true,false,true,false,false,false,true,false,false,false,true,false,true,false,false],
"id":49,
"left_children":[1,3,5,7,-1,9,11,-1,13,-1,-1,-1,15,-1,-1,-1,17,-1,19,-1,-1],
"loss_changes":[0.0,0.0,0.0,0.0,0.0,0.0,0.0,0.0,0.0,0.0,0.0,0.0,0.0,0.0,0.0,0.0,0.0,0.0,0.0,0.0,0.0],
"parents":[2147483647,0,0,1,1,2,2,3,3,5,5,6,6,8,8,12,12,16,16,18,18],
"right_children":[2,4,6,8,-1,10,12,-1,14,-1,-1,-1,16,-1,-1,-1,18,-1,20,-1,-1],
"split_conditions":[1.6668184995651245e+00,1.5325531005859375e+02,1.7695560455322266e+01,8.2919120788574219e+00,-6.9657377898693085e-03,2.8615500926971436e+00,1.0601300746202469e-01,1.5356775838881731e-04,1.5655078887939453e+00,-6.2154699116945267e-03,-2.5189040228724480e-02,-1.1444160714745522e-02,3.9361886978149414e+00,5.3997645154595375e-03,1.1534968391060829e-02,1.5525786206126213e-02,1.2428541667759418e-02,5.1444056443870068e-03,6.2566411495208740e-01,-2.4801932275295258e-02,-2.9482669197022915e-03],
"split_indices":[13,0,15,15,0,9,16,0,14,0,0,0,16,0,0,0,3,0,6,0,0],
"split_type":[0,0,0,0,0,0,0,0,0,0,0,0,0,0,0,0,0,0,0,0,0],
"sum_hessian":[0.0,0.0,0.0,0.0,0.0,0.0,0.0,0.0,0.0,0.0,0.0,0.0,0.0,0.0,0.0,0.0,0.0,0.0,0.0,0.0,0.0],
"tree_param":{"num_deleted":"0","num_feature":"18","num_nodes":"21","size_leaf_vector":"0"}
},
{
"base_weights":[0.0,0.0,0.0,0.0,0.0,0.0,0.0,0.0,0.0,0.0,0.0,0.0,0.0,0.0,0.0,0.0,0.0],
"categories":[],"categories_nodes":[],"categories_segments":[],"categories_sizes":[],
"default_left":[true,true,true,true,false,false,false,true,true,false,false,true,false,true,false,false,false],
"id":50,
"left_children":[1,3,5,7,-1,-1,-1,9,11,-1,-1,13,-1,15,-1,-1,-1],
"loss_changes":[0.0,0.0,0.0,0.0,0.0,0.0,0.0,0.0,0.0,0.0,0.0,0.0,0.0,0.0,0.0,0.0,0.0],
"parents":[2147483647,0,0,1,1,2,2,3,3,7,7,8,8,11,11,13,13],
"right_children":[2,4,6,8,-1,-1,-1,10,12,-1,-1,14,-1,16,-1,-1,-1],
"split_conditions":[9.1504073143005371e-01,1.8295603942871094e+02,1.0523646545410156e+02,1.1861322402954102e+01,-1.8663872033357620e-02,6.8848878145217896e-03,1.8692523241043091e-02,2.2319724559783936e+00,3.7007522583007812e+00,-1.5181587077677250e-03,-2.5781949982047081e-02,8.0004482269287109e+00,-2.4612395092844963e-02,9.6032217144966125e-02,-5.4927477613091469e-03,2.2567696869373322e-03,9.4868140295147896e-03],
"split_indices":[6,0,0,15,0,0,0,9,8,0,0,16,0,17,0,0,0],
"split_type":[0,0,0,0,0,0,0,0,0,0,0,0,0,0,0,0,0],
"sum_hessian":[0.0,0.0,0.0,0.0,0.0,0.0,0.0,0.0,0.0,0.0,0.0,0.0,0.0,0.0,0.0,0.0,0.0],
"tree_param":{"num_deleted":"0","num_feature":"18","num_nodes":"17","size_leaf_vector":"0"}
},
{
"base_weights":[0.0,0.0,0.0,0.0,0.0,0.0,0.0,0.0,0.0,0.0,0.0,0.0,0.0,0.0,0.0,0.0,0.0,0.0,0.0,0.0,0.0,0.0,0.0],
"categories":[],"categories_nodes":[],"categories_segments":[],"categories_sizes":[],
"default_left":[true,true,true,false,false,true,true,true,true,true,false,true,false,false,false,true,false,false,true,false,false,false,false],
"id":51,
"left_children":[1,3,5,-1,-1,7,9,11,13,15,-1,17,-1,-1,-1,19,-1,-1,21,-1,-1,-1,-1],
"loss_changes":[0.0,0.0,0.0,0.0,0.0,0.0,0.0,0.0,0.0,0.0,0.0,0.0,0.0,0.0,0.0,0.0,0.0,0.0,0.0,0.0,0.0,0.0,0.0],
"parents":[2147483647,0,0,1,1,2,2,5,5,6,6,7,7,8,8,9,9,11,11,15,15,18,18],
"right_children":[2,4,6,-1,-1,8,10,12,14,16,-1,18,-1,-1,-1,20,-1,-1,22,-1,-1,-1,-1],
"split_conditions":[1.2087788432836533e-02,8.0262123107910156e+01,9.9574476480484009e-02,6.1388825997710228e-03,1.1943332850933075e-02,9.0221732854843140e-01,4.8046107292175293e+00,1.6275199890136719e+02,1.5697541236877441e+00,4.9767259508371353e-02,-2.1313004195690155e-02,1.4848297119140625e+01,-1.8417103216052055e-02,1.2679890496656299e-03,1.0011951439082623e-02,1.3005456887185574e-02,-1.7004676628857851e-03,-1.2889932841062546e-02,2.1682496070861816e+00,1.5195383690297604e-02,3.7732596974819899e-03,2.8831020463258028e-03,-7.5602144934237003e-03],
"split_indices":[4,0,17,0,0,6,11,0,14,4,0,15,0,0,0,3,0,0,13,0,0,0,0],
"split_type":[0,0,0,0,0,0,0,0,0,0,0,0,0,0,0,0,0,0,0,0,0,0,0],
"sum_hessian":[0.0,0.0,0.0,0.0,0.0,0.0,0.0,0.0,0.0,0.0,0.0,0.0,0.0,0.0,0.0,0.0,0.0,0.0,0.0,0.0,0.0,0.0,0.0],
"tree_param":{"num_deleted":"0","num_feature":"18","num_nodes":"23","size_leaf_vector":"0"}
},
{
"base_weights":[0.0,0.0,0.0,0.0,0.0,0.0,0.0,0.0,0.0,0.0,0.0,0.0,0.0,0.0,0.0,0.0,0.0,0.0,0.0,0.0,0.0,0.0,0.0,0.0,0.0,0.0,0.0,0.0,0.0],
"categories":[],"categories_nodes":[],"categories_segments":[],"categories_sizes":[],
"default_left":[true,true,true,true,true,false,true,false,false,true,true,true,true,false,false,true,true,false,false,false,false,false,false,true,true,false,false,false,false],
"id":52,
"left_children":[1,3,5,7,9,-1,11,-1,-1,13,15,17,19,-1,-1,21,23,-1,-1,-1,-1,-1,-1,25,27,-1,-1,-1,-1],
"loss_changes":[0.0,0.0,0.0,0.0,0.0,0.0,0.0,0.0,0.0,0.0,0.0,0.0,0.0,0.0,0.0,0.0,0.0,0.0,0.0,0.0,0.0,0.0,0.0,0.0,0.0,0.0,0.0,0.0,0.0],
"parents":[2147483647,0,0,1,1,2,2,3,3,4,4,6,6,9,9,10,10,11,11,12,12,15,15,16,16,23,23,24,24],
"right_children":[2,4,6,8,10,-1,12,-1,-1,14,16,18,20,-1,-1,22,24,-1,-1,-1,-1,-1,-1,26,28,-1,-1,-1,-1],
"split_conditions":[9.5512293279170990e-02,9.9196052178740501e-03,1.5802696347236633e-02,1.5657933950424194e+00,9.1463112831115723e-01,-1.7560169100761414e-02,1.0151133537292480e+00,6.2528648413717747e-03,1.3956503942608833e-02,9.9835135042667389e-02,3.5691046714782715e+00,7.7611260116100311e-02,5.0108814239501953e+00,-1.6858866438269615e-02,-4.6094101853668690e-03,9.1854071617126465e-01,2.2903562545776367e+01,-2.3467449471354485e-02,-1.4110880438238382e-03,1.6042588278651237e-02,-5.1059760153293610e-03,9.1199027374386787e-03,2.2718995809555054e-02,7.7420011162757874e-02,3.3137859344482422e+01,-1.2726661749184132e-02,9.8071264801546931e-05,3.7611855077557266e-04,6.6944002173841000e-03],
"split_indices":[7,3,2,14,1,0,1,0,0,17,16,17,16,0,0,6,15,0,0,0,0,0,0,17,15,0,0,0,0],
"split_type":[0,0,0,0,0,0,0,0,0,0,0,0,0,0,0,0,0,0,0,0,0,0,0,0,0,0,0,0,0],
"sum_hessian":[0.0,0.0,0.0,0.0,0.0,0.0,0.0,0.0,0.0,0.0,0.0,0.0,0.0,0.0,0.0,0.0,0.0,0.0,0.0,0.0,0.0,0.0,0.0,0.0,0.0,0.0,0.0,0.0,0.0],
"tree_param":{"num_deleted":"0","num_feature":"18","num_nodes":"29","size_leaf_vector":"0"}
},
{
"base_weights":[0.0,0.0,0.0,0.0,0.0,0.0,0.0,0.0,0.0,0.0,0.0,0.0,0.0,0.0,0.0,0.0,0.0,0.0,0.0,0.0,0.0,0.0,0.0,0.0,0.0,0.0,0.0],
"categories":[],"categories_nodes":[],"categories_segments":[],"categories_sizes":[],
"default_left":[true,true,true,false,true,true,true,true,true,false,true,false,false,false,true,false,false,false,true,true,true,false,false,false,false,false,false],
"id":53,
"left_children":[1,3,5,-1,7,9,11,13,15,-1,17,-1,-1,-1,19,-1,-1,-1,21,23,25,-1,-1,-1,-1,-1,-1],
"loss_changes":[0.0,0.0,0.0,0.0,0.0,0.0,0.0,0.0,0.0,0.0,0.0,0.0,0.0,0.0,0.0,0.0,0.0,0.0,0.0,0.0,0.0,0.0,0.0,0.0,0.0,0.0,0.0],
"parents":[2147483647,0,0,1,1,2,2,4,4,5,5,6,6,7,7,8,8,10,10,14,14,18,18,19,19,20,20],
"right_children":[2,4,6,-1,8,10,12,14,16,-1,18,-1,-1,-1,20,-1,-1,-1,22,24,26,-1,-1,-1,-1,-1,-1],
"split_conditions":[5.8432930707931519e-01,4.6044788360595703e+01,3.7256095886230469e+01,9.9278474226593971e-03,3.6263365298509598e-02,1.0836097717285156e+01,1.4309488236904144e-02,1.5802724286913872e-02,9.0837121009826660e-01,-2.5288341566920280e-02,2.3769032955169678e+00,8.4738079458475113e-03,-2.0431415177881718e-03,-5.0852624699473381e-03,3.3994839191436768e+00,-1.6019515693187714e-02,-5.7077482342720032e-03,5.8602052740752697e-04,5.6948387145996094e+01,2.0865537643432617e+01,2.8150146484375000e+01,-1.7260737717151642e-02,-6.7750504240393639e-03,1.3789350166916847e-02,2.4737890809774399e-02,-2.9616525862365961e-03,8.4286984056234360e-03],
"split_indices":[8,0,15,0,4,15,3,2,1,0,13,0,0,0,16,0,0,0,0,15,15,0,0,0,0,0,0],
"split_type":[0,0,0,0,0,0,0,0,0,0,0,0,0,0,0,0,0,0,0,0,0,0,0,0,0,0,0],
"sum_hessian":[0.0,0.0,0.0,0.0,0.0,0.0,0.0,0.0,0.0,0.0,0.0,0.0,0.0,0.0,0.0,0.0,0.0,0.0,0.0,0.0,0.0,0.0,0.0,0.0,0.0,0.0,0.0],
"tree_param":{"num_deleted":"0","num_feature":"18","num_nodes":"27","size_leaf_vector":"0"}
},
{
"base_weights":[0.0,0.0,0.0,0.0,0.0,0.0,0.0,0.0,0.0,0.0,0.0,0.0,0.0,0.0,0.0,0.0,0.0,0.0,0.0,0.0,0.0,0.0,0.0,0.0,0.0,0.0,0.0],
"categories":[],"categories_nodes":[],"categories_segments":[],"categories_sizes":[],
"default_left":[true,true,true,true,true,false,true,false,false,false,true,false,true,false,true,true,true,true,false,false,false,false,true,false,false,false,false],
"id":54,
"left_children":[1,3,5,7,9,-1,11,-1,-1,-1,13,-1,15,-1,17,19,21,23,-1,-1,-1,-1,25,-1,-1,-1,-1],
"loss_changes":[0.0,0.0,0.0,0.0,0.0,0.0,0.0,0.0,0.0,0.0,0.0,0.0,0.0,0.0,0.0,0.0,0.0,0.0,0.0,0.0,0.0,0.0,0.0,0.0,0.0,0.0,0.0],
"parents":[2147483647,0,0,1,1,2,2,3,3,4,4,6,6,10,10,12,12,14,14,15,15,16,16,17,17,22,22],
"right_children":[2,4,6,8,10,-1,12,-1,-1,-1,14,-1,16,-1,18,20,22,24,-1,-1,-1,-1,26,-1,-1,-1,-1],
"split_conditions":[4.5026125907897949e+00,9.9196052178740501e-03,1.5802724286913872e-02,1.5657933950424194e+00,7.8325062990188599e-01,-1.2355256825685501e-02,1.9517162322998047e+01,5.9064710512757301e-03,1.2883907184004784e-02,-9.7594000399112701e-03,5.2917943000793457e+00,-2.1357860416173935e-02,9.8401623964309692e-01,-9.5338337123394012e-03,1.1169663667678833e+00,9.6036083996295929e-02,4.0638322830200195e+00,9.1979168355464935e-02,-5.2873878739774227e-03,-1.8778158351778984e-02,4.7038987395353615e-04,1.9810583442449570e-02,8.0381482839584351e-01,3.8367458619177341e-03,8.8785532861948013e-03,-5.9352992102503777e-03,5.7903700508177280e-03],
"split_indices":[9,3,2,14,1,0,15,0,0,0,15,0,1,0,8,17,16,17,0,0,0,0,6,0,0,0,0],
"split_type":[0,0,0,0,0,0,0,0,0,0,0,0,0,0,0,0,0,0,0,0,0,0,0,0,0,0,0],
"sum_hessian":[0.0,0.0,0.0,0.0,0.0,0.0,0.0,0.0,0.0,0.0,0.0,0.0,0.0,0.0,0.0,0.0,0.0,0.0,0.0,0.0,0.0,0.0,0.0,0.0,0.0,0.0,0.0],
"tree_param":{"num_deleted":"0","num_feature":"18","num_nodes":"27","size_leaf_vector":"0"}
},
{
"base_weights":[0.0,0.0,0.0,0.0,0.0,0.0,0.0,0.0,0.0,0.0,0.0,0.0,0.0,0.0,0.0,0.0,0.0],
"categories":[],"categories_nodes":[],"categories_segments":[],"categories_sizes":[],
"default_left":[true,true,false,true,false,true,true,false,false,true,false,true,true,false,false,false,false],
"id":55,
"left_children":[1,3,-1,5,-1,7,9,-1,-1,11,-1,13,15,-1,-1,-1,-1],
"loss_changes":[0.0,0.0,0.0,0.0,0.0,0.0,0.0,0.0,0.0,0.0,0.0,0.0,0.0,0.0,0.0,0.0,0.0],
"parents":[2147483647,0,0,1,1,3,3,5,5,6,6,9,9,11,11,12,12],
"right_children":[2,4,-1,6,-1,8,10,-1,-1,12,-1,14,16,-1,-1,-1,-1],
"split_conditions":[2.7120774984359741e-01,5.2589635848999023e+00,-1.9162520766258240e-02,6.1153774261474609e+00,-2.8899766504764557e-02,8.3340924978256226e-01,4.6471008300781250e+01,2.0085424184799194e-03,-2.1112825721502304e-02,4.2979483604431152e+00,1.2410259805619717e-02,9.9196052178740501e-03,7.2363817691802979e-01,1.0927040129899979e-02,2.2472322452813387e-03,-1.2405689805746078e-02,4.0673516923561692e-04],
"split_indices":[7,8,0,15,0,13,15,0,0,9,0,3,6,0,0,0,0],
"split_type":[0,0,0,0,0,0,0,0,0,0,0,0,0,0,0,0,0],
"sum_hessian":[0.0,0.0,0.0,0.0,0.0,0.0,0.0,0.0,0.0,0.0,0.0,0.0,0.0,0.0,0.0,0.0,0.0],
"tree_param":{"num_deleted":"0","num_feature":"18","num_nodes":"17","size_leaf_vector":"0"}
},
{
"base_weights":[0.0,0.0,0.0,0.0,0.0,0.0,0.0,0.0,0.0,0.0,0.0,0.0,0.0,0.0,0.0,0.0,0.0,0.0,0.0,0.0,0.0],
"categories":[],"categories_nodes":[],"categories_segments":[],"categories_sizes":[],
"default_left":[true,true,true,true,false,false,true,true,false,false,true,false,false,false,true,true,true,false,false,false,false],
"id":56,
"left_children":[1,3,5,7,-1,-1,9,11,-1,-1,13,-1,-1,-1,15,17,19,-1,-1,-1,-1],
"loss_changes":[0.0,0.0,0.0,0.0,0.0,0.0,0.0,0.0,0.0,0.0,0.0,0.0,0.0,0.0,0.0,0.0,0.0,0.0,0.0,0.0,0.0],
"parents":[2147483647,0,0,1,1,2,2,3,3,6,6,7,7,10,10,14,14,15,15,16,16],
"right_children":[2,4,6,8,-1,-1,10,12,-1,-1,14,-1,-1,-1,16,18,20,-1,-1,-1,-1],
"split_conditions":[1.6668184995651245e+00,1.5163388061523438e+02,1.1840412139892578e+01,3.6960504949092865e-02,-6.0291374102234840e-03,-1.5755970031023026e-02,1.0601300746202469e-01,9.9117269515991211e+00,-2.9340453329496086e-04,-1.0828933678567410e-02,3.8660929203033447e+00,4.4494988396763802e-03,9.1986758634448051e-03,1.2030744925141335e-02,1.8486149609088898e-02,8.5968822240829468e-02,7.3203885555267334e-01,-3.6105732433497906e-03,4.8066992312669754e-03,-2.6532208546996117e-02,-3.1152502633631229e-03],
"split_indices":[13,0,15,4,0,0,16,15,0,0,16,0,0,0,3,17,6,0,0,0,0],
"split_type":[0,0,0,0,0,0,0,0,0,0,0,0,0,0,0,0,0,0,0,0,0],
"sum_hessian":[0.0,0.0,0.0,0.0,0.0,0.0,0.0,0.0,0.0,0.0,0.0,0.0,0.0,0.0,0.0,0.0,0.0,0.0,0.0,0.0,0.0],
"tree_param":{"num_deleted":"0","num_feature":"18","num_nodes":"21","size_leaf_vector":"0"}
},
{
"base_weights":[0.0,0.0,0.0,0.0,0.0,0.0,0.0,0.0,0.0,0.0,0.0,0.0,0.0,0.0,0.0,0.0,0.0],
"categories":[],"categories_nodes":[],"categories_segments":[],"categories_sizes":[],
"default_left":[true,true,true,true,false,true,false,false,true,false,false,true,false,false,true,false,false],
"id":57,
"left_children":[1,3,5,7,-1,9,-1,-1,11,-1,-1,13,-1,-1,15,-1,-1],
"loss_changes":[0.0,0.0,0.0,0.0,0.0,0.0,0.0,0.0,0.0,0.0,0.0,0.0,0.0,0.0,0.0,0.0,0.0],
"parents":[2147483647,0,0,1,1,2,2,3,3,5,5,8,8,11,11,14,14],
"right_children":[2,4,6,8,-1,10,-1,-1,12,-1,-1,14,-1,-1,16,-1,-1],
"split_conditions":[1.0028546333312988e+01,4.0903053283691406e+00,3.9901756286621094e+01,4.6061329841613770e+00,-2.1882487460970879e-02,2.8317948803305626e-02,-1.1843592074001208e-04,-8.5829263553023338e-03,8.0640563964843750e+00,-7.1413591504096985e-03,-2.2274384275078773e-02,4.0300064720213413e-03,-3.8624550215899944e-03,-1.7145476303994656e-03,3.8578720092773438e+01,4.7009242698550224e-03,1.1998252943158150e-02],
"split_indices":[9,8,15,15,0,4,0,0,16,0,0,16,0,0,15,0,0],
"split_type":[0,0,0,0,0,0,0,0,0,0,0,0,0,0,0,0,0],
"sum_hessian":[0.0,0.0,0.0,0.0,0.0,0.0,0.0,0.0,0.0,0.0,0.0,0.0,0.0,0.0,0.0,0.0,0.0],
"tree_param":{"num_deleted":"0","num_feature":"18","num_nodes":"17","size_leaf_vector":"0"}
},
{
"base_weights":[0.0,0.0,0.0,0.0,0.0,0.0,0.0,0.0,0.0,0.0,0.0,0.0,0.0,0.0,0.0,0.0,0.0,0.0,0.0,0.0,0.0],
"categories":[],"categories_nodes":[],"categories_segments":[],"categories_sizes":[],
"default_left":[true,true,true,true,true,false,true,false,false,false,true,true,false,true,false,false,false,false,true,false,false],
"id":58,
"left_children":[1,3,5,7,9,-1,11,-1,-1,-1,13,15,-1,17,-1,-1,-1,-1,19,-1,-1],
"loss_changes":[0.0,0.0,0.0,0.0,0.0,0.0,0.0,0.0,0.0,0.0,0.0,0.0,0.0,0.0,0.0,0.0,0.0,0.0,0.0,0.0,0.0],
"parents":[2147483647,0,0,1,1,2,2,3,3,4,4,6,6,10,10,11,11,13,13,18,18],
"right_children":[2,4,6,8,10,-1,12,-1,-1,-1,14,16,-1,18,-1,-1,-1,-1,20,-1,-1],
"split_conditions":[9.5512293279170990e-02,9.9196052178740501e-03,1.5802696347236633e-02,-1.5655869245529175e+00,8.1263220310211182e-01,-1.4684384688735008e-02,6.4515943527221680e+00,1.1656688526272774e-02,4.6435468830168247e-03,-9.6419369801878929e-03,9.2233067750930786e-01,2.9610015869140625e+01,-1.9891045987606049e-02,8.1828565597534180e+00,1.5818623825907707e-02,-4.7444617375731468e-03,9.8134549334645271e-03,-9.4298068434000015e-03,5.3501234054565430e+00,5.5458163842558861e-03,-1.8325542332604527e-03],
"split_indices":[7,3,2,14,1,0,13,0,0,0,6,15,0,15,0,0,0,0,16,0,0],
"split_type":[0,0,0,0,0,0,0,0,0,0,0,0,0,0,0,0,0,0,0,0,0],
"sum_hessian":[0.0,0.0,0.0,0.0,0.0,0.0,0.0,0.0,0.0,0.0,0.0,0.0,0.0,0.0,0.0,0.0,0.0,0.0,0.0,0.0,0.0],
"tree_param":{"num_deleted":"0","num_feature":"18","num_nodes":"21","size_leaf_vector":"0"}
},
{
"base_weights":[0.0,0.0,0.0,0.0,0.0,0.0,0.0,0.0,0.0,0.0,0.0,0.0,0.0,0.0,0.0,0.0,0.0,0.0,0.0,0.0,0.0,0.0,0.0],
"categories":[],"categories_nodes":[],"categories_segments":[],"categories_sizes":[],
"default_left":[true,true,true,false,true,true,true,true,false,false,true,true,false,false,true,false,false,false,false,false,true,false,false],
"id":59,
